tree
version=v4
num_class=1
num_tree_per_iteration=1
label_index=0
max_feature_idx=30
objective=binary sigmoid:1
feature_names=V1 V2 V3 V4 V5 V6 V7 V8 V9 V10 V11 V12 V13 V14 V15 V16 V17 V18 V19 V20 V21 V22 V23 V24 V25 V26 V27 V28 hour is_night amount_log
feature_infos=[-56.407509631328999:2.45188848995359] [-72.715727562930297:22.057728990490901] [-48.325589362395398:9.3825584328211402] [-5.6831711981699504:16.491217173662299] [-113.743306711146:34.801665876668601] [-26.1605059358433:73.301625545964598] [-43.5572415712451:120.589493945238] [-73.216718455267397:20.007208365121301] [-13.4340663182301:15.5949946071278] [-24.588262437247501:23.7451361206545] [-4.7974734647975703:12.018913181619901] [-18.683714633344302:7.8483920756446004] [-5.7918812063208396:7.1268829585937601] [-19.214325490261398:10.526766051784699] [-4.49894467676621:8.8777415977427694] [-14.129854517493101:17.315111517627798] [-25.162799369324802:9.2535262504728504] [-9.4987459210467708:4.2956482344645002] [-4.9327330554783302:5.5721133268796903] [-54.497720494566003:24.133894191742101] [-34.8303821448146:27.202839157315399] [-8.8870171409487106:10.503090089945401] [-44.807735203791303:22.528411689774899] [-2.8366269187034101:4.5845491368981701] [-10.2953970749851:6.0708503840779802] [-2.2416202900029498:3.5173456116238002] [-22.565679320782699:31.612198106136301] [-15.4300839055349:33.847807818883098] [0:23] [0:1] [0:10.153941165977784]
tree_sizes=6828 6928 6925 6926 6929 6951 6947 6924 6959 6967 6987 6972 6983 6977 6982 7004 7021 6987 7003 7026 7018 7036 7016 7018 7038 7038 7033 7027 7011 7005 7043 7033 7023 7063 7029 7044 7057 7032 7063 7068 7064 7081 7104 7088 7092 7064 7055 7084 7032 7075 7090 7016 7072 7094 7062 7072 7033 7046 7104 7062 7047 7045 7036 7046 7036 7071 7074 7100 7066 7023 7041 7065 7025 7066 7031 7081 7018 7001 7000 7029 6970 6995 7004 7012 7054 7020 7032 7050 7033 7076 7087 7065 7095 7110 7114 7101 7109 7097 7111 7117 7132 7124 7129 7105 7095 7085 7148 7143 7144 7121 7130 7140 7124 7121 7116 7087 7111 7107 7034 7075 7073 7085 7063 7023 7069 7084 7083 7098 7072 7085 7051 7073 7066 7068 7033 7046 7084 7094 7020 7057 7017 7033 7024 7050 7008 7005 7053 7079 7052 7010 7049 7046 7046 7032 7055 7040 7043 7056 7043 7051 7063 7063 7053 7042 7048 7069 7043 7049 7094 7052 7039 7082 7068 7067 7078 7033 7011 7038 7058 7057 7043 7023 7082 7086 7080 7029 7059 7050 7070 7015 7034 7037 7024 6988 7050 7063 7049 7024 7060 7065 7010 7033 7055 7031 7032 7043 7049 7047 7063 7086 7064 7078 7058 7033 7037 7041 7074 7015 7043 7067 7066 7069 7050 7052 7072 7024 7052 7048 7018 7073 7048 7064 7062 7040 7071 7038 7069 7064 7073 7091 6925 7044 7065 7084 7094 7072 7051 7077 7052 7067 7031 7075 7092 7076 7098 7084 7068 7067 7060 7091 7096 7049 7062 7087 7055 7048 7110 7063 7079 7058 7065 7078 7087 7054 7043 7071 7057 7067 7084 7089 7035 7098 7039 7095 7086 7101 7090 7078 7077 7074 7087 7075 7101 7072 7070 7056 7106 7062 7075 7054 7090 7084 7086 7103 7081 7094 7064 7078 7089 7079 7086 7069 7051 7081 7096 7086 7076 7075 7064 7058 7076 7064 7081 7111 7042 7096 7059 7074 7113 7091 7068 7132 7084 7078 7068 7078 7080 7090 7071 7056 7057 7036 7079 7071 7062 7095 7077 7080 7095 7099 7089 7087 7085 7105 7107 7113 7090 7089 7083 7122 7123 7105 7077 7112 7086 7074 7071 7107 7088 7072 7075 7073 7064 7113 7062 7093 7065 7080 7071 7120 7105 7104 7074 7088 7130 7101 7161 7131 7133 7075 7095 7122 7104 7139 7073 7088 7074 7092 7117 7109 7104 7100 7129 7110 7116 7099 7112 7158 7138 7138 7167 7105 7136 7114 7145 7125 7157 7177 7124 7121 7113 7127 7120 7159 7021 7057 7050 7000 7042 7084 7090 7078 7087 7111 7087 7133 7133 7133 7122 7109 7125 7143 7117 7150 7159 7078 7114 7150 7130 7140 7122 7125 7122 7146 7117 7160 7132 7137 7124 7140 7113 7134 7131 7071 7093 7126 7096 7120 7146 7173 7129 7104 7136 7131 7127 7130 7120 7134 7093 6994 7079 7105 7097 7122 7111 7094 7057 7082 7099 7110 7122 7097 7117 7125 7134 7141 7134 7143 7170 7177

Tree=0
num_leaves=64
num_cat=0
split_feature=13 9 16 6 25 26 0 7 3 16 11 3 12 24 8 27 3 16 0 27 5 19 13 20 28 25 21 26 1 30 19 1 6 6 16 0 12 3 21 8 19 12 11 0 24 30 13 22 30 30 0 9 0 11 14 16 18 20 0 13 20 0 24
split_gain=62628.4 81310.8 3902.1 2566.57 2398.48 4760.49 618.457 814.823 528.405 500.241 5286.25 926.862 259.625 249.027 95.8262 70.8114 24.0113 107.008 307.628 1014.81 89.8223 71.9482 35.5363 221.48 21.0292 18.3013 14.7648 11.5503 16.6391 9.3006 95.9244 154.28 25.5858 8.6969 42.9326 67.5837 19.2142 93.3611 8.62725 19.4679 7.2495 63.5007 161.776 23.6499 14.5786 99.8773 4.54202 17.6344 7.62093 37.5928 71.2971 21.3759 95.6896 139.433 2.86701 25.8994 2.52259 20.4646 2.43277 25.2216 23.3177 2.30722 24.9758
threshold=-3.6128426166552843 -2.2159581580060492 2.1818794868491853 -0.62404376626639291 -0.26107227319911547 1.0496132247684102 0.94243708579705954 -0.30247329037317744 1.7214462163128601 -1.6084245419966599 -2.1791336905185799 2.1677355555543758 -0.051719334730424039 1.0559062223710551 -1.3861133555081449 0.62659677018585558 2.6284362358267805 1.4600953440682753 0.80517247273274506 0.042038661008314708 -0.73564714868566738 1.1995642288789801 -2.1811447414791245 -0.012366529778493798 6.5000000000000009 1.4087850042099002 1.7845771284173251 -2.1193677198071996 0.8769193177108936 0.56814667781789929 0.62168403044462861 1.4786876362936001 1.2155306959408703 2.4945406030414756 1.7203533232872001 -1.0717482373802047 -1.5255036717544648 1.0797388822602703 1.7845771284173251 -0.23455791870415746 -0.98185489821730987 -1.5551060636743548 -0.77963941331538533 -2.1434785544247448 -1.5191675363209247 2.1406540530407772 -1.3751914950785697 1.3641867043567502 4.6590900234886652 4.7005258182718812 -0.12486738365278499 -1.3985659439653746 -0.15013592345417098 0.079015156198546668 -2.7065324474517145 0.75238214755361066 -1.5191977155774696 -0.56820113062620881 2.0867837016346651 -1.4231881197008698 0.28390906974369751 -0.76005321114433644 0.54406421862678211
decision_type=2 2 2 2 2 2 2 2 2 2 2 2 2 2 2 2 2 2 2 2 2 2 2 2 2 2 2 2 2 2 2 2 2 2 2 2 2 2 2 2 2 2 2 2 2 2 2 2 2 2 2 2 2 2 2 2 2 2 2 2 2 2 2
left_child=1 2 4 -3 5 12 14 -8 -6 10 11 -2 -1 15 -5 -10 33 22 21 20 -20 -19 23 -18 -12 26 27 28 -24 30 32 -32 -29 40 36 -36 37 -35 61 -40 41 42 -11 -44 45 -43 47 48 58 50 -50 52 -51 -54 55 -31 57 -46 -42 60 -60 -38 -63
right_child=9 3 -4 6 8 -7 7 -9 13 16 24 -13 -14 -15 -16 -17 17 18 19 -21 -22 -23 25 -25 -26 -27 -28 29 -30 54 31 -33 -34 34 35 -37 38 -39 39 -41 46 44 43 -45 56 -47 -48 -49 49 51 -52 -53 53 -55 -56 -57 -58 -59 59 -61 -62 62 -64
leaf_value=22.555999924966784 2.2809019098175325 8.0737870570029528 2.807527832288959 -3.8897800947930135 15.31489349098473 0.27567243579185519 -5.6657482279880966 3.2463827676818164 22.555999924967239 -2.6304572367092218 -5.294409436501831 13.866672204188372 17.038966451456613 18.418224819834265 -6.4084258109605976 20.487112372400503 -6.4084258109605976 -6.4084258109605976 -3.5119832373678865 3.7291231966138882 -6.4084258109605976 -4.4774640952321052 -6.4084258109605825 -2.0637619505722915 -6.4084258109605976 -5.4429449530963332 -5.6256034937733563 -6.4084258109605976 -4.9602045241642418 -6.4084258109605958 -2.0637619505715179 -6.4084258109605967 -5.0918610047820847 -6.4084258109605976 -6.4084258109605967 -3.5119832373678777 -6.4084258109605976 -3.5119832373678865 -6.4084258109605976 -4.9602045241642374 -6.4014185711551237 -3.5119832373678777 -6.4084258109605976 -4.9602045241642374 -5.2498487815235064 -6.4084258109605976 -6.4062561043753714 -5.4740894968984062 -6.4084258109605967 -6.4084258109605976 -3.5119832373678408 -6.4084258109605976 -6.4084258109605958 -2.0637619505715321 -6.4050274270892 -4.9602045241642418 -6.4084258109605976 -6.4084258109605976 -6.4084258109605976 -5.029167442583077 -5.201574738630292 -6.4084258109605985 -5.0291674425831143
leaf_weight=0.051787665579468012 0.034525110386312008 0.034525110386312008 0.037977621424943209 0.039703876944258809 0.034525110386312008 0.04488264350220561 0.067323965253308415 0.041430132463574409 0.28655841620638967 0.039703876944258809 0.044882643502204611 0.034525110386312008 0.036251365905627608 0.048335154540836811 0.77336247265338787 0.048335154540836811 0.19506687368266284 0.70431225188076396 0.034525110386312008 0.034525110386312008 0.11911163083277643 0.051787665579468012 0.046608899021534422 0.034525110386318114 0.75437366194091737 0.051787665579467013 0.063871454214676215 1.3033229170832772 0.034525110386312008 0.29173718276434968 0.034525110386311897 0.050061410060152411 0.037977621424943098 0.14327920810319561 0.048335154540836811 0.034525110386311897 2.926003105239944 0.034525110386312008 0.070776476291939616 0.034525110386311897 14.270954378182074 0.034525110386311897 0.15363674121908844 0.034525110386311897 0.04315638798289001 0.21578193991445005 345.66885769879445 0.053513921098782613 0.055240176618099213 0.27792713860981166 0.034525110386311453 1.8004845066461708 0.039703876944259364 0.034525110386312008 14.712875791126846 0.034525110386312008 5.0544761605560771 0.32626229315064836 1.1790325196925548 0.036251365905626609 0.041430132463574298 0.34697735938243424 0.036251365905627608
leaf_count=30 20 20 22 23 20 26 39 24 166 23 26 20 21 28 448 28 113 408 20 20 69 30 27 20 437 30 37 755 20 169 20 29 22 83 28 20 1695 20 41 20 8267 20 89 20 25 125 200242 31 32 161 20 1043 23 20 8523 20 2928 189 683 21 24 201 21
internal_value=-6.35834 3.68867 18.309 -5.3105 19.3781 13.5281 -5.81178 -2.27065 21.2394 -6.39796 -5.19918 8.07379 20.2843 21.7732 -6.28543 22.2574 -6.40062 -6.34395 -5.82596 -4.01687 -5.75754 -6.27617 -6.3729 -5.75509 -6.34587 -6.38142 -6.38434 -6.38727 -5.79216 -6.39021 -6.26816 -4.63509 -6.37115 -6.40333 -6.3268 -5.20157 -6.35275 -5.84601 -6.37914 -5.9336 -6.40409 -6.34912 -5.53072 -6.1427 -6.38199 -6.00892 -6.40499 -6.38037 -6.3831 -6.29694 -5.29441 -6.33874 -5.98248 -4.38765 -6.40178 -6.25517 -6.39921 -6.27308 -6.39555 -6.32885 -6.36746 -6.39332 -6.27796
internal_weight=393.319 1.545 0.588653 0.956346 0.550676 0.132922 0.92182 0.108754 0.417754 391.774 0.868307 0.0690502 0.088039 0.383229 0.813066 0.334894 390.905 17.8357 0.944262 0.188162 0.153637 0.7561 16.8914 0.229592 0.799256 16.6618 16.61 16.5462 0.081134 16.465 1.42589 0.0845865 1.3413 373.07 3.6752 0.0828603 3.59234 0.177804 3.41453 0.105302 369.395 5.90207 0.227866 0.188162 5.6742 0.250307 363.492 17.8236 17.7701 2.24241 0.0897653 2.15264 0.352156 0.074229 15.0391 0.326262 5.42389 0.369419 15.5277 1.25671 1.22046 3.30923 0.383229
internal_count=227845 895 341 554 319 77 534 63 242 226950 503 40 51 222 471 194 226447 10332 547 109 89 438 9785 133 463 9652 9622 9585 47 9538 826 49 777 216115 2129 48 2081 103 1978 61 213986 3419 132 109 3287 145 210567 10325 10294 1299 52 1247 204 43 8712 189 3142 214 8995 728 707 1917 222
is_linear=0
shrinkage=1


Tree=1
num_leaves=64
num_cat=0
split_feature=13 12 6 0 10 22 19 16 4 3 6 9 13 25 11 11 27 9 30 27 23 6 7 23 3 21 19 17 11 25 30 13 7 3 18 8 8 18 13 25 9 0 4 18 21 24 25 2 6 1 19 17 13 6 3 3 13 11 25 12 1 25 16
split_gain=274.18 282.132 560.356 148.327 432.46 120.859 425.538 81.1308 111.762 65.1017 7558.78 80.3032 87.0884 63.5333 63.2162 55.8858 41.9161 33.3082 29.0823 25.6745 19.3158 18.5754 16.2806 13.4771 30.5352 8.78266 25.0612 68.8731 47.3908 7.07575 18.2103 6.20417 21.8888 57.2209 10.0152 34.2667 82.3774 10.3841 34.7748 6.46233 9.56462 24.9284 83.5865 17.4389 14.298 12.9635 12.6279 6.60595 22.1126 5.98846 5.33891 8.60934 9.21469 3.59094 10.4955 46.0113 74.6462 89.0607 7.82091 46.2504 85.0791 9.88481 20.2008
threshold=-3.0453933014254244 1.3801205301058452 0.28088406600915056 1.6388612827334301 -1.2589410782999748 0.62680736052470964 1.4537410660440901 -1.6084245419966599 -4.6916654761528944 3.9069140187532905 -3.4610937641094597 -2.2159581580060492 -3.6128426166552843 0.11599917026913552 -2.1791336905185799 -2.0108897407255646 0.29284386537908008 -0.50294061911660193 6.2909207769790996 0.28126704438567707 0.32735753853355054 -1.5746707095340249 0.12178343679684701 -1.0506946048025598 1.3912888297589703 1.7845771284173251 -0.47009726138393443 0.6593890440519331 -0.53348239669199937 -0.28116816535856398 2.7722761245428225 -1.3751914950785697 -4.8693175808201437 1.3493621578373551 -1.7082961340423199 -1.0930136750029649 -1.2503735639304898 -1.5191977155774696 -2.6262787275278345 -0.117829311927713 -0.78687575473933191 1.9866177482552851 1.1465527054251903 1.1018552808702402 -0.98424612466261441 1.0559062223710551 -0.12225534526604999 1.2006085111995353 0.67857289085156614 -1.1043588021977848 0.35215701425299001 0.91330212892048956 -1.7761102791655898 1.2789474960763954 2.7299348841803255 2.9589051829499304 0.15083490464246155 -0.22081549539262599 -0.53363991434407487 -1.3333796274007548 -0.70519985850074096 -0.54179234166641133 0.08010679710179136
decision_type=2 2 2 2 2 2 2 2 2 2 2 2 2 2 2 2 2 2 2 2 2 2 2 2 2 2 2 2 2 2 2 2 2 2 2 2 2 2 2 2 2 2 2 2 2 2 2 2 2 2 2 2 2 2 2 2 2 2 2 2 2 2 2
left_child=1 3 -3 4 -1 9 20 8 -2 10 -6 12 15 17 -10 16 -12 -5 -16 22 -7 -13 -11 24 -23 31 27 28 -27 -21 -31 32 33 -9 35 36 -34 38 -36 40 41 43 -43 44 -39 46 47 50 -49 -37 -46 52 -52 -33 58 56 57 -56 59 60 -55 -61 -63
right_child=7 2 -4 13 5 6 -8 25 14 19 11 21 -14 -15 18 -17 -18 -19 -20 29 -22 23 -24 -25 -26 26 -28 -29 -30 30 -32 53 34 -35 37 49 -38 39 -40 -41 -42 42 -44 -45 45 -47 -48 48 -50 -51 51 -53 -54 54 55 -57 -58 -59 -60 61 -62 62 -64
leaf_value=-21.986012429599853 -3.427638042997712 -5.7060760350904749 -0.61143225981195892 -0.76025193491179599 -76.113067969506716 -0.053009028704735575 -4.9399547237765056 -0.05010538730066099 -0.58880116604177601 0.41210910837816783 -0.87842878939617641 -0.5392751200215411 0.048343998185234022 -0.20182592775408537 -0.050107912771792933 -0.64557927239987867 -2.275618647093812 -1.479820414234525 1.4702512442109672 -0.093213610401819025 -1.2225370408977871 -0.050804698179142439 0.021840575322850497 -0.043684485779881183 -0.87872508293437535 1.3739227856362515 -0.050129069560494746 2.3012402537610988 -0.050182163559029547 -0.55360072855983489 -0.10878786056450823 -0.047423477584847384 -0.053023713006572264 1.9849019920909883 0.76747708203698584 0.29416204846884564 -1.6451940238714569 0.8138130652907547 -0.043126504890763244 -0.04577670772241893 -0.039172106856717223 -0.050082947827841673 2.8592496551627633 0.99273066158043966 -0.051833811523349427 0.72569607285387772 0.68729898595704864 -0.050088855239361664 1.4674789994100452 -0.053241074265682233 0.37592114742481963 -0.054545135156273433 -0.053290523301002868 1.70663751050751 2.7402349678291156 -0.04765596068153468 -0.050167722426817322 -0.050150247019369626 -0.047222837837808174 -0.050083773269532977 -0.050093149147526488 -0.050082529280384348 1.475811601720451
leaf_weight=0.0022765234461940001 0.029607317233796837 0.070061513101577044 0.2350387667667313 0.3157279915176332 0.0032867466522911162 0.20566304605394137 0.060187592739983753 0.11641134438105183 1.0094567182201215 0.34288218988465358 0.10735990395521222 0.25236180424688504 0.35961132240478866 0.2609313374850899 0.72187107766512681 0.64414822541677452 0.10735897025352548 0.32778822327964086 0.032886967179365456 4.4158881932473868 0.042621022104772255 0.33160334231795996 1.2111409988369257 2.4336949605491256 0.16768592721200548 0.070220473455265164 1.1907395080197591 0.042527549667283893 0.34758318308740843 0.31893876432124857 0.8259787223042524 337.02403202408459 0.25344054796732962 0.049118288792669773 0.18260959815233946 0.1433992109959944 0.11956664698664088 0.057831460377201327 0.48032135656104458 11.410131541430003 4.5462003923021346 0.08763510372955341 0.034371060086414218 0.047909202286973485 2.6408045198768386 0.064400261500850209 0.067753718467429613 0.088429222814738639 0.032947590225376189 0.91921215737238782 0.34769793064333498 0.58818502677604556 0.19527999672573038 0.11380339483730495 0.071672190795652568 0.94367491721641272 0.14955855451989919 0.047577968216500066 16.99609793687705 2.2213294327957565 0.17475636943709139 0.064163132803520262 0.032766637275926769
leaf_count=3 21 39 39 34 31 70 23 63 22 27 42 3 18 23 395 14 25 21 18 24 23 152 65 1009 29 30 673 16 144 54 36 202166 46 8 19 13 21 19 119 6140 2525 53 15 13 1083 23 25 52 20 156 32 70 59 37 26 512 75 23 9805 1345 103 39 17
internal_value=-0.0533163 -0.278769 -1.78134 -0.242777 -0.195604 -0.191411 -1.16812 -0.0456542 -0.381126 -0.165262 -0.316273 -0.259702 -0.604918 -0.859932 -0.329999 -0.878442 -1.57702 -1.12678 0.0161385 -0.0717214 -0.253773 -0.127648 0.10795 -0.0922308 -0.328861 -0.0440787 0.0709906 0.384291 0.189168 -0.121932 -0.232699 -0.0445783 -0.0190954 0.553751 -0.023346 -0.151089 -0.56339 -0.0145598 0.180161 -0.0209472 0.011249 0.0651429 0.769522 0.0443408 0.0332135 0.0219991 0.0105583 -0.00121864 0.361853 -0.00635909 -0.0129018 0.0779886 0.221557 -0.0461787 -0.0260244 0.116734 0.693838 1.62694 -0.0348543 0.045787 0.642734 -0.0285165 0.465739
internal_weight=396.8 13.0422 0.3051 12.7371 11.8327 11.8304 0.308472 383.758 1.79382 11.5219 4.40711 4.40382 1.21848 0.904448 1.76421 0.858867 0.214719 0.643516 0.754758 7.11483 0.248284 3.18535 1.55402 2.93298 0.499289 381.964 1.65107 0.460331 0.417804 5.56081 1.14492 380.313 22.4737 0.16553 22.3081 1.43562 0.373007 20.8725 0.662931 20.2096 8.79945 4.25325 0.122006 4.13124 4.08333 4.0255 3.9611 3.89334 0.121377 1.06261 3.77197 1.13116 0.542978 357.839 20.8154 1.21248 0.268809 0.11925 19.6029 2.60682 0.28856 2.31826 0.0969298
internal_count=227845 1804 78 1726 1648 1645 116 226041 456 1529 1323 1292 99 78 435 81 67 55 413 206 93 1193 92 1190 181 225585 863 190 174 114 90 224722 10574 71 10503 236 67 10267 138 10129 3989 1464 68 1396 1383 1364 1341 1316 72 169 1244 161 91 214148 11982 636 124 49 11346 1541 140 1401 56
is_linear=0
shrinkage=0.05


Tree=2
num_leaves=64
num_cat=0
split_feature=16 13 28 7 18 8 6 19 13 22 2 13 15 28 9 9 28 16 8 9 11 2 25 22 20 10 28 18 0 22 18 18 27 11 28 24 11 0 13 0 20 16 19 30 12 15 3 10 30 10 21 21 13 21 2 14 25 28 18 10 25 30 10
split_gain=53.4233 68.5438 55.841 46.1142 33.1031 38.3089 24.1344 201.472 2876.04 93.6574 339.26 88.3811 1844.1 3253.99 114.75 419.971 1573.33 30.3666 37.2148 25.8335 22.7801 21.484 29.1767 21.2078 18.4377 18.1094 16.7434 23.2944 16.2059 17.108 14.4236 14.2352 12.9031 10.3963 10.0602 10.6666 9.61592 15.9462 8.22175 16.5931 8.14303 6.91838 5.74811 10.5925 19.0296 7.71232 23.1644 15.0346 45.0694 13.5813 5.53272 6.58006 5.51069 11.6514 11.8305 18.4438 14.4226 25.6422 57.5994 14.5611 12.4486 11.6386 10.2947
threshold=2.1818794868491853 -3.6128426166552843 21.500000000000004 -1.5701837938509648 -2.4452986082580996 -0.33820810999390444 -3.4610937641094597 0.72702189999039912 -2.6262787275278345 -0.87357587482687682 -1.8443438566552148 -3.6128426166552843 -2.8508117238719146 11.500000000000002 -1.5311499966243598 -1.7609956832324947 17.500000000000004 -1.6084245419966599 -1.8433337002625698 -0.29804339767062998 -2.4483576171696546 -4.3461583588061545 0.13378306399484452 1.3641867043567502 3.6295783818971254 2.0682197589250157 21.500000000000004 1.2774993446723604 -1.4255026292511397 0.39833043701337256 1.361684808799825 -1.6355369822693946 0.26281807231489807 -2.6663561528241595 19.500000000000004 0.064990714738047975 -0.22081549539262599 -1.8638541910923798 -3.0453933014254244 1.6388612827334301 1.6961943666808452 -1.1979567785750198 -0.98185489821730987 0.56814667781789929 -1.6231701814863049 -0.62815355507737536 2.8322724824043308 -1.0573868411755198 5.7470973547570638 -1.0712711040809897 1.4179663315248201 1.4880091748995652 -1.7761102791655898 -0.93253883389589387 -0.87738763101351591 -1.3540994309011449 -0.117829311927713 21.500000000000004 0.40361492840466007 0.020985727213352002 -0.14103457270017497 4.8598899177328851 1.4301897804131702
decision_type=2 2 2 2 2 2 2 2 2 2 2 2 2 2 2 2 2 2 2 2 2 2 2 2 2 2 2 2 2 2 2 2 2 2 2 2 2 2 2 2 2 2 2 2 2 2 2 2 2 2 2 2 2 2 2 2 2 2 2 2 2 2 2
left_child=6 2 3 -2 5 -3 7 8 -1 10 -9 12 13 -8 15 16 -14 18 -13 -16 -10 -5 25 50 -21 34 32 -28 31 -30 -25 -20 41 -33 35 -23 37 -22 39 -19 -34 -11 43 44 -40 46 47 48 49 -45 -6 -52 53 61 55 62 57 59 -59 60 -57 -44 -55
right_child=1 4 -4 21 23 -7 11 9 20 26 -12 17 14 -15 19 -17 -18 38 28 24 36 22 -24 30 -26 -27 27 -29 29 -31 -32 33 40 -35 -36 -37 -38 -39 42 -41 -42 -43 52 45 -46 -47 -48 -49 -50 -51 51 -53 -54 54 -56 56 -58 58 -60 -61 -62 -63 -64
leaf_value=6.9029257064391549 0.50915794923724256 -0.050232808580399219 -0.86614123711208379 -0.52936608850985545 -0.049280336854593931 -1.8600884215061531 -51.838282449267503 -7.2949083737209195 -0.44531225219797765 0.1382273345469984 -0.050149684759236181 -0.99232003093848109 -0.036147767784503501 -0.046297801701963043 1.1504574187658381 -0.049466190798313325 -52.941144446100253 -0.054423069231907942 -1.0801874564030685 -0.050805031643494272 -0.050078655736940786 -0.21212545489010598 0.076591621957614556 0.14548755996151119 -1.1550513148045027 -0.035530984852329958 -0.050111539270942487 0.9337907176200565 -0.017822010953821833 0.95052234997712393 0.82556424411907392 -0.28191092811453561 -0.1221064485880012 -0.022845029083706933 -0.14978167831352213 -0.46094981686470771 -0.050438696847699194 1.2687698371239422 0.77083654958689296 -0.41654786251832321 0.084819951522067838 -0.05260600092478307 -0.051382646981592228 -0.051301565013290397 -0.050349840906808642 -0.04253007497174012 0.71469800231757974 -0.050424470973928416 1.503795840498884 0.75670400581811759 0.57152602370177763 -0.050529077963900354 -0.046450079652107117 0.20197333257678204 -0.059483093332222209 0.14997719719514346 -0.035919888967226948 -0.050090098721532784 2.3258839209584852 -0.052072663387594101 0.65078088563213998 -0.42747062542357334 0.7927803845052509
leaf_weight=0.16029048972266347 0.19619403791801904 0.0657496492494829 0.38667804480064649 0.69669694749245481 4.3632281158315873 0.052652270649559685 0.0048271424964495 0.020700027843210567 0.39709665132488714 0.97842032389923672 0.073668186785657119 0.14452418604537376 0.0054790966788994524 0.0081581824959678362 0.041612596251070444 0.025430851790588349 0.0018900559353740576 1.0781796041706559 0.048539547118708559 0.41917134195683609 0.058022699900902808 0.59561946065514559 0.65470583888236422 0.24757566559128452 0.041549107641912997 0.57912862399825815 0.14864562154293093 0.10105429124087095 0.52562522341025752 0.04994606778564048 0.11380209936760366 1.4680756296922943 5.4358003544429634 0.52600753704871217 0.53505410606157955 1.5555758430855346 1.1383552232292158 0.037884442484937719 0.12131431326270103 0.44768873002612952 0.52100780818549353 0.9229465287644355 0.59543554839910839 0.33030910464003682 0.16858797660114433 6.1264009793521828 0.13012612692546088 1.5048656557919449 0.064332117093726993 0.061724261729978136 0.079976620967499801 0.090751767274923623 342.0488027156095 0.19593583419918914 4.0783902776311143 0.97276955679990351 3.2794452655361974 0.064788807707372942 0.0420720383990556 0.95615520467981685 0.14222966344095744 0.31429962581023574 0.11822159134317189
leaf_count=107 25 34 29 47 2187 6 21 28 6 30 40 23 62 37 9 5 25 207 25 225 37 74 23 58 2 51 92 5 196 15 6 14 265 215 27 38 547 8 2 31 32 312 218 136 72 2842 17 743 21 2 7 36 214448 48 1998 163 1468 39 8 310 24 12 5
internal_value=-0.0480314 -0.160864 -0.288056 -0.241613 -0.0289542 -0.855059 -0.0449677 0.0316932 0.512034 -0.0732296 -1.63932 -0.0470601 -0.681495 -19.2994 -0.229722 -3.09505 -13.6053 -0.046109 -0.211249 -0.0426288 -0.115908 -0.273517 -0.228047 -0.00897346 -0.150389 -0.289126 -0.0550018 0.348077 -0.168134 0.0662075 0.359652 -0.234167 -0.06781 -0.213573 -0.343799 -0.392056 -0.00992999 0.470882 -0.0448516 -0.16067 -0.104008 0.0455945 -0.0443625 -0.00375054 0.293289 -0.0142294 0.0686745 0.0258113 0.277199 0.075916 -0.0383546 0.240869 -0.0453418 -0.010109 0.00570339 0.051766 0.0303211 0.13006 0.885351 0.0910913 0.21386 -0.181315 0.424302
internal_weight=386.36 10.2134 5.19965 4.81297 5.01374 0.118402 376.147 9.99389 1.79165 8.20224 0.0943682 366.153 0.548118 0.0129853 0.535133 0.0328 0.00736915 365.605 2.76272 0.502333 1.63136 4.61678 3.92008 4.89533 0.46072 3.26538 8.10787 0.2497 2.61819 0.575571 0.361378 2.04262 7.85818 1.99408 2.68625 2.1512 1.23426 0.0959071 362.842 1.52587 5.95681 1.90137 361.316 8.50766 0.289902 8.21776 2.09136 1.96123 0.456365 0.392033 4.53396 0.170728 352.809 10.7597 9.85001 5.77162 5.45746 2.17802 0.106861 2.07115 1.115 0.909735 0.314157
internal_count=227845 2648 314 285 2334 40 225197 1509 705 804 68 223688 386 58 328 92 87 223302 488 236 598 260 213 2294 227 190 736 97 465 211 64 254 639 229 139 112 592 45 222814 238 297 342 222576 3835 74 3761 919 902 159 138 2230 43 218741 4293 4063 2065 2012 544 47 497 187 230 53
is_linear=0
shrinkage=0.05


Tree=3
num_leaves=64
num_cat=0
split_feature=9 30 25 20 10 24 7 3 20 13 18 14 2 11 2 27 12 13 15 10 0 16 9 2 25 5 14 23 21 16 15 15 2 13 3 7 5 3 8 16 9 12 13 23 23 12 4 28 20 21 15 11 2 12 22 3 30 25 13 27 7 23 6
split_gain=171.485 2935.95 989.431 14675.1 147586 650760 91.1781 743.344 65.8636 51.0152 52.4771 110.818 32.0813 77.8299 24.6753 23.0813 112.772 40.0774 20.7679 16.8578 14.9167 14.1778 223.836 393.987 13.2033 8.9036 8.70543 7.12098 6.76768 8.30785 7.58479 18.4971 6.2272 5.82093 7.29012 20.2933 13.8203 9.62144 23.3069 71.0742 8.69968 6.36196 13.6847 12.6084 36.3429 5.90615 5.71874 18.2856 10.5785 5.61576 10.6886 8.67622 7.2451 5.36117 5.5583 5.05422 4.30221 4.17063 28.796 3.87711 3.64569 3.58849 3.57625
threshold=-2.6720200886180092 0.10884435031562299 -0.17993711688632499 0.24760401891325753 1.0151936123337102 0.38888164271903908 -0.66522342149096592 1.8855616765324801 0.12183806072572702 -3.0453933014254244 0.26715372468152804 -0.17089375075487648 -2.0839850531910646 -2.7994179746032746 -4.3461583588061545 0.27156734378432207 -1.8371460908254049 -3.0453933014254244 -1.9380935372651198 -1.0014749403830498 1.2553747081785052 -1.6084245419966599 -0.68318523845108181 0.64105546638847011 -0.44868828382369791 2.7293200902360506 -0.14281934557860196 -0.67429876148051082 1.7845771284173251 2.4857979091882751 -0.83434409734046333 -0.91126349114216543 -3.2018383951404643 -0.81811979204110385 0.73924927756614001 -2.2179448869938594 -3.0145380494115095 0.7908429897169551 -0.27704706280692543 1.1232841300595402 -1.3594210037971999 -0.74701846807378847 -0.83634457439668541 -0.90177149742044282 -0.94816601191840044 -1.78967251149845 3.0709186936549404 9.5000000000000018 -0.9530578384054329 -0.93253883389589387 1.4689609610505152 -0.056496916430707894 -2.0839850531910646 -0.76057950783654948 1.3641867043567502 1.0239715440316752 4.8598899177328851 1.2041609804448552 -0.87658656515139288 0.32506748731493501 0.34894441247425206 0.11662105860758253 1.2789474960763954
decision_type=2 2 2 2 2 2 2 2 2 2 2 2 2 2 2 2 2 2 2 2 2 2 2 2 2 2 2 2 2 2 2 2 2 2 2 2 2 2 2 2 2 2 2 2 2 2 2 2 2 2 2 2 2 2 2 2 2 2 2 2 2 2 2
left_child=1 -1 6 8 -5 -6 7 -3 18 10 14 -12 13 -13 24 16 -8 -18 -4 -16 27 22 23 -11 -2 -24 -17 32 33 30 31 -30 -21 34 36 45 -23 38 39 -37 -40 42 43 44 -39 -36 47 -26 -49 56 -51 -52 -53 54 -45 -29 -43 -38 -59 -28 -14 -47 -35
right_child=9 2 3 4 5 -7 15 -9 -10 21 11 12 60 -15 19 26 17 -19 -20 20 -22 28 25 -25 46 -27 59 55 29 -31 -32 -33 -34 62 35 37 57 41 40 -41 -42 49 -44 53 -46 61 -48 48 -50 50 51 52 -54 -55 -56 -57 -58 58 -60 -61 -62 -63 -64
leaf_value=49.29345936396264 -0.65088159475627938 -0.0501464748067319 0.54877805494570331 -0.050138710125651013 1163.0390097406937 -0.050072420330996271 5.8190424244102106 8.2924725006803861 0.96311824457306694 -7.937304225972162 2.1148831874351504 1.7902872180830991 -0.051154939715503195 -0.012476842980253791 0.54921227954443619 -0.15435312915049737 0.25338347746907597 -0.18805553775044057 -0.20802331160759088 -0.036311328711592816 -0.26547341145644926 -0.77003025318894314 -0.089491371844593159 -0.050121672253181315 -0.3947158681483347 0.37738272302278064 -0.098207381846465935 -0.14940034380803383 -0.050238611094298918 0.52960013203843126 -0.050431974961363903 0.46512687144831394 -0.23808087719851742 -0.048150272649977816 0.48997102199823772 -0.050075241201405218 -0.040647118967265278 -0.050288662402016661 0.27276712074354514 2.5653750733942822 -0.050126615170390999 -0.051607666669174213 0.79199736571672608 -0.046368922355588815 1.2854914798773169 -0.050266977992600603 -0.38060094896975066 -0.051927242885745878 0.9059377135145944 -0.053580984342139384 -0.054823726182328371 -0.052952302330249106 0.30589321654855411 0.28537228527697284 0.26212371636422532 -0.021242216823469003 -0.26515202206432437 -0.050075251227649491 1.6179983657027499 0.04094760886338978 -0.29049983486612313 0.23090993776760402 -0.024992013415348336
leaf_weight=0.0030400165882448196 0.35610568722540836 0.2449692052935615 0.10155514542168353 0.069952108315192121 0.0015046146553897707 0.005992201547914161 0.0085186483338745012 0.029967173802228991 0.16242904709600037 0.025356222940672524 0.069257069314543562 0.08131169612436806 0.35922691491782538 0.22703964730759196 0.082970441969561715 4.2772067405421845 1.1404764673148273 0.93624658141561856 0.84420447234872753 0.5006161737837832 2.5968335498473607 0.064825070556252196 0.8207750846630677 0.042160328826867044 0.22330792324788606 0.11662964352944982 0.99256832418830043 1.27953656253522 0.43972520972602069 0.085608418798074015 1.2101696176872556 0.28822644299361866 1.6194311064900806 281.81169139073586 0.18328112515155226 0.081015662755817175 35.755208812159253 0.15976759398472495 0.30012929788790643 0.038233640138059855 0.68406108231283613 0.46384773717727235 0.059376742923631265 2.2145565612008808 0.074741243035533311 0.14530592865776171 0.68604166898876429 0.064223187451716401 0.052294277834278202 7.8801024755957769 0.50840560367214493 0.18929333658888936 0.54747968551237114 0.1467726783594111 0.15631993289571244 1.9292650966963265 0.47986693610437214 0.18905872444156557 0.029974698554723456 1.009796211175549 0.2855858333646108 0.51796252455096692 17.718938057660125
leaf_count=23 20 147 25 41 115 39 2 35 12 24 21 9 100 54 14 32 38 185 172 23 172 22 347 24 12 39 7 326 221 5 491 24 191 185357 4 54 21798 91 8 22 434 148 38 1030 13 60 11 9 35 4366 50 63 19 25 14 481 29 126 20 39 5 52 10432
internal_value=-0.0417794 0.164309 0.149108 1.50356 22.5454 233.382 -0.0367637 0.859172 0.0329866 -0.0473464 -0.156421 0.18375 0.043434 0.462909 -0.193458 -0.0662115 0.0779199 0.0543701 -0.126758 -0.15979 -0.167212 -0.0441327 -0.231671 -3.0122 -0.38857 -0.031404 -0.114073 -0.119328 -0.043598 0.0475744 0.0262829 0.153816 -0.190436 -0.0441245 -0.0284867 0.00101969 -0.040629 -0.0133709 0.128328 0.788489 0.04834 -0.0255099 0.0409898 0.0247871 0.375443 0.238735 -0.297515 -0.129781 0.377973 -0.0440784 -0.0320702 0.104061 0.213698 -0.00787504 -0.026029 -0.0723463 -0.160192 -0.0393146 0.1782 -0.0280313 -0.15716 0.169311 -0.0467803
internal_weight=373.67 9.82843 9.82539 1.18564 0.0774489 0.00749682 8.63975 0.274936 1.10819 363.842 10.413 1.02242 0.953164 0.308351 9.39063 8.36481 2.08524 2.07672 0.94576 8.00865 7.92568 353.429 1.00492 0.0675166 1.38197 0.937405 6.27957 5.32885 352.424 2.02373 1.93812 0.727952 2.12005 350.4 50.8696 14.8305 36.0391 13.984 1.10344 0.119249 0.98419 12.8805 2.81153 2.75216 0.234509 0.84655 1.02587 0.339825 0.116517 10.069 9.12528 1.24518 0.736773 2.51765 2.37088 3.2088 0.943715 35.9742 0.219033 2.00236 0.644813 0.663268 299.531
internal_count=227845 912 889 404 195 154 485 182 209 226933 1483 189 168 63 1294 303 225 223 197 1207 1193 225450 434 48 87 386 78 1021 225016 741 736 245 214 224275 28486 6520 21966 6404 518 76 442 5886 1211 1173 104 116 67 56 44 4675 4498 132 82 1069 1044 807 177 21944 146 46 105 112 195789
is_linear=0
shrinkage=0.05


Tree=4
num_leaves=64
num_cat=0
split_feature=30 9 16 20 14 18 13 13 14 17 10 9 30 19 12 6 25 21 21 16 3 17 14 0 14 24 9 30 24 27 3 25 11 5 25 13 0 6 5 20 9 3 9 13 0 12 7 25 18 13 14 12 10 10 15 28 13 18 13 5 19 1 23
split_gain=56.0534 33.0229 26.0673 33.349 56.923 23.3439 16.4626 13.7914 756.937 931.951 209.422 1290.22 1802.58 62.2188 213.357 28.5662 87.9531 419.049 700.453 23.699 21.1851 59.7754 11.5122 11.1682 9.59886 9.32322 8.66184 45.129 103.068 8.50416 8.04307 13.7948 7.69073 6.36646 5.72552 5.47487 7.18077 5.12999 10.1971 11.0938 13.1465 5.2663 12.9103 5.16079 5.02361 4.91514 4.51446 4.44558 4.33514 4.22491 5.8157 12.6434 20.1283 6.15518 12.9506 24.6067 12.0051 20.9705 7.61281 6.17155 5.87907 5.61461 4.03196
threshold=7.5236756486873242 -2.6720200886180092 2.1818794868491853 0.43957531490784857 -1.4215782893161149 0.50368096920953709 -3.6128426166552843 -3.6128426166552843 -1.2602757013361898 0.77383487237003667 2.0682197589250157 -0.39486009127894545 1.0935983439599541 0.39113459896307107 -0.60109990478661335 -4.9612802220930385 -0.29003173681245747 -0.55275992072089342 -0.17931773379102148 -1.6084245419966599 4.135161612364751 -2.5195789182320794 -1.5322287854718597 -4.0448300300735642 -0.15153684953573845 -1.2459578195959298 -2.6720200886180092 1.100276183714447 0.36349201988326008 -1.3802334835187346 0.92771336993534204 -0.23590526589217548 0.97015766240117152 1.8666688202905501 -0.88217451140458947 -3.0453933014254244 1.6388612827334301 3.0068363596861754 0.74092066833440906 0.11805718974806652 -1.7609956832324947 4.7792095347160162 3.7947456984266954 0.33126471484797954 -1.2516921328735047 -0.73270139019686242 -0.26897575590041944 -0.098067145430686634 -1.7825895401304599 -0.81811979204110385 1.3678647888516302 -0.88073499600461191 -0.60770664494731785 1.3279680183582852 1.3494875110061753 20.500000000000004 -0.83634457439668541 0.089739834784028763 -2.6262787275278345 -3.0145380494115095 -0.86861961297933288 0.63413746019155159 0.78286071541768865
decision_type=2 2 2 2 2 2 2 2 2 2 2 2 2 2 2 2 2 2 2 2 2 2 2 2 2 2 2 2 2 2 2 2 2 2 2 2 2 2 2 2 2 2 2 2 2 2 2 2 2 2 2 2 2 2 2 2 2 2 2 2 2 2 2
left_child=2 -2 7 5 -5 6 30 8 9 -1 11 12 -10 14 -12 24 -17 -18 -19 20 21 -9 29 -16 -15 -6 27 28 -21 -23 -4 -32 62 -8 -3 36 -28 41 39 40 -39 49 47 -42 -24 -26 -33 -43 -35 50 53 52 -52 59 56 58 -55 -58 -56 61 -54 -37 -7
right_child=1 34 3 4 25 32 33 19 10 -11 13 -13 -14 15 23 16 17 18 -20 26 -22 22 44 -25 45 -27 35 -29 -30 -31 31 46 -34 48 -36 37 -38 38 -40 -41 43 42 -44 -45 -46 -47 -48 -49 -50 -51 51 -53 60 54 55 -57 57 -59 -60 -61 -62 -63 -64
leaf_value=16.950614218042833 -0.34406556299894503 0.22676304477551168 -0.2887996500618501 3.1866525328356303 0.4179115777877247 -0.051539005659356096 -0.048363398049069771 2.6464425103132858 -0.04993289766640481 -0.05047917919319881 3.1358949625233059 -0.053011161920389939 20.614304964581478 -0.12400142836710314 -0.12349630083838148 -0.095703276427256817 -0.28311329547986414 -0.05006454472051472 -15.553194107669704 -0.050063267376724646 -0.55017924999701773 0.6568466547573375 -0.19084519094627619 0.34372852788999486 -0.064223461856668898 0.034481780225333922 -0.053667053884758655 -0.088113662304690824 -3.9463365225630329 -0.0067120402018127096 0.031782384321409833 -0.10948025889851756 0.31090676926478905 -0.3224350483029515 -0.078046703998399469 -0.050141048127405274 -0.26814460633483128 0.75142948916688301 -0.05030936616728518 -0.050339872326132309 -0.050187171224419028 0.13634777433186368 0.76006527914952993 0.30138862465945782 -0.013147241779888861 0.079904202676339658 -0.23181113935419873 -0.051286847852527011 -0.050109882956300561 -0.047096362764207644 1.4917621014704829 -0.016329059064103341 0.34663546552707269 -0.034939641216658275 0.30384346757376351 0.92959666959974507 -0.050104170174465668 1.6431561953060063 -0.032812819960300686 -0.039195888792024389 -0.050078118142414724 -0.711006174593249 0.2152492521496408
leaf_weight=0.014704888695093898 2.5439068664418309 0.1774333087324752 2.058366072331407 0.015447686001834882 0.2074937914730981 0.66879131030873462 3.20043228867871 0.019261004006992155 0.023205377532770802 0.017840510299107049 0.064798992627726371 0.25616828806231823 0.019356542099745463 3.4917174422222987 0.27778494819527377 0.56522875942633921 0.1476840298536381 0.016740126871703172 0.012900620860830329 0.050115405465532059 0.32896355194310301 0.070326820015907288 3.0959924840046371 0.23704089797144778 1.2068050503730781 0.67195091245230365 1.0302716277367938 0.73463503790969753 0.025665775523521006 0.15405936582828994 0.7159574686909308 0.9669219403003807 0.27100726903881878 0.39779412985080853 1.1696626006631143 0.063215370057149722 0.62821289667044755 0.12408635020256042 1.608758717193268 0.38817595667205751 0.1670717805391172 0.50811570329290123 0.06159854249563057 0.27817142498679459 0.45635944342140833 1.1602523220070011 3.4277199552743696 0.83351446917777039 0.2310050815285648 282.54240914137574 0.032426616176962852 1.3951967761386175 0.24613369582220912 3.2063266125624068 0.27534692292101681 0.10193174378946424 0.048021714785135727 0.029529028572142124 0.43042117508593936 40.52647940069437 0.15048684866633255 0.065377570688724518 0.17966392845846713
leaf_count=40 102 34 80 11 5 233 1687 8 14 5 54 114 30 39 76 55 17 23 33 40 27 1 246 30 6 230 205 351 18 45 137 42 12 15 525 42 31 7 828 195 87 54 10 19 167 38 32 401 155 194067 13 729 3 1756 5 20 27 18 149 24292 101 1 8
internal_value=-0.0493094 -0.238068 -0.0472703 -0.116748 0.177799 -0.138501 -0.160641 -0.0446663 0.0223437 7.63107 -0.0107632 1.28639 9.34786 -0.0647252 0.431961 -0.108336 -0.400496 -1.37203 -6.79753 -0.0461483 -0.165265 -0.131908 -0.146077 0.0916277 -0.0713074 0.124947 -0.044684 -0.20795 -1.36966 0.20126 -0.205349 -0.171739 0.0790216 -0.0769403 -0.0378986 -0.0442887 -0.134908 -0.0438375 0.0265829 0.155774 0.296305 -0.0443843 0.052273 0.169464 -0.168017 0.0064231 -0.204896 0.019776 -0.22239 -0.0447964 -0.0308427 0.0566663 0.294036 -0.0344103 0.0240448 0.20341 -0.0200718 0.594639 0.0985296 -0.0402932 0.196113 -0.38613 0.00495452
internal_weight=364.092 3.891 360.201 13.0126 0.894892 12.1177 10.9982 347.189 7.51223 0.0325454 7.47968 0.29873 0.0425619 7.18095 0.579625 6.60133 0.742554 0.177325 0.0296407 339.677 4.12496 3.796 3.77674 0.514826 5.85877 0.879445 335.552 0.810416 0.0757812 0.224386 7.16897 5.1106 1.11946 3.82923 1.3471 334.741 1.65848 333.083 2.56626 0.957506 0.56933 330.517 1.40323 0.445243 3.55235 2.36706 4.39464 1.34163 0.628799 329.113 46.5709 1.82424 0.429047 44.7466 4.09158 0.8077 3.28388 0.0775507 0.705768 40.6551 0.396621 0.128593 0.848455
internal_count=227845 661 227184 2647 246 2401 2148 224537 574 45 529 158 44 371 160 211 128 73 56 223963 494 467 459 106 83 235 223469 409 58 46 291 211 253 1857 559 223060 236 222824 1136 308 113 221688 465 106 413 44 74 455 170 221223 27156 846 117 26310 1975 174 1801 45 154 24335 104 43 241
is_linear=0
shrinkage=0.05


Tree=5
num_leaves=64
num_cat=0
split_feature=30 16 13 9 2 6 3 24 27 19 7 13 19 24 5 9 9 26 16 7 22 4 3 17 9 30 3 18 14 4 7 14 14 1 10 6 5 5 3 27 4 13 0 13 3 14 12 8 28 28 28 9 20 17 30 30 5 15 0 27 19 23 26
split_gain=40.0597 21.7026 26.1381 19.6646 15.7809 12.8237 12.0728 12.9461 59.9836 311.639 11.3104 9.81779 223.981 514.229 4646.76 23061.5 63.5374 40.4194 17.9239 15.2987 82.5568 841.248 14.3123 721.135 10.0303 64.6375 177.542 9.48638 9.4781 9.4685 7.83977 6.28515 6.05758 5.01322 4.85534 4.82036 8.08513 8.43815 4.9991 7.10854 4.49771 4.47368 4.59305 4.44496 5.56858 9.54658 11.6733 71.5376 10.6467 11.8238 37.7113 29.463 11.161 9.00591 8.78376 6.36042 4.55114 4.03271 3.94306 3.68275 3.65291 3.63919 3.62082
threshold=7.5236756486873242 1.9807027685368201 -3.6128426166552843 -2.6720200886180092 -1.5372874253908149 0.26331777876019108 1.4122897543931254 0.10982573414264951 0.12243197382564601 0.36467310930342206 -0.29690283244468246 -3.6128426166552843 0.72702189999039912 -0.30295609873205148 -1.0000000180025095e-35 -1.8795892153171998 -2.2159581580060492 -1.0000000180025095e-35 -1.6084245419966599 1.8919970959358252 0.051998839716605155 0.018780547314312505 4.135161612364751 -2.5195789182320794 -2.6720200886180092 1.3069796388513075 -0.7399419042120684 -1.7082961340423199 -1.5322287854718597 -0.29948633333688396 -2.8127308454303948 -0.42739861688980491 -0.14281934557860196 1.5125948616675002 -1.3929700820329398 3.0068363596861754 0.74092066833440906 0.69462690368446112 4.7792095347160162 0.14338521569566251 -0.019531767457431144 -3.0453933014254244 1.6388612827334301 -0.81811979204110385 0.73924927756614001 -0.047502111285176445 -0.14123525242311347 -1.2503735639304898 16.500000000000004 12.500000000000002 13.500000000000002 -0.54403568338347186 0.11805718974806652 1.1006102201810752 2.9441757519953176 4.6590900234886652 -3.0145380494115095 -0.81719530074020785 -1.2516921328735047 -1.3802334835187346 1.6428399260145203 -0.92650006083871339 -0.0020773962364568498
decision_type=2 2 2 2 2 2 2 2 2 2 2 2 2 2 2 2 2 2 2 2 2 2 2 2 2 2 2 2 2 2 2 2 2 2 2 2 2 2 2 2 2 2 2 2 2 2 2 2 2 2 2 2 2 2 2 2 2 2 2 2 2 2 2
left_child=1 11 4 -2 6 -6 7 8 9 -3 31 12 13 17 15 -15 -16 29 22 20 21 -14 23 -13 25 26 -20 -4 59 -1 33 -8 -21 -29 -5 38 37 40 41 -40 -37 42 -26 44 56 53 47 -47 49 55 51 -51 -52 -46 -55 -49 -43 -41 -30 -25 -32 -7 -42
right_child=3 2 27 34 5 61 10 -9 -10 -11 -12 18 19 14 16 -17 -18 -19 24 32 -22 -23 -24 28 35 -27 -28 30 58 -31 60 -33 -34 -35 -36 36 -38 -39 39 57 62 43 -44 -45 45 46 -48 48 -50 50 52 -53 -54 54 -56 -57 -58 -59 -60 -61 -62 -63 -64
leaf_value=-0.33390628648282694 -0.26802241755533041 -6.8543421913760554 -0.17696082692912898 0.18505417702345361 0.28533898904579569 -0.20788574736650389 0.32883305326693379 -0.22332591022371023 -0.22108520749818128 -0.050067044076460454 -0.1738126322870476 35.758861150395937 -11.828381399538737 141.41601186689653 1.8430328693746505 -4.3348890833067975 -0.050226447249744538 0.75546086929592571 -6.3289663158911136 -0.10453324782404116 -0.019481357793679235 -0.038819722360091194 -0.43288735254216165 0.36464010593094359 -0.053690735539573257 -0.09244971850163422 -0.050059319858400536 0.21150207049037684 -0.16964883025634683 0.095815084295448494 -0.049842378477976471 -0.033419766609396516 -0.0034117233895766168 0.010692209331415313 -0.078666333544757161 -0.050248832151793647 -0.05029587457187961 0.65579230058971749 -0.051999992113765416 0.47179917615013384 -0.050370885072195053 -0.3327923928996791 -0.22220974177268737 -0.046938779805984897 -0.067662369811256756 3.8562605049403587 -0.029025908660432694 -0.045155517283834823 -0.043782837953069011 1.6065305251780708 -0.050387173688511769 -0.050077963804731979 0.4349343397587595 0.17718394267879345 -0.05239397907223068 0.19395217635961262 -0.039449242763606458 0.11933260859843089 -0.012546778476036628 -0.0063856617893560848 0.14957067600133095 0.0087962751551112477 0.23119655069090872
leaf_weight=0.24162234044604253 3.0853842120304766 0.02195126855603069 1.0387225379121225 0.20716045657172788 0.31171493788861127 0.36959413305157796 0.14838107913965348 2.4835369283036925 0.36247142119100317 0.072098643302979326 3.7957776278199162 0.0014001925270975537 0.016980319341543537 0.0035366016067656944 0.079040177179325072 0.011667816261593161 0.10086749184364693 0.18518912419852329 0.015926343497994822 3.4574802555959931 0.55058829493125316 0.13893577733436746 0.39508743982644112 0.11831919848918915 0.92662535398301205 0.62442906829528511 0.038410904649935129 0.54709638969507135 3.3028611814647917 0.27304876415291796 5.1169497092507941 0.62028771749464795 2.5906986687100857 0.71961711207404733 1.1080688094772297 0.3643043836345895 1.5476856026798484 0.070637654862366506 0.79575821334844821 0.095041295397095382 0.14682105684187263 0.13277169113280152 0.71735905593959615 269.19192673022303 5.5434959882113617 0.012799662537873124 2.2376169948838633 0.52695635694544785 0.78636760311201204 0.090513519244268537 0.28296751761808991 0.038153125322423764 0.20377030980307609 0.85164443228859432 0.81568784255068749 0.58898900600615889 32.01458531775279 0.55531808792147785 0.45434300397222838 0.15384258906124104 0.24044389743357886 0.4073411782446783 0.51354285539127831
leaf_count=19 102 13 248 45 6 7 13 56 25 66 50 8 39 146 14 13 32 39 18 25 46 112 27 1 166 336 45 28 246 22 2775 59 33 111 514 202 834 15 329 9 65 19 29 193773 3005 8 1253 273 382 26 131 26 14 62 274 48 21131 114 167 45 25 53 28
internal_value=-0.0491011 -0.0472058 -0.103613 -0.199014 -0.163484 0.0144162 -0.189291 -0.26831 -0.513028 -1.63819 -0.138394 -0.0444422 0.0115453 0.754824 3.02473 29.5673 0.781553 0.122005 -0.0457635 -0.0869367 -0.307103 -1.32278 -0.145695 -0.117545 -0.0443802 -0.236382 -1.89042 -0.0364728 -0.130012 -0.105926 -0.0144429 0.0365082 -0.0612185 0.0974224 -0.037128 -0.0439717 0.0232726 0.127226 -0.0445334 0.0482178 0.0907884 -0.0449593 -0.127225 -0.0445276 -0.0298183 -0.000720709 0.0541705 0.127737 0.108782 0.178076 0.354029 1.1153 0.15279 -0.0370173 0.0648704 0.081044 -0.0406608 0.170841 -0.150651 0.154914 -0.0408926 -0.094281 0.168595
internal_weight=352.462 348.062 16.256 4.40061 8.59315 1.08865 7.5045 2.94006 0.456521 0.0940499 4.56445 331.806 7.64966 0.894972 0.195112 0.0152044 0.179908 0.69986 324.156 6.75468 0.706504 0.155916 4.42585 4.03077 319.73 0.678766 0.0543372 7.66283 4.02937 0.514671 6.62411 0.768669 6.04818 1.26671 1.31523 319.051 2.64299 1.09531 316.408 1.44612 1.02467 314.962 1.64398 313.318 44.1263 11.979 4.76813 2.53052 2.51772 1.73135 0.615404 0.128667 0.486738 7.21083 1.66733 1.11595 32.1474 0.650359 3.7572 0.272162 5.35739 0.776935 0.660364
internal_count=227845 227184 3535 661 348 66 282 160 104 79 122 223649 540 285 205 159 46 80 223109 255 197 151 494 467 222615 399 63 3187 459 41 2939 72 58 139 559 222216 1144 310 221072 452 295 220620 195 220425 26652 5502 2161 908 900 518 197 52 145 3341 336 321 21150 123 413 46 2800 60 93
is_linear=0
shrinkage=0.05


Tree=6
num_leaves=64
num_cat=0
split_feature=9 13 6 17 21 28 30 1 26 15 21 19 18 15 24 23 14 20 25 30 18 18 27 14 19 11 15 18 13 15 16 27 13 20 6 7 25 21 22 18 3 3 3 18 19 23 3 0 13 30 8 11 8 6 14 27 25 0 3 0 18 25 28
split_gain=48.814 36.2184 21.1199 38.5628 50.6124 27.2525 33.7751 83.1132 30.2892 21.5627 22.3357 19.9886 16.7816 16.7799 13.86 49.7728 13.8502 13.1624 9.23841 38.883 9.09234 8.95495 10.3753 7.18662 6.37697 10.658 11.6806 11.4919 7.88279 7.41974 7.19493 49.552 6.32095 6.392 6.10678 28.0455 5.64385 5.54078 5.22847 4.45869 7.25065 5.41062 6.70182 6.20371 4.95338 4.43727 4.3862 4.15385 6.94806 4.41109 7.6666 4.05257 3.6506 3.61882 8.84351 24.2796 6.88632 20.9986 4.7406 18.5705 7.5423 3.92255 14.9295
threshold=-2.2159581580060492 -3.0453933014254244 -4.9612802220930385 -2.5195789182320794 -0.22362341225927199 17.500000000000004 0.56814667781789929 2.7868933971289755 0.44012273609466357 -2.8508117238719146 1.1224667136691602 0.87561942482410504 0.64196377559386164 -2.2980380449840347 1.0559062223710551 -0.17276401093421748 0.016836866835662653 1.3379930416372952 -0.27740196469485939 0.8307304702506263 0.19438310994424005 0.058104986117984009 -0.12217152822866099 -0.16049779578374548 -0.98185489821730987 -0.072729439342501534 -0.62815355507737536 -1.5191977155774696 -0.81811979204110385 -1.0468163263270898 -1.6084245419966599 0.49487344783385057 -1.3751914950785697 -1.6252695651891849 -1.1893571377137346 0.6517121981019306 0.84749996781789505 -0.053179406679838788 -0.53060165952720584 -1.7082961340423199 4.7792095347160162 0.38097449056649108 0.41103773032525354 -1.0922952655774598 -0.055927620715056095 -0.38648359620653344 4.7792095347160162 2.1230962572443555 -1.4231881197008698 5.6094901098678438 0.92833552819915754 -0.80030012800283135 -1.0930136750029649 1.2789474960763954 2.0098894352327057 -0.10310434551731548 -0.88217451140458947 -0.27969625118417296 2.7299348841803255 0.17738336583269151 2.1348358334397353 -0.53363991434407487 22.500000000000004
decision_type=2 2 2 2 2 2 2 2 2 2 2 2 2 2 2 2 2 2 2 2 2 2 2 2 2 2 2 2 2 2 2 2 2 2 2 2 2 2 2 2 2 2 2 2 2 2 2 2 2 2 2 2 2 2 2 2 2 2 2 2 2 2 2
left_child=2 14 11 4 -4 6 7 -5 38 10 -8 12 -1 -10 17 -16 23 20 -13 -20 21 36 -23 -11 25 26 27 -3 37 -29 31 -26 33 -32 35 -18 -2 -28 -7 40 52 -41 -43 44 45 -44 -22 49 -49 -45 -51 -31 -35 -34 56 -56 57 -55 61 60 -60 62 -58
right_child=1 24 3 5 -6 8 9 -9 13 16 -12 18 -14 -15 15 -17 34 -19 19 -21 46 22 -24 -25 30 -27 28 29 -30 51 32 -33 53 39 -36 -37 -38 -39 -40 41 -42 42 43 47 -46 -47 -48 48 -50 50 -52 -53 -54 54 55 -57 58 -59 59 -61 -62 -63 -64
leaf_value=0.29267051916923092 -0.13803789025720498 0.55086831854099361 -0.093373450068945804 -2.2771484596506206 -1.0993587895962813 -0.17609409624129482 -0.69083779983300841 0.042924204924974674 0.64743997346153481 -0.10808125803123142 -0.16762132835909072 -0.074113951761936067 -0.057411865720089245 0.096272004818482138 -1.8432658921004046 -0.16707702411855122 -0.050070208550605601 0.2167554696387001 -1.0006906779722842 -0.081029629192991504 -0.10704052540480238 -0.61836234825497993 -0.14922849807176894 0.079547860901929709 -0.078820256056013116 -0.057347259350864134 0.16362858409283165 -0.05103931876707915 -0.065422942440629572 -0.051092839403013561 0.17507097566550375 -1.5259811958160998 -0.047518889532883773 -0.20375373868654459 -0.19601743546442793 -2.0857777199089971 -0.39915049184343065 -0.050318567527310454 -0.020954835280066815 -0.04038229432411676 0.19403728254490871 0.2273058695733898 -0.042021690607837087 -0.041657615982772664 -0.053623409641452568 0.1851728155669688 0.059309799489525486 -0.050442848152604282 0.56681403694232868 -0.053300760578454565 0.19525640826515878 0.23077852788097875 -0.052739370014556086 0.064781744150692502 -0.050444080294384824 1.6547844938527985 0.0019258399837770953 1.3117067443707038 -0.050928901805008114 0.53268760978394014 0.37036786016648748 -0.050114681716657797 0.82025205972995774
leaf_weight=0.67152745564555294 7.7259427572355133 0.1658336176769809 0.25013171891121888 0.065513982555754136 0.24998794504919186 1.0466589472489438 0.39641860859592171 0.09397040237672627 0.22610213334854917 2.5941540098531797 0.42017229215139196 4.6104657756116154 0.69827456183523873 0.35474871546138537 0.054256703079085422 0.24104648020461522 0.059624247404294325 0.27017880488415613 0.14423611570632533 0.56572404534329057 0.82527400412639973 0.22163732395938496 0.25168888210063745 0.63533387949299758 0.75064945204019196 4.779968019518579 0.87380131007193995 0.4744893456227145 2.126126848475419 0.149825255619362 0.42139474628493445 0.064211720949970186 262.73426703070646 0.83802769401518151 5.1382595211060273 0.023621775988179231 0.2126432643199222 0.46295340167125709 1.1287989330007309 9.7602582580584016 0.19128219783306111 0.3512485979590555 0.27123220905195911 5.6054897629073812 0.45464250823715602 1.0349849634803829 0.76226820418378338 0.10524644877295941 0.080430932343006023 0.66694734815973766 0.58004692266695201 0.85642483853734985 0.76597311088699171 0.42001817398704588 0.072420346084982157 0.029328067088498666 1.8722434717929051 0.036715055350220349 1.1606111489236344 0.17805387801490713 0.11693877074867476 12.982189336675214 0.057445776183158048
leaf_count=30 1122 38 11 30 32 49 33 18 12 406 7 82 66 34 30 54 53 26 48 98 134 20 25 81 346 2849 95 175 756 52 28 13 198733 64 372 15 3 216 328 6093 1 72 99 3175 74 91 25 59 1 109 43 66 156 179 35 22 1112 23 467 34 4 9286 35
internal_value=-0.0509145 -0.0462775 -0.127996 -0.165911 -0.596222 -0.148247 -0.188683 -0.91013 -0.00994966 -0.176268 -0.42162 -0.056116 0.114211 0.31082 -0.137323 -0.475047 -0.15256 -0.127612 -0.0999687 -0.267869 -0.136916 -0.157629 -0.368903 -0.0711692 -0.0431895 -0.00368146 0.0465237 0.156157 -0.00560624 0.111952 -0.044485 -0.192858 -0.044083 -0.0177121 -0.2029 -0.62772 -0.145032 0.089533 -0.0955956 -0.0216355 -0.0969387 -0.0144866 0.0131355 0.00458598 0.0885215 0.137997 -0.0271664 -0.0164136 0.216938 -0.0227366 0.0623171 0.188809 -0.131638 -0.0460753 -0.0236664 0.441073 -0.026477 0.165017 -0.0318206 0.0543065 -0.0123661 -0.0402278 0.026287
internal_weight=341.43 322.057 19.3737 12.6835 0.50012 12.1834 9.42707 0.159484 2.75631 9.26758 0.816591 6.69023 1.3698 0.580851 10.5649 0.295303 8.45099 10.2696 5.32043 0.70996 9.99945 8.41191 0.473326 3.22949 311.492 9.88942 5.10945 1.64657 3.46288 1.48074 301.602 0.814861 300.787 21.1272 5.22151 0.083246 7.93859 1.33675 2.17546 20.7058 1.79528 18.9105 9.15027 8.79902 1.76086 1.30622 1.58754 7.03816 0.185677 6.85248 1.24699 1.00625 1.604 279.66 16.926 0.101748 16.8242 0.456733 16.3675 1.4556 1.27755 14.9119 1.92969
internal_count=227845 226040 1805 1481 43 1438 1015 48 423 967 40 324 96 46 1439 84 927 1355 228 146 1329 1170 45 487 224601 4247 1398 331 1067 293 220354 359 219995 10065 440 68 1125 311 377 10037 221 9816 3723 3651 264 190 159 3387 60 3327 152 118 220 209930 11197 57 11140 202 10938 505 471 10433 1147
is_linear=0
shrinkage=0.05


Tree=7
num_leaves=64
num_cat=0
split_feature=9 13 20 6 30 2 6 16 18 0 17 25 21 12 3 24 11 15 12 27 16 6 0 7 11 13 19 15 27 11 18 7 24 7 26 0 30 18 1 16 10 18 15 28 18 10 14 24 22 6 25 12 12 6 3 0 18 14 10 12 25 18 23
split_gain=38.2377 29.21 28.3878 21.3344 25.1581 157.745 2267.69 4863.32 7489.7 19.8795 14.5421 13.3105 17.9699 12.6619 10.4293 33.5036 107.414 15.7672 9.65616 9.16873 8.75833 22.9198 7.02251 6.65263 6.52771 6.26561 7.17797 8.45498 9.01906 7.01362 6.9651 6.49668 4.55048 4.43588 4.41398 4.23974 6.48125 5.50731 4.69253 4.49581 6.53276 4.26617 4.1315 4.07791 4.2614 3.87955 6.16385 3.66986 4.01605 3.5377 5.23574 14.4043 13.9166 33.9097 5.0401 11.3903 5.43635 4.84448 12.6199 4.12048 3.90204 5.17728 3.51682
threshold=-2.6720200886180092 -3.0453933014254244 1.3379930416372952 -4.9612802220930385 3.0766207507051146 -3.7473587278854397 -1.3741141360564797 0.75238214755361066 -0.38719672941528843 -3.1494501991519295 -1.8621297518147297 -0.38652210772581591 0.59098297803710864 1.6382855897559103 1.4122897543931254 -0.38178275437862191 0.043234798235013756 1.6116422761162503 -1.8371460908254049 0.26281807231489807 -1.6084245419966599 -0.96886686952056544 1.2757736168979752 0.34894441247425206 -2.1791336905185799 -1.3751914950785697 -0.98185489821730987 -0.62815355507737536 0.03161867307904636 -0.072729439342501534 -1.4698178928277199 -4.8693175808201437 0.76990935535060512 1.2623056847316652 0.014459632129281152 1.8288194129578803 5.6094901098678438 -1.7082961340423199 0.70296097139606417 1.1573746392784303 0.16275923896819403 -1.6355369822693946 -1.0468163263270898 21.500000000000004 0.42029358170345305 1.0749323382452651 0.90537101762165806 0.81126961863551317 -0.53060165952720584 1.2789474960763954 -0.53363991434407487 -1.3333796274007548 -1.5255036717544648 1.5476228655305901 2.7299348841803255 0.17738336583269151 2.1348358334397353 2.0098894352327057 -0.38526120260032143 -1.5551060636743548 -0.54179234166641133 0.6801968741906721 0.36914353225496555
decision_type=2 2 2 2 2 2 2 2 2 2 2 2 2 2 2 2 2 2 2 2 2 2 2 2 2 2 2 2 2 2 2 2 2 2 2 2 2 2 2 2 2 2 2 2 2 2 2 2 2 2 2 2 2 2 2 2 2 2 2 2 2 2 2
left_child=3 2 14 11 5 13 7 8 -7 45 -11 12 -1 33 15 16 -2 47 -12 -13 21 -3 23 34 -23 31 27 28 -27 30 -30 -22 -21 -5 -16 36 37 -33 43 -38 -41 -40 -32 -37 -45 -6 -47 -17 -49 -28 51 52 59 -54 57 56 -56 -52 -59 -51 -53 -62 -14
right_child=1 20 -4 4 9 6 -8 -9 -10 10 18 19 62 -15 22 17 -18 -19 -20 32 25 24 -24 -25 -26 26 49 -29 29 -31 42 35 -34 -35 -36 38 39 -39 41 40 -42 -43 -44 44 -46 46 -48 48 -50 50 54 60 53 -55 55 -57 -58 58 -60 -61 61 -63 -64
leaf_value=0.48777623404549869 -0.050059050033327224 -0.6369320848202823 0.39308826093087973 0.079893590880105225 -0.16699006238995143 -0.050056274527830041 -0.15860621660688143 -0.050055179302809651 -106.00760967459462 -0.17850958327499872 0.70361697230503206 0.063621840890168757 -0.19801576789937217 -0.37515262517719394 0.049060088700434615 -0.10747328920638483 -3.8011636882941513 -0.55490730661110921 0.080804005528098632 -0.088216397136015104 0.12447948469706288 -0.21391760914017546 -0.14517565793110451 -0.15542291998637578 0.01649257216779287 -0.050299402824131867 -0.047389940122223403 -0.033882306365898271 0.47606243470052001 -0.050389397076217382 -0.05133427593250886 -0.15682967124621994 -0.21050668842946677 -0.13284372153459287 -0.062328258468503553 -0.036116697623343054 -0.051882739921038562 -0.040304326731838182 -0.052838159609698759 0.15252485918248582 -0.053483367630417881 0.12773208504941053 0.19221437011300527 -0.050522362416661019 0.2121438475768781 -0.42448549170175537 -0.15621915609259876 -0.39522321411809619 -0.1700284453583473 -0.050250985486356127 -0.050108816042192708 -0.05008682770632146 1.5446106477624328 -0.050261550928666389 -0.050917233568614696 0.36135047726084335 0.26886400174560177 0.82724940973227989 -0.050403969674505347 0.23446272319117126 -0.050267146011145659 0.43225901489244828 0.082706592845520011
leaf_weight=0.2479682249986786 0.067255908454446955 0.21873492980391418 0.26866527778614369 0.37873987228686146 4.1039484902248633 0.0033685814237464076 0.24469196118602149 0.013078069296284411 0.003303206170191364 0.65885615696851596 0.06615532509813471 0.88572712550440069 0.20063620106702729 0.44431525468826283 1.4452994322655306 2.9948825367970575 0.026645490070222877 0.24444447171845229 1.0499819220582693 4.1256692545358229 0.78309877934225625 0.53813709691166867 3.428744258111692 1.1834787095724548 0.7169101281428566 0.94604312480078112 251.29578598017235 5.5316690111067697 0.18830173066817235 0.3749838318908586 0.21195848973002274 1.1080334489088297 0.93266567530513089 0.69411888718806403 2.3122962994381275 3.4957711981842285 0.95480311155551989 11.948691217010547 0.435600698692724 1.1459320296999065 0.57940548274200399 1.3132750407094134 0.9757095840759572 0.26638498669490207 0.36735296610277146 0.40850024432802645 0.44998898942700349 0.21790855426833067 2.164869770784478 0.20396568661089987 12.44676743354648 1.8372380358632658 0.062676873174496328 0.071175443008542061 1.0649802800035093 0.24707599659450341 0.15185608167666931 0.056976564577780664 0.14569704676978368 0.33711056865286082 0.12122911773622269 0.1026708479039371 0.25131535706258107
leaf_count=10 65 22 30 55 159 11 58 20 29 17 12 115 27 7 112 504 19 23 186 99 70 5 98 57 407 545 199309 2891 13 226 63 184 26 17 367 2280 376 7187 37 68 65 125 48 151 44 30 18 18 190 79 9365 1263 16 26 434 34 4 14 39 8 44 8 16
internal_value=-0.0500989 -0.046361 -0.11604 -0.127652 -0.180029 -0.34712 -1.47404 -17.7717 -52.5097 -0.135844 0.00776263 -0.0604943 0.145744 -0.150699 -0.125751 -0.177812 -1.11447 -0.162168 0.117719 -0.0847791 -0.0430297 -0.164619 -0.0901961 -0.0520443 -0.0823023 -0.04243 -0.0444913 0.00150714 0.0740926 0.141302 0.193542 -0.0169955 -0.110765 -0.0577433 -0.0194845 -0.022121 -0.0356551 -0.050193 0.0141108 0.0351686 0.0833429 0.0827566 0.148749 -0.0149612 0.101735 -0.18721 -0.28387 -0.144316 -0.190623 -0.0459028 -0.0237236 0.0395785 0.240061 0.696544 -0.0359956 0.0518363 -0.0110099 -0.0461604 0.196326 0.127136 -0.0260705 0.170998 -0.0419153
internal_weight=329.764 314.6 14.3545 15.163 8.51905 1.78162 0.264442 0.0197499 0.00667179 6.73743 1.77499 6.64398 0.69992 1.51717 14.0858 5.71601 0.0939014 5.62211 1.11614 5.94406 300.246 1.47378 8.36982 4.94107 1.25505 298.772 276.374 8.22867 2.697 1.75095 1.37597 22.3983 5.05833 1.07286 3.7576 21.6153 15.7369 13.0567 5.87838 2.68014 1.72534 1.74888 1.18767 4.12951 0.633738 4.96244 0.858489 5.37766 2.38278 268.145 16.8494 2.73607 0.674929 0.133852 14.1134 1.46391 1.21684 12.6494 0.202674 0.541076 2.06114 0.2239 0.451952
internal_count=227845 226933 1483 912 619 197 118 60 40 422 215 293 53 79 1453 819 84 735 198 240 225450 434 634 536 412 225016 214429 3786 895 350 124 10587 125 72 479 10517 7880 7371 2637 509 133 162 111 2475 195 207 48 712 208 210643 11334 1444 129 42 9890 472 438 9418 53 87 1315 52 43
is_linear=0
shrinkage=0.05


Tree=8
num_leaves=64
num_cat=0
split_feature=13 9 3 15 23 3 20 13 12 9 7 19 13 24 25 30 30 19 25 6 30 19 11 27 3 16 25 30 16 13 30 16 18 28 27 6 25 12 23 3 0 18 14 10 24 6 10 25 14 3 22 25 11 16 3 24 18 11 3 14 12 13 6
split_gain=22.6747 25.2835 23.6021 80.6872 41.8633 23.4686 16.9212 14.4863 13.2915 12.2562 14.5983 18.9951 9.81188 47.9525 84.5342 18.2032 124.525 440.137 7.58327 32.8118 42.5817 7.29622 7.82766 7.19252 9.30969 6.78263 6.21437 6.39707 5.53087 7.71965 6.55174 5.063 4.87299 4.81609 4.1437 3.47338 4.51563 8.85422 6.69712 4.65786 7.5667 4.31694 3.64665 11.9461 3.41474 3.32858 3.24799 3.20906 3.25262 3.13644 3.02741 2.72767 2.68996 2.58064 15.8378 38.6406 2.41961 15.0324 25.7316 12.3491 28.527 10.5231 2.24158
threshold=-2.6262787275278345 -2.6720200886180092 1.4672473194989253 -2.4964984960841146 0.34114838110705809 3.1290214957208051 3.6295783818971254 -2.1811447414791245 1.4921785004471653 0.22072750296330254 -0.3550843761277494 -0.33226663798094141 -3.6128426166552843 -0.38178275437862191 -0.39829458652009897 2.2197466671611052 4.330799125432141 0.4943351086747711 -0.23977234288248647 -3.4610937641094597 2.9934797071095955 -0.98185489821730987 -0.072729439342501534 -0.14430940456607347 -0.20949850191042349 1.4600953440682753 -0.26942766681084995 4.7005258182718812 -1.6084245419966599 -1.3751914950785697 5.6094901098678438 1.1573746392784303 -1.5191977155774696 1.0000000180025095e-35 0.20181680439041452 1.2789474960763954 -0.53363991434407487 -1.3333796274007548 0.11104704032216302 2.7299348841803255 0.17738336583269151 2.1348358334397353 2.0098894352327057 -0.47007100030472698 0.24602112315311203 -4.9612802220930385 1.8928699091621903 -0.54179234166641133 0.87918909036043413 4.135161612364751 -0.41617030421326895 0.46087572570013957 -0.22081549539262599 1.4600953440682753 3.1290214957208051 0.4769232658281341 -1.8738621144017349 -2.9598185610008545 2.6284362358267805 -2.4671349858222693 0.88683306955671803 -1.1509454293084846 -3.4610937641094597
decision_type=2 2 2 2 2 2 2 2 2 2 2 2 2 2 2 2 2 2 2 2 2 2 2 2 2 2 2 2 2 2 2 2 2 2 2 2 2 2 2 2 2 2 2 2 2 2 2 2 2 2 2 2 2 2 2 2 2 2 2 2 2 2 2
left_child=2 7 3 -1 8 -6 12 -2 9 10 11 -4 13 14 -5 -15 17 -17 26 20 -20 22 23 33 -25 46 27 49 34 30 45 -32 -26 -3 -23 53 37 38 -37 42 41 -41 -38 -44 -34 -30 -21 -39 -49 -12 -33 -9 -40 56 -55 -56 57 58 -31 60 -59 -61 -14
right_child=1 21 4 6 5 -7 -8 51 -10 -11 18 -13 62 15 -16 16 -18 -19 19 25 -22 28 -24 24 32 -27 -28 -29 29 35 31 50 44 -35 -36 36 39 47 52 40 -42 -43 43 -45 -46 -47 -48 48 -50 -51 -52 -53 -54 54 55 -57 -58 59 -60 61 -62 -63 -64
leaf_value=-0.98705636222776205 0.47791537769212389 0.19752120254201658 0.61102844073985096 -0.050063478851984478 0.5979588549786522 0.095439178524842336 0.41229282307806892 -0.14149262372164512 -0.37331122543972861 0.10866042892345336 -0.0083071925411403527 0.0066545339810890631 -0.26109600144671824 -0.14030190185390717 -3.6921868232923196 -9.9736492398804764 -0.11757561503605639 -0.050044245409393007 -1.0342973891981417 -0.082116321712105478 -0.075242109317592343 -0.075442419336649857 -0.050244642623490314 -0.051126166166913789 0.3430120117320743 -0.13317011492999631 0.05597408655071795 -0.25587689762698856 0.17718635171675967 2.0648937226569841 -0.052399068533176343 -0.053182195220434325 0.13335817924269108 -0.066682344724479356 -0.26851951777410016 -0.05027817054849551 -0.050103578592957193 -0.050082591707998725 0.12681677667858299 -0.05087474511020415 0.26281323822258018 0.21524824473384019 0.73416247562802162 -0.050506107563668592 -0.050762291901550363 -0.026101280940691148 0.074866389324457883 -0.050255509059806296 0.30415067759283826 -0.088893275888541998 0.13963564603733528 -0.30274450348312021 0.33425328943166016 -0.049369032517879899 -0.10473568707759857 -1.0476386426350297 -0.047087837262561522 -0.050078267220681032 -0.050059366632458538 0.49370198535699289 2.0409114391260732 -0.050219920195134819 -0.065956537504941903
leaf_weight=0.28729966612428981 0.093722656149111461 0.19264602905604977 0.15070597715384793 0.039266420299099991 0.29526270646598574 1.0902149652815931 0.13928836294509039 6.5160532915925833 0.385846343046789 0.84859795000239202 1.6279996949386868 0.94661588979696698 0.15482802689075859 4.1035486529456859 0.026809097993170883 0.015107933006220514 0.32159598921601845 0.042905404578136436 0.22609788619451693 0.68565472816408002 0.23711581350412919 0.6906734570772517 4.2337921599627997 0.94088986012502607 0.24915884644724462 5.3754848547614529 0.93391381068349399 0.48859523048707476 0.2040596987062625 0.023641187814064657 0.64518137031700407 0.23705108620924864 1.998121914897639 1.6483728569927993 0.46495828661994665 0.26300365233328227 11.840938562760126 1.7477789409458642 0.26524879853241146 1.0138653278117988 0.32034158636815835 0.17934430181048799 0.063711824826896191 0.2032367222709589 0.28813522808671077 15.23065899873478 0.63432726341993673 0.12175560684409226 0.13824913953430951 4.6736732003119057 1.4413756000576539 0.27325184007497672 0.38043728517368436 4.3699086523411088 0.47579984122233998 0.14081128884572536 231.56263706944986 0.051317969802767816 0.036717910435982049 0.091672959038988533 0.023911879980005324 2.9637841553954427 2.9732783903175326
leaf_count=54 5 15 22 40 59 86 13 524 41 98 415 108 1 232 9 9 42 60 43 21 33 296 2852 357 26 84 36 21 6 20 242 25 176 700 40 81 9365 1263 34 434 34 4 9 44 108 9009 66 47 5 24 77 50 14 3520 140 16 193072 40 31 33 17 2420 1077
internal_value=-0.0488064 -0.0447683 -0.0929052 -0.164119 -0.0618777 0.202532 -0.133872 -0.13946 -0.0831581 -0.0765055 -0.0863384 0.0896591 -0.143781 -0.190653 -1.5278 -0.170946 -0.502201 -2.63437 -0.0993148 -0.136388 -0.543364 -0.0424793 0.000482542 0.0408728 0.0831917 -0.108233 -0.0649554 -0.0815877 -0.0439704 -0.0435101 -0.01163 0.0666436 0.133037 -0.0390358 -0.153125 -0.0457192 -0.0235566 0.0329074 0.162406 -0.035646 0.0470505 -0.0108754 -0.0459835 0.136768 0.110154 -0.0234137 -0.0066771 -0.0257018 0.138189 -0.0680743 0.112403 -0.147983 0.249038 -0.047248 -0.0828415 -0.32006 -0.0464919 -0.00325013 0.778316 -0.0183186 0.614545 -0.0339006 -0.0756151
internal_weight=318.33 291.626 26.704 8.10393 18.6001 1.38548 7.81663 6.88303 17.2146 16.8288 15.9802 1.09732 7.67734 4.54923 0.0660755 4.48316 0.379609 0.0580133 14.8829 7.15868 0.463214 284.743 9.55112 5.31732 3.47631 6.69547 7.72418 6.79027 275.192 274.036 17.7583 2.32361 2.53542 1.84102 1.15563 256.278 16.5379 2.91647 0.90869 13.6214 1.51355 1.19321 12.1079 0.266949 2.28626 15.4347 1.31998 2.00778 0.260005 6.30167 1.67843 6.78931 0.645686 239.74 4.98652 0.616611 234.754 3.19105 0.0603591 3.13069 0.0752298 3.05546 3.12811
internal_count=227845 225151 2694 1537 1157 145 1483 579 1012 971 873 130 1470 392 49 343 111 69 743 247 76 224572 4234 1382 667 171 496 460 220338 220002 9359 344 310 715 336 210643 11334 1444 129 9890 472 438 9418 53 284 9015 87 1315 52 439 102 574 48 199309 3676 156 195633 2561 51 2510 57 2453 1078
is_linear=0
shrinkage=0.05


Tree=9
num_leaves=64
num_cat=0
split_feature=4 6 13 13 7 7 3 4 21 17 11 1 16 20 19 10 3 6 6 3 12 25 19 27 3 11 16 20 27 13 5 16 10 12 23 10 11 0 30 18 0 12 28 25 27 7 30 14 8 13 7 6 30 24 11 28 15 12 21 25 10 15 28
split_gain=18.9839 18.6942 7104.19 18.0327 15.0839 65.9583 82.4939 13.9355 9.87445 118.101 291.417 14.1694 9.41684 7.83103 18.5377 7.96143 6.65271 6.64106 6.62269 6.34798 4.45249 4.91886 4.28254 6.60272 6.38091 6.01028 4.49342 97.5399 9.53551 5.11429 4.25084 4.18387 5.2328 4.00445 4.54603 3.99471 3.75911 3.73252 4.83456 4.405 4.01099 4.14226 3.57888 4.52903 4.64549 3.47369 3.306 3.22418 3.03173 2.91082 2.87461 3.35216 2.77991 2.75708 2.4933 2.34515 876.575 10.9098 2.49214 12.0208 24.4753 2.27781 2.22787
threshold=-2.8008178132500094 -4.9612802220930385 -2.6262787275278345 -3.0453933014254244 0.66606641143281164 0.84266930276813057 1.1314531133380854 -1.1207028050036547 0.93443670453947869 -1.6197037698410597 -0.63952952827801546 -5.5487585318255288 -0.032704308211490847 0.46431780664909006 -0.33226663798094141 -1.1741258726939996 4.7792095347160162 2.4945406030414756 4.175524362327951 2.9589051829499304 0.18768480807390905 -0.1363327105194965 -0.98185489821730987 -0.14430940456607347 -0.20949850191042349 -0.072729439342501534 -1.6084245419966599 -0.9530578384054329 0.3463910677039656 -1.3751914950785697 0.92515426753656615 -0.22774239689540646 -1.3521750103168197 -0.22160195477178049 -0.040218896297623395 2.0682197589250157 -0.023427095897840196 1.8288194129578803 5.6094901098678438 -1.7082961340423199 1.8836416680337804 1.2435403611469051 19.500000000000004 -0.1363327105194965 -0.0138359702015991 -0.30247329037317744 1.9451953526505161 -1.9967339192654048 -0.57451918783847933 -1.2479755308376996 -0.34123233119682644 1.1589023063477502 6.1193958942180222 1.0559062223710551 -1.7603522358026797 20.500000000000004 -2.8508117238719146 -0.14123525242311347 -1.7619111028430299 -0.222824695592692 -0.13712731161769798 0.50271101486376313 12.500000000000002
decision_type=2 2 2 2 2 2 2 2 2 2 2 2 2 2 2 2 2 2 2 2 2 2 2 2 2 2 2 2 2 2 2 2 2 2 2 2 2 2 2 2 2 2 2 2 2 2 2 2 2 2 2 2 2 2 2 2 2 2 2 2 2 2 2
left_child=8 2 -2 4 7 6 -6 -3 18 10 -10 -11 19 15 -15 -9 35 22 33 -7 21 45 23 -5 -25 31 27 -24 -29 37 -16 -26 -33 34 -1 53 -4 38 39 -28 41 48 47 44 -44 52 -37 -42 -39 -38 51 -40 -19 -17 -36 57 -57 -35 59 60 -59 -18 -34
right_child=1 3 36 17 5 12 -8 13 9 11 -12 -13 -14 14 30 16 61 20 -20 -21 -22 -23 26 24 25 -27 29 28 -30 -31 -32 32 62 55 54 46 49 40 50 -41 42 -43 43 -45 -46 -47 -48 -49 -50 -51 -52 -53 -54 -55 -56 56 -58 58 -60 -61 -62 -63 -64
leaf_value=-0.069070986842078144 118.56323624002523 0.14536938339910618 0.15421143973598231 -0.065285894533009231 -0.10611130461989081 0.37954262852900089 -1.3942482653183019 -0.59554937288056453 -10.586097043594886 -0.91959805029830888 -0.05006189945516102 -0.11247278038836989 -0.13484835893936983 0.53038275846249183 0.042759728531893713 -0.11173834952405906 0.10792434425737146 -0.050446458430658307 -0.13403173533178253 -0.030392669521771071 -0.069564240940678895 -0.051575111922157538 4.638279619071052 -0.050642984497258951 -0.026686960319876614 -0.050249799858577242 -0.13923133301539325 -0.097643131034408692 -0.39966534191664949 -0.046145071692231455 -0.25533226755433164 0.5240570868741049 0.076853764241073597 -0.68553842816859589 0.089354286829780291 0.005339401747909144 0.14539700315610138 0.12106583924027109 0.1253692320212397 -0.035797141487344718 0.1344067836705764 0.37827384109467421 0.22258925758413295 -0.050072799434950216 -0.050864545821489998 -0.050588723584017552 -0.10957165127047673 -0.050519056741685178 -0.051109965965302019 -0.051625282992887024 -0.052365701501613439 -0.05349302231903405 0.13484104192282373 -0.26095313294706041 -0.050228151418580835 -44.066641996708796 -0.093374706623366305 -0.050096501306492326 -0.063729803951169547 -0.067482217095235608 -2.0369553728151364 -0.053214398124329855 0.18894155192287213
leaf_weight=2.2325529432612652 0.001265085255391373 0.6840745277044612 0.45849828587961372 2.9479548797977912 0.25929925777021912 0.15755086757381664 0.23871373480368308 0.078877223902963034 0.0094897650602855446 0.057532461387671208 0.021279648062773042 0.99125886634610161 1.9099314770675158 0.17068476457097859 0.30944714566285192 8.9146695116523151 0.51677046716213304 0.22923125357192509 5.4420322384934297 0.23574601682295848 1.0686061008600516 0.89579025607963503 0.010664801331586093 1.6037711253447922 0.44001169700641218 0.75474874599593889 1.1395920638387895 1.2808343149442998 0.32833278410610889 240.14267713721756 0.19493353107827716 0.086652919417247509 1.0057854976621454 0.073631278821271517 0.99136880073628952 1.4001628409344005 0.2318745734664841 0.77322941360762332 1.0109599290299227 10.639276057321696 0.25598532799631346 0.11542310169897962 0.5275389882735908 0.51987472467590101 0.22011514553742018 0.38785001932410512 1.1319333348998482 2.9747823713696566 0.3819776406744485 0.97886071558906973 0.59905898751458053 0.35357180831488211 1.7314887932152485 0.3207115004427078 0.47236938879251111 0.0011359354641966571 0.49164809433386802 0.040401661884970963 5.1263517553835101 0.31182822074333927 0.025148114887997508 0.38099936534672452 0.79271784832235415
leaf_count=209 20 40 61 1642 15 18 33 6 40 28 18 228 60 22 43 802 24 121 534 36 553 473 16 944 86 510 178 274 25 207842 9 15 117 39 13 319 7 37 44 6897 51 17 22 400 70 145 115 1855 178 488 200 50 141 30 325 11 199 27 981 46 17 30 49
internal_value=-0.0476699 -0.0447375 0.122046 -0.0456978 -0.0958123 -0.201789 -0.723557 -0.0747628 -0.100203 -0.246324 -3.29954 -0.156748 -0.0889703 -0.0859846 0.0799734 -0.0947755 -0.0916568 -0.0425971 -0.0898307 0.133823 0.0189553 0.0481113 -0.0435844 -0.00666454 0.0302323 0.0723456 -0.0446628 -0.127681 -0.159267 -0.0441449 -0.0724472 0.11214 0.144543 -0.0652012 -0.0241723 -0.101666 0.0322816 -0.0195267 -0.0336958 -0.0458043 0.0142262 0.0926708 -0.00793193 0.0632703 0.142082 0.0861337 -0.0460298 -0.0358667 0.0641347 -0.0138925 0.0389386 0.0790232 0.113179 -0.11692 0.044309 -0.0901849 -0.194739 -0.080947 -0.0728586 -0.196865 -0.812353 0.0395396 0.126258
internal_weight=308.082 291.794 1.6705 290.123 16.9045 2.80124 0.498013 14.1033 16.288 1.07956 0.0307694 1.04879 2.30323 13.4192 0.675065 12.7441 12.6652 273.219 15.2085 0.393297 4.31297 3.24436 268.906 7.63164 4.68369 3.07992 261.274 1.61983 1.60917 259.654 0.504381 2.32517 1.88516 9.76644 3.69629 11.7675 1.66923 19.5114 13.7425 11.7789 5.76893 1.27063 4.4983 1.26753 0.747654 2.34857 2.5321 3.23077 1.15521 1.21074 1.96359 1.36453 1.96072 9.23538 1.46374 6.07015 0.492784 5.57736 5.50373 0.377378 0.0655498 0.89777 1.7985
internal_count=227845 225130 576 224554 1602 162 48 1440 2715 314 58 256 114 1400 74 1326 1320 222952 2401 54 1433 880 221519 3363 1721 777 218156 315 299 217841 52 267 181 1867 547 1266 556 9999 7369 7075 2630 232 2398 492 92 407 434 1906 215 495 294 94 262 832 338 1320 210 1110 1071 90 44 54 166
is_linear=0
shrinkage=0.05


Tree=10
num_leaves=64
num_cat=0
split_feature=9 13 5 20 12 25 4 10 13 22 15 18 15 19 1 3 7 12 26 15 23 15 23 14 4 14 13 26 30 25 23 4 4 14 15 3 3 5 18 16 23 16 2 14 14 23 24 4 14 11 4 13 6 10 0 10 30 21 25 18 12 25 6
split_gain=16.7049 13.2065 411.34 9.23099 84.4677 44.3898 243.213 1644.1 5348.08 81.508 21.6824 11.5232 60.3363 6.92413 15.1859 6.71238 9.5749 8.65957 7.76288 39.9019 6.46883 5.57771 5.27774 5.10225 4.85118 4.78544 4.76604 4.50978 4.45397 11.4272 32.4311 4.82084 12.8999 31.7327 5.73815 7.8388 24.533 19.3032 9.0425 25.1563 5.21399 5.45016 4.50234 4.74725 4.23371 4.18915 4.08639 3.94981 3.78459 3.70031 3.64313 3.87748 3.59715 3.43573 3.39016 3.37407 8.35632 3.11277 2.8501 2.74906 11.7414 2.69869 2.65191
threshold=-2.2159581580060492 -3.0453933014254244 -3.0145380494115095 0.23177641464444151 -1.8957740811207948 -0.11326034087688698 -2.0462984185606943 0.69860112906869365 0.71934570898805361 -0.13944600163324047 -2.8508117238719146 0.36091257900240109 -2.8508117238719146 -0.27648211719872295 2.5712889776054704 0.73924927756614001 -0.34123233119682644 -1.1811134162654147 0.026503810002181102 -1.2413286902980747 -0.80982057675208641 -2.0339964722390795 0.78286071541768865 -1.6218098484168197 -4.6916654761528944 -0.14281934557860196 -0.71598979613543146 0.064719900734171665 2.3508988397858421 1.4087850042099002 0.32735753853355054 -0.0099861879251240977 1.0000000180025095e-35 -0.28912453021889045 0.067453629604845119 0.91018585862228263 0.89099258277598714 -0.37325927803681297 -2.1530167164478344 0.10775539470104252 0.10595023436310651 1.1232841300595402 -1.9526484628520999 1.4927622118160853 -0.45791912181784095 -0.017019993551493848 -1.8490783987278898 0.48544879853284306 -1.3205285789096448 -2.9598185610008545 0.39761679324864502 -0.73241782140729395 1.2789474960763954 2.7133912037960752 -2.0173760226853394 1.2897605853499654 0.69064090964817326 -2.0626438566478797 0.078408404260633571 -1.7082961340423199 -0.63867943672533989 -0.88217451140458947 1.2789474960763954
decision_type=2 2 2 2 2 2 2 2 2 2 2 2 2 2 2 2 2 2 2 2 2 2 2 2 2 2 2 2 2 2 2 2 2 2 2 2 2 2 2 2 2 2 2 2 2 2 2 2 2 2 2 2 2 2 2 2 2 2 2 2 2 2 2
left_child=3 2 -2 10 -5 11 7 -7 -9 -8 -1 12 -6 14 23 -3 17 18 61 -20 -21 -12 57 -4 25 -13 50 44 29 31 -31 -18 33 -33 46 36 40 -38 39 -37 -36 -42 48 52 -23 -26 -34 -45 -40 -30 58 -52 -44 -47 -22 59 -57 -15 -19 60 -28 -17 -51
right_child=1 15 13 4 5 6 9 8 -10 -11 21 24 -14 22 -16 16 28 26 19 20 54 27 -24 -25 45 -27 55 -29 49 30 -32 32 34 -35 35 38 37 -39 42 -41 41 -43 43 47 -46 53 -48 -49 -50 62 51 -53 -54 -55 -56 56 -58 -59 -60 -61 -62 -63 -64
leaf_value=0.31231069573569703 -20.70414611960906 -0.046825273434086746 -0.36372851229477987 4.0363398999896081 -0.95956052519870738 -0.050103262503514961 -1.5744257257492562 -91.130775610680601 -0.05004210256217622 0.050458369787990343 0.051870727813915142 -0.075835025432382533 -0.12135453408505646 -0.36622475911336139 0.3959085011110286 0.13944867639820066 -0.055897699421232676 0.093213900937356986 2.3216175133634041 0.56767512971212386 0.14436029985497301 -0.09419174088543017 0.12405921521817098 -0.021869250173173465 -0.073146947393008879 0.02442750105488772 0.67669481463475478 -0.10960625594620593 -0.14374101317898666 -0.050097317518882481 2.2041494846452818 2.2718957567901854 0.16853807588105518 -0.050054146601688214 -0.050279697843196053 -0.051985742657841644 -0.050054430509805875 1.344192649683678 0.15454045330140384 0.89200298179890558 -0.050099774754623731 0.33521848195201537 -0.053441019872424327 0.41303677350379708 0.048884830072963209 -0.11600036022308001 -0.056264619903206671 -0.050335664354570514 -0.051517905458212658 -0.047948430771478527 -0.049943311631041834 0.18333179495439642 0.14123263314739706 -0.31138278540279424 -0.050310841573363602 0.27510097648316129 -0.050313646431988893 -0.1078083429872897 -0.0517395526918948 -0.054118248577385147 -0.050572217725389161 -0.051125515991964243 0.0045733278684105148
leaf_weight=0.39692606909184913 0.0024208328977682872 190.14120189522552 0.12235045433044422 0.012235243575347776 0.2255266107345405 0.04611588269472118 0.092816630157975921 0.0021958540141843591 0.0060584473540075123 0.45807100723662353 0.87625561608001579 2.6928086601183168 4.469242088476256 0.11788823455571673 0.21914621521266431 0.23471866105683148 6.1571523550863292 2.1095422857470107 0.021082159830257186 0.080471364315599092 1.1671453078743068 1.0088529476431547 0.24496408006944825 1.0113198467860107 2.0537242216270744 2.1326356790341752 0.068540880514774472 4.6453275543540196 0.9645435379279651 0.056845010141841068 0.022180675528943539 0.02153362741228193 0.21119109506253142 0.046464238665067437 0.45318305736873288 0.2120853439555529 0.038009471143595874 0.071568553103134036 0.65787725383415818 0.10577359520539176 0.14282652048859745 0.25673431984614581 4.2594159562577216 0.10708842484746117 1.0606007966934281 0.51206531893265284 4.7227917807103932 0.080604998045600951 0.33696828296524639 38.412579389130229 1.5775368507893288 0.20081236911937583 0.25129221647512157 0.40136187168309823 0.27665588178206224 0.2939964664983562 0.59967805119231343 10.131601446872619 0.40406571863786656 6.4402715958983245 0.29162617395934187 0.89070402958895945 2.5637779522803603
leaf_count=41 4 168959 2 17 14 46 50 76 9 88 12 21 294 1 13 5 5536 300 19 9 66 221 16 148 55 34 11 438 388 43 19 20 11 43 287 87 35 10 11 26 110 25 2932 20 344 34 3634 48 203 33361 813 13 74 11 184 20 434 1255 184 4733 146 381 1401
internal_value=-0.0474115 -0.0441431 -0.0957859 -0.0903037 -0.116128 -0.120009 -0.538189 -3.72858 -24.2798 -0.223311 -0.047937 -0.0997395 -0.16162 -0.0915749 0.0148895 -0.0418334 -0.0291456 0.00709255 0.08851 0.161256 0.131376 -0.0667739 -0.105299 -0.0587641 -0.0624586 -0.0315234 -0.0110492 -0.0822566 -0.0379754 -0.0173282 0.582617 -0.0199429 -0.00145673 0.685263 -0.00537828 0.0238177 0.156309 0.860568 0.002607 0.262144 0.0658118 0.197483 -0.0118832 -0.0323435 -0.0208646 -0.112768 -0.0466423 0.214041 0.0847456 -0.0469409 0.0311654 -0.0236017 -0.0425957 -0.201852 0.107058 -0.0345974 0.0567396 -0.110781 0.0699124 -0.0466004 0.0878289 -0.0113793 -0.0446623
internal_weight=297.893 276.8 11.8497 21.0928 13.1049 13.0926 0.605258 0.0543702 0.0082543 0.550888 7.98796 12.4874 4.69477 11.8473 1.35282 264.951 74.8093 14.6568 2.67078 1.54535 1.52427 7.59104 10.4945 1.13367 7.7926 4.82544 11.9861 6.71478 60.1525 18.2116 0.0790257 18.1326 11.9754 0.0679979 11.9074 6.97343 0.962322 0.109578 6.01111 0.317859 0.852744 0.399561 5.69325 4.6984 2.06945 2.96715 4.93398 0.187693 0.994846 41.9409 4.29196 1.77835 4.51071 0.913427 1.4438 7.69411 0.893675 10.2495 2.51361 6.80044 0.360167 1.12542 40.9764
internal_count=227845 226040 1439 1805 749 732 269 131 85 138 1056 463 308 1435 163 224601 55642 7318 664 278 259 1015 1272 150 155 55 6654 1003 48324 13174 62 13112 7576 63 7513 3868 467 45 3401 113 422 135 3288 3074 565 100 3645 68 214 35150 1310 826 3006 45 250 5344 454 1256 484 4890 157 386 34762
is_linear=0
shrinkage=0.05


Tree=11
num_leaves=64
num_cat=0
split_feature=6 7 15 22 13 19 19 20 12 19 3 27 23 22 23 23 4 3 3 12 11 16 28 4 13 21 26 25 26 3 2 14 21 14 24 3 17 28 21 19 15 7 12 6 3 6 23 12 12 25 2 23 19 0 3 20 13 7 14 6 26 3 2
split_gain=11.2353 9.84712 37.0722 35.3581 14.4988 242.346 52.5352 40.5349 11.376 617.272 10.9289 61.558 15.0692 96.085 11.2133 12.4708 18.4832 8.7035 7.34119 47.5452 7.34636 6.58692 6.33583 6.00186 5.06419 4.28998 5.1031 6.313 6.98122 4.89909 6.01873 4.50653 4.19488 4.03455 4.68652 4.53402 3.97821 3.92922 6.8615 3.75393 6.74827 4.71903 3.46469 3.07472 3.90683 7.25951 17.4615 3.70089 5.82635 3.26492 3.76697 2.93565 2.89955 2.67216 2.48303 2.46052 2.43123 2.31448 2.21115 2.14357 2.06056 2.02233 2.00819
threshold=4.175524362327951 -0.89319370317574143 -2.8508117238719146 -0.029303388377352146 -3.0453933014254244 -1.1460531471121349 -0.62892944511561144 1.6961943666808452 1.4921785004471653 -0.49852889798450245 1.4672473194989253 0.29284386537908008 -1.3227428061301898 -0.39165537892305397 0.32735753853355054 0.14489571316351205 -1.0000000180025095e-35 0.66638980613327115 0.70670815676006604 -0.24015370050361898 -0.67193505024032885 -1.6084245419966599 1.0000000180025095e-35 -0.18415793475568645 -1.5993388335856149 -0.82739932449703135 0.022301848976332153 -0.117829311927713 0.020133130681667406 0.38097449056649108 -2.6622241166788645 -1.6724584417523596 1.7845771284173251 -0.38677413598292792 0.36788794323685409 2.0209320439186755 -2.5195789182320794 20.500000000000004 1.1712371706175253 -1.1460531471121349 -0.62815355507737536 -0.30836467165606796 -0.22160195477178049 1.2789474960763954 1.2912817573608553 1.3149615308642852 -0.74380548327239293 -0.70461643169204091 -0.7180247006957774 -1.0501008879821347 -2.4358397560473946 0.51560220466245454 -0.28966503553234246 0.17738336583269151 0.39141152466290158 0.0097028693558185008 -2.3754171685980245 -0.3550843761277494 0.086693933359571068 -0.89511001014325742 -2.1193677198071996 3.1290214957208051 -0.7604273276305068
decision_type=2 2 2 2 2 2 2 2 2 2 2 2 2 2 2 2 2 2 2 2 2 2 2 2 2 2 2 2 2 2 2 2 2 2 2 2 2 2 2 2 2 2 2 2 2 2 2 2 2 2 2 2 2 2 2 2 2 2 2 2 2 2 2
left_child=1 2 3 -1 5 -3 -7 8 9 -8 11 12 13 -11 15 33 -17 32 19 -19 42 36 -2 -16 25 -23 27 28 29 -27 -31 -29 56 -12 52 -36 -6 -22 -39 40 41 57 53 -41 49 46 -46 48 51 50 -45 -47 -35 58 -32 -34 59 -26 -20 -4 -14 -28 -62
right_child=22 4 17 -5 21 6 7 -9 -10 10 14 -13 60 -15 23 16 -18 18 20 -21 37 24 -24 -25 39 26 61 31 -30 30 54 -33 55 34 35 -37 -38 38 -40 43 -42 -43 -44 44 45 47 -48 -49 -50 -51 -52 -53 -54 -55 -56 -57 -58 -59 -60 -61 62 -63 -64
leaf_value=1.6772382638186025 0.14625514655743396 -12.238571432374407 -0.22190903187238675 0.25084606628334333 -0.30049680197019907 -2.7427990536017655 30.731251251316202 0.29486385904117113 -0.37684823340158125 -5.7252522441752474 -0.085950002784432308 -0.90358819988898054 -0.29568179612744239 -0.050030023370002785 0.47990109466700537 -0.59569009867928502 -0.13232356258241107 2.8336190088825242 -0.045561342813890363 0.019394774829153996 -0.055862775159261163 -0.090030513621780439 -0.11938496851814306 0.067718961328798177 0.10569649922153235 -0.050559703263169636 -0.057219396138309946 0.10362925585799004 0.31175645388590145 -0.052547465264709242 0.33989648183561788 -0.04873165162734383 -0.05014843663053771 0.091592945425570754 -0.088393990514659987 0.062887650166798828 -0.094503312400126591 -0.052480900283691394 0.17056351231266936 -0.046738061095158663 -0.050334981734943524 -0.050388117833291529 -0.0059700275466753857 0.33091874271342936 1.2536725532401851 -0.050508942201880826 0.11682372430869746 -0.04952251900263533 0.42568835457097198 -0.04104029206392304 -0.050122851059096342 0.11451627079844343 -0.086798913179266177 0.24424446759061041 0.11043811789008683 0.13766110969198508 -0.044918336505396672 0.2779406121015785 0.11112594539645755 -0.080810348382863398 -0.11281534101749709 0.060610540673083281 -0.016964729608571805
leaf_weight=0.059431256875541294 0.23251434246420277 0.004102213068008064 0.35387938702478994 0.16152839092350291 0.24999401200192561 0.018569853935519798 0.0016243611194955978 0.6896011635581577 0.35155194982826898 0.0088102444133255631 7.0073586708851918 0.25916509521915454 0.14050565659999836 0.048596230344628455 0.11794153435954402 0.26193969207815837 1.2064195730490614 0.017339003446977586 0.26364469405962232 0.11164875382382877 3.0221637033025068 1.584555161272873 6.4873332110430324 0.35161937865881054 0.57715220749378204 0.92643789947032917 3.8607027359903441 0.57611840078607146 0.27079594391398121 0.62712458119494874 0.12564305914565954 3.0796918060440248 0.27831764122919445 0.24905534327264067 0.68039629471381324 1.8204076283302479 3.7525963095193982 0.78521936053493824 0.61476383711851668 208.04120811046724 1.8385750075013039 0.36427619220921792 0.88008490725678656 0.1284685050486587 0.038315670331940055 0.53037736471742369 0.28512522636447046 1.5601008299563541 0.10372594220098164 10.323809493784209 0.13100275694159691 0.54787032544845715 2.6668521448442406 0.32375167787540693 1.9130925932549869 0.46704421925824136 8.1900222868357151 0.29457340168301016 1.5424617969759222 1.1245292886056706 4.7112321339233016 0.40207506158913009 0.61815502055823479
leaf_count=32 21 22 15 38 6 30 6 43 39 14 112 65 1 87 17 17 80 17 59 38 1783 404 875 44 94 606 2559 114 23 87 3 2083 260 2 153 40 273 312 50 196977 1334 234 327 4 6 240 79 1004 3 8694 86 50 219 8 257 18 6817 18 98 394 315 63 76
internal_value=-0.0462996 -0.0447746 -0.00920072 0.634501 -0.0472325 -0.0868684 -0.0845181 -0.0821887 -0.0948714 -0.0899518 -0.0924366 -0.150451 -0.115138 -0.921014 -0.0690624 -0.0771848 -0.214983 -0.0171136 0.0237181 0.397693 0.0172276 -0.0437599 -0.110194 0.171248 -0.0426907 -0.0127904 -0.00240209 0.0223751 0.0669443 0.0484898 0.0829114 -0.0247211 -0.0467599 -0.0608989 -0.0284914 0.0217283 -0.107369 -0.0237846 0.0454629 -0.0444688 0.0104005 0.100746 0.0774818 -0.0452298 -0.0222404 0.0274638 0.251498 0.00103793 0.0677732 -0.0366376 0.138537 0.0333423 -0.071562 0.111965 0.124579 0.0675331 -0.055571 0.163901 0.0882537 -0.114584 -0.106681 -0.0461054 -0.101698
internal_weight=288.263 281.543 18.1958 0.22096 263.347 21.2139 21.2098 21.1912 20.5016 20.1501 20.1485 5.78646 5.5273 0.0574065 14.362 13.8924 1.46836 17.9749 7.56108 0.128988 7.43209 242.133 6.71985 0.469561 238.131 13.3662 11.7817 7.5189 3.86309 3.5923 2.66586 3.65581 10.4138 12.4241 5.41671 2.5008 4.00259 4.42215 1.39998 224.765 3.07458 1.236 3.00994 221.69 13.6488 3.06552 0.323441 2.74207 1.18197 10.5833 0.259471 1.07825 2.91591 2.12986 2.03874 0.745362 9.66843 0.871726 1.80611 1.47841 5.46989 4.26278 5.32939
internal_count=227845 226949 10266 70 216683 1382 1360 1330 1287 1248 1242 558 493 101 684 623 97 10196 2692 55 2637 215301 896 61 215022 6199 5795 3173 976 953 347 2197 7504 526 414 193 279 2145 362 208823 1680 346 492 207143 10166 1382 85 1297 293 8784 90 290 221 165 260 278 7226 112 157 409 392 2622 391
is_linear=0
shrinkage=0.05


Tree=12
num_leaves=64
num_cat=0
split_feature=6 7 15 1 13 19 20 12 3 27 27 23 3 3 11 11 16 28 13 21 24 22 19 19 15 7 17 21 28 21 6 3 6 3 5 12 0 25 13 16 26 1 28 25 18 10 10 18 15 7 12 10 7 30 7 23 21 25 7 17 17 16 3
split_gain=9.50121 9.57772 19.5998 27.2013 15.4506 155.466 39.6331 11.6586 9.4547 55.745 8.08495 9.62773 8.01466 14.2708 6.48691 6.01237 5.70457 5.68312 5.03399 4.7548 3.98194 4.42148 4.00176 3.73162 5.96349 3.80379 3.7191 3.67265 3.67089 5.81964 3.28497 3.4819 4.46959 3.78451 3.42667 4.14711 3.20652 5.08325 3.63713 3.98086 3.73084 3.0533 3.09155 3.04469 4.24541 5.11789 5.75615 4.05734 2.93641 3.06564 2.92988 2.84368 2.8381 2.80226 2.7625 2.68601 3.35477 2.53489 45.8424 2.41344 3.6505 2.29519 9.49012
threshold=4.175524362327951 -0.89319370317574143 -2.8508117238719146 2.0151354119933207 -3.0453933014254244 -0.59956835177027445 1.6961943666808452 1.4921785004471653 1.4672473194989253 0.29284386537908008 0.62659677018585558 0.32735753853355054 0.69450650726861818 0.70670815676006604 -0.67193505024032885 -0.84601112713538396 -1.6084245419966599 1.0000000180025095e-35 -1.3751914950785697 -1.7619111028430299 0.35857224111805003 -0.19456583125056545 -0.26459167542482148 -1.1460531471121349 -0.62815355507737536 -0.30836467165606796 -2.5195789182320794 1.7845771284173251 20.500000000000004 1.1712371706175253 1.2789474960763954 1.2912817573608553 1.3149615308642852 1.4122897543931254 -0.09433538248239158 -0.69072060494396481 1.8288194129578803 -0.21842768077960598 -2.3754171685980245 0.70494563827579804 0.046949137997133107 0.70296097139606417 21.500000000000004 -0.53363991434407487 0.6801968741906721 1.2730702717212201 1.2897605853499654 0.73601132440922212 -0.33350668192573091 -0.16838102726588597 -0.22160195477178049 0.62261174003617115 -0.29690283244468246 4.6784671139699929 -0.25871294263394096 -1.2318768917934146 -0.46125405259551394 0.46087572570013957 -1.0000000180025095e-35 0.088644474128693765 0.38034837637310653 1.4600953440682753 3.1290214957208051
decision_type=2 2 2 2 2 2 2 2 2 2 2 2 2 2 2 2 2 2 2 2 2 2 2 2 2 2 2 2 2 2 2 2 2 2 2 2 2 2 2 2 2 2 2 2 2 2 2 2 2 2 2 2 2 2 2 2 2 2 2 2 2 2 2
left_child=1 2 3 -1 5 -3 7 8 9 55 11 19 27 -14 50 -13 26 -2 36 -10 22 52 -21 24 25 -20 -6 -4 -16 -30 61 43 33 -33 35 -34 37 38 -18 -40 51 42 53 44 45 -32 -47 -46 -43 -50 -15 59 -22 -38 -55 56 -7 -19 -59 -41 -61 -25 -63
right_child=17 4 12 -5 16 6 -8 -9 10 -11 -12 15 13 14 28 -17 18 57 23 20 21 -23 -24 30 -26 -27 -28 -29 29 -31 31 32 34 -35 -36 -37 41 -39 39 40 -42 48 -44 -45 47 46 -48 -49 49 -51 -52 -53 -54 54 -56 -57 -58 58 -60 60 -62 62 -64
leaf_value=-0.050488334647686817 0.12995026982961533 -2.8048555726172535 -0.05389073435563644 0.80869322015726208 -0.29164212721010568 -0.35769696899407494 0.31237624591968888 -0.39207141086741215 -0.24827992505218077 -0.86040751027822526 -0.19348056531339428 0.50477180230559326 0.79744573456256995 0.10234850742641054 -0.055677873730954744 0.071159226274454285 -0.065380102600686801 -0.10806083784129639 0.14391003379923098 0.076735642177882951 0.053890120189179269 0.040341438925458432 -0.091985542360663308 -0.046186152703880053 -0.050324719651037325 -0.050371776795475692 -0.09045060427024576 0.058569875357930068 -0.052363650827700808 0.15166262301365707 -0.052674135991085384 0.44381601184658503 0.1393589394407849 0.092923169023151619 -0.050334682562395643 -0.047811818607465542 -0.050191337827729159 -0.058524952990898139 -0.050325577593186371 -0.050188057760081423 -0.050209901932199985 0.28280761001006943 0.083850637373940301 -0.050073642161727099 0.25218210548511516 0.52441555058895772 -0.050117255553927903 -0.050101114172445185 -0.051534513032985632 0.093613951075439447 -0.0056966388942987552 -0.051085282187854388 -0.075540063189919168 0.25447622558225025 -0.05049274273583252 -0.097802038758861565 -0.102318871245293 -0.050422177644633186 -2.5749569968285884 0.2513440892554441 0.088533242181298766 -0.048896749535241764 -0.24976403031610872
leaf_weight=0.19737012559198783 0.24815979111609276 0.052533072170805606 9.6195666834158882 0.17275254260107678 0.24479168959886299 0.23373306891755874 0.61997073242146328 0.32168169592247764 0.3383591948077197 0.25824483251677843 1.1528934010130054 0.10489911950459824 0.058948814519680925 2.2094862142388179 2.8840849738136445 0.33603187486733116 1.3007704710616961 6.2462885593689146 0.94443427270743996 0.37118716639815819 0.4923914302469069 1.7210261832849689 6.6061409322827824 190.45926575014499 1.7126182586925995 0.34359489465714455 3.7253831574766059 0.78522997597221156 0.74855404629306554 0.65564620582517819 1.4272860726632637 0.10022557910997365 0.72446111461613327 0.32936281990259886 1.4700342044816346 0.50033078357228145 2.655312976159621 7.0794327248804629 1.0724123573745612 0.19640597817488092 0.57382674829568703 0.14554087817668926 0.68753196066245426 7.7293914941838002 0.31867314636474464 0.086321609909646102 0.088078341155778617 0.17034686362603679 0.52609304673387658 1.1790733395027924 0.87630475697369581 0.29566752730170254 3.0290777686519323 0.15835166460601613 0.13982328306883562 5.0462523047361865 0.28589755338384737 0.19559449816450325 0.019802875482127891 0.48179249768145371 1.2063646825117755 3.3485159272968295 0.71327754102389906
leaf_count=46 21 57 7266 24 6 35 41 39 3 65 23 22 13 165 1783 39 422 678 105 14 63 114 321 190494 1301 233 273 280 312 50 941 7 92 78 919 272 2204 4627 862 149 431 1 195 7401 9 3 64 132 99 62 327 189 88 5 71 385 73 174 23 36 149 3331 138
internal_value=-0.0460828 -0.0446292 -0.00960358 0.35053 -0.0471489 -0.0882505 -0.081428 -0.0934562 -0.0886476 -0.142268 -0.0665805 -0.0553257 -0.0170761 0.0225769 0.0163825 0.174317 -0.0434359 -0.104859 -0.0424019 -0.0633887 -0.0582692 -0.0253416 -0.0830097 -0.0445556 0.010804 0.0920834 -0.102856 -0.0454035 -0.0233986 0.0428999 -0.0453563 -0.0209668 0.0250069 0.174789 0.00112983 0.0628992 -0.016791 -0.031066 0.00684803 0.0314013 0.0632252 0.0149386 -0.0116415 -0.035594 0.0179376 -0.0214317 0.234256 0.146884 0.0672315 0.0488315 0.0716658 0.0930808 -0.0574424 -0.0338708 0.111467 -0.108948 -0.21719 -0.113876 -0.282519 0.115699 0.134999 -0.0469793 -0.0841704
internal_weight=278.023 271.313 18.2079 0.370123 253.105 20.9703 20.9178 20.2978 19.9761 5.82413 14.152 12.9991 17.8378 7.43303 7.37408 0.440931 232.135 6.70985 228.165 12.5582 12.2198 5.2425 6.97733 210.466 3.00065 1.28803 3.97017 10.4048 4.28829 1.4042 207.466 12.9445 3.12441 0.429588 2.69483 1.22479 17.6984 12.2067 5.12724 3.82647 2.75406 5.49173 3.64102 9.8201 2.09071 1.60169 0.1744 0.48902 1.85071 1.70517 3.08579 2.18023 3.52147 2.95349 0.298175 5.56588 0.519631 6.46169 0.215397 1.88456 1.68816 194.521 4.06179
internal_count=227845 226949 10266 70 216683 1382 1325 1284 1245 558 687 664 10196 2650 2637 61 215301 896 215022 603 600 265 335 205520 1639 338 279 7546 2145 362 203881 9918 1368 85 1283 364 9502 6865 2238 1816 954 2637 2475 8550 1149 1008 67 141 162 161 492 523 151 2280 76 493 108 875 197 334 185 193963 3469
is_linear=0
shrinkage=0.05


Tree=13
num_leaves=64
num_cat=0
split_feature=9 30 1 18 5 21 20 2 17 24 13 20 12 12 13 5 3 17 19 7 12 30 4 25 15 15 14 18 11 3 12 8 8 5 6 2 10 21 13 24 14 14 9 23 2 25 0 16 27 13 26 10 2 6 18 11 20 24 27 14 5 5 14
split_gain=8.52833 13.0208 10.5581 45.03 57.4234 14.4478 18.8389 10.9043 692.13 77.1358 7.16235 8.23823 7.1213 6.96624 16.9939 20.1538 6.01799 10.778 43.8738 8.10908 5.73618 4.65424 5.43222 5.72356 6.22137 8.47469 29.8352 5.4768 13.2733 4.64684 18.3276 4.63935 5.26995 4.30152 4.59981 6.7026 28.9714 4.17047 4.0656 3.8338 3.57369 4.47716 3.54244 3.53061 3.33985 3.19518 3.34658 3.15696 3.27079 3.05575 2.93439 2.90799 3.69319 2.87193 5.92056 3.07774 2.85129 2.69226 2.64036 2.62119 26.0045 2.53232 2.45057
threshold=-2.6720200886180092 0.10884435031562299 4.2257268974413362 1.5921855778805003 -0.56987709541793041 -0.26917050310351442 1.6961943666808452 -1.4843951453280646 -1.9607128815461248 -0.37544710593001396 -3.0453933014254244 0.46431780664909006 -0.54000345720611442 -0.8203492360889334 -3.6128426166552843 -0.75315550452564139 0.73924927756614001 -2.5195789182320794 -0.14107613271530398 -0.34123233119682644 -0.077965189667944287 2.3508988397858421 -0.0099861879251240977 1.4087850042099002 0.067453629604845119 0.088765351089738917 -0.82910232961822239 -2.1530167164478344 -2.9598185610008545 0.91018585862228263 1.2844553407223354 -0.42577743039092147 -0.43697488719852445 2.9130125376874907 -0.58378286645264543 2.1309683866211802 0.32988859063490555 1.2557751169372902 -3.0453933014254244 -1.8490783987278898 -1.3540994309011449 1.4927622118160853 -0.43152320532030691 0.78286071541768865 -0.47324619408800644 0.28031816650278302 -0.12486738365278499 -0.81671451944101392 0.30783545740717805 -1.7761102791655898 0.34063913356392655 2.0682197589250157 -4.3461583588061545 1.2789474960763954 1.1554559934054154 -2.9598185610008545 0.33527858803195659 -0.081694039067898891 0.32506748731493501 -2.7065324474517145 2.9130125376874907 -0.09433538248239158 1.5320343400171501
decision_type=2 2 2 2 2 2 2 2 2 2 2 2 2 2 2 2 2 2 2 2 2 2 2 2 2 2 2 2 2 2 2 2 2 2 2 2 2 2 2 2 2 2 2 2 2 2 2 2 2 2 2 2 2 2 2 2 2 2 2 2 2 2 2
left_child=1 -1 3 7 -5 58 -7 13 -9 -10 11 37 -13 38 15 -15 -12 18 -18 20 33 22 -21 24 39 26 -26 28 -27 30 31 32 61 34 35 45 -37 43 -3 -24 44 -42 -30 51 -31 50 -47 -36 -49 57 -19 -2 -53 55 -55 -23 -56 -22 -4 60 -57 -29 -43
right_child=10 2 5 4 -6 6 -8 8 9 -11 16 12 -14 14 -16 -17 17 19 -20 21 49 53 23 -25 25 27 -28 29 42 40 -32 -33 -34 -35 47 36 -38 -39 -40 -41 41 62 -44 -45 -46 46 -48 48 -50 -51 -52 52 -54 54 56 59 -58 -59 -60 -61 -62 -63 -64
leaf_value=0.33012253882043885 -0.09658968273978108 0.036210329141310463 -0.0027156721323270371 -1.0968761259357107 -0.079672637595617934 0.030927491905225216 0.6300119783421434 34.821197504240416 3.8840467041702 -0.058814635005201614 -0.046134290672848521 0.16723200909577696 -0.091397265469820924 -0.73609690215940571 -0.10725725151023624 -0.097830359897261868 -0.050115754229001212 -0.051088945176473916 -2.7379240737310728 -0.055943167585031234 0.088669644519849711 -0.14215339406143326 0.15907470795356285 0.33483082502065187 1.9483650243983519 0.97075887105902547 0.13812874585627802 -0.05032714590887151 0.27212816508436516 0.096935358666764254 1.1259784167735682 -0.050288316660206334 0.53299843522363999 -0.075248512748204321 0.099147060308608675 -0.05031637350784695 1.9812677966491472 -0.27423876105540596 -0.092037309268780065 -0.055614378184030977 -0.052449842205667778 0.31074412089984171 -0.051647290432925069 0.096657979872541669 -0.050820368848938161 0.096948980986124283 0.29590326047304172 -0.035190561522306436 0.069379930975368168 -0.049824418917543661 0.092960139586438728 -0.10644064559627422 0.0056247162511081613 -0.050373383302400813 -0.05029240518431588 -0.05011062703311369 0.15659889846138753 -0.051769693670874431 -0.085607068155890378 -0.049344479478364116 1.385447531776663 0.22417757874419963 -0.050149612828572276
leaf_weight=0.1901283721648398 11.333520567567421 1.1689762607262104 1.376424225339538 0.25924960103474359 0.29848511107723541 0.50775516929326503 0.17696022987365723 0.0014338691516968529 0.012709428813447721 0.51670331985037266 167.57466699647938 0.62549230082839058 0.46330919375943158 0.24330028898696443 6.2502425476019168 0.25154905982490317 0.082597222712138318 0.59189195506041936 0.018602038294985301 5.4572698220133331 0.86940106202382594 0.88841613297699851 0.21864920773077745 0.12976064172107804 0.025017855106852949 0.048955295933410525 0.25235305126989249 0.16145196667639539 0.15072403283556923 1.173865675111301 0.042515111330430955 0.44333156460197631 0.085062735248357058 0.81605611590202887 0.90135320113040496 0.061143602419178822 0.024612371460534632 0.28642054361708424 1.3110314713911506 4.2476857735236813 3.3697302698419671 0.13653889100532968 0.19221694057341654 0.27263441839057101 0.56727435725042541 0.84077492437791079 0.28234621038427554 2.6166007285355577 1.0469953119463751 4.7376116775476182 0.87792602644185536 1.2661401112642354 1.7531795043010117 1.7413822576490923 0.21921787940664206 0.33754135074558078 0.69290902395732701 0.56175353955768492 3.1806837908289669 33.450014700967202 0.03479839360807091 0.17516897741006687 0.071759301121346653
leaf_count=23 917 41 26 42 25 100 31 7 18 273 169745 21 51 49 160 15 78 377 21 5565 62 365 11 34 18 8 82 99 7 250 38 291 4 161 118 37 16 50 63 3656 2505 15 100 24 415 98 29 1723 177 4237 114 33 387 1226 163 278 38 192 39 33026 6 15 50
