tree
version=v4
num_class=1
num_tree_per_iteration=1
label_index=0
max_feature_idx=30
objective=binary sigmoid:1
feature_names=V1 V2 V3 V4 V5 V6 V7 V8 V9 V10 V11 V12 V13 V14 V15 V16 V17 V18 V19 V20 V21 V22 V23 V24 V25 V26 V27 V28 hour is_night amount_log
feature_infos=[-56.407509631328999:2.45188848995359] [-72.715727562930297:22.057728990490901] [-48.325589362395398:9.3825584328211402] [-5.6831711981699504:16.491217173662299] [-113.743306711146:34.801665876668601] [-26.1605059358433:73.301625545964598] [-43.5572415712451:120.589493945238] [-73.216718455267397:20.007208365121301] [-13.4340663182301:15.5949946071278] [-24.588262437247501:23.7451361206545] [-4.7974734647975703:12.018913181619901] [-18.683714633344302:7.8483920756446004] [-5.7918812063208396:7.1268829585937601] [-19.214325490261398:10.526766051784699] [-4.49894467676621:8.8777415977427694] [-14.129854517493101:17.315111517627798] [-25.162799369324802:9.2535262504728504] [-9.4987459210467708:4.2956482344645002] [-4.9327330554783302:5.5721133268796903] [-54.497720494566003:24.133894191742101] [-34.8303821448146:27.202839157315399] [-8.8870171409487106:10.503090089945401] [-44.807735203791303:22.528411689774899] [-2.8366269187034101:4.5845491368981701] [-10.2953970749851:6.0708503840779802] [-2.2416202900029498:3.5173456116238002] [-22.565679320782699:31.612198106136301] [-15.4300839055349:33.847807818883098] [0:23] [0:1] [0:10.153941165977784]
tree_sizes=6835 6941 6933 6927 6979 6958 6967 6938 6958 6970 6981 6961 6968 6975 7019 7017 7020 7041 7001 6999 6999 7015 7020 7022 7035 7011 7013 7050 7027 7041 7003 7003 7022 7042 7059 7048 7072 7069 7054 7044 7057 7036 7049 7053 7030 7050 7063 7086 7057 7077 7049 7067 7055 7046 7068 7028 7034 7026 7067 7086 7067 7061 7046 7036 7083 7079 7059 7079 7070 7048 7082 7052 7021 7057 7033 7107 7085 7088 7108 7101 7066 7092 7089 7117 7094 7138 7132 7104 7126 7127 7124 7127 7131 7138 7143 7114 7052 7064 7094 7102 7092 7040 7109 7056 7050 7095 7046 7044 7083 7010 6962 7004 7017 7045 7038 7066 7078 7093 7120 7114 7126 7096 7104 7034 7052 7101 7080 7078 7073 7077 7090 7070 7058 7050 7054 7080 7159 7083 7094 7082 7064 7059 7089 7067 7063 7109 7055 7061 7033 6997 6996 7045 7032 7049 7012 7022 7048 7074 7064 7041 7027 7036 7041 7045 7037 7072 7051 7066 7042 7018 7051 7021 7009 7008 6999 7028 7028 7063 7037 7044 7053 7084 7082 7077 7071 7077 7073 7054 7112 7059 7057 7105 7104 7121 7071 7104 7080 7109 7094 7067 7076 7104 7085 7055 7028 7023 7078 7086 7076 7091 7091 7093 7099 7105 7118 7099 7114 7026 7075 7087 7073 7000 7066 7093 7027 7067 7067 7033 7050 7067 7039 7068 7075 7081 7120 7031 7072 7074 7091 7066 7078 7089 7041 7081 7080 7096 7079 7105 7122 7097 7111 7086 7091 7038 7048 7018 7057 6998 7045 7056 7041 7037 7052 7052 7095 7079 7085 7101 7099 7109 7113 7108 7136 7137 7122 7116 7118 7124 7126 7103 7076 7066 7053 7102 7117 7111 7106 7080 7110 7105 7092 7096 7009 7030 7019 7029 7076 7054 6990 6984 7039 7042 7006 7058 7032 7091 7036 7052 7081 7071 7091 6996 7024 7073 7046 7071 7071 7054 7065 7086 7070 7116 7066 7073 7082 7083 7091 7042 7080 7083 7056 7024 7024 7073 7093 7065 7077 7088 7084 7030 7059 7104 7112 7075 7059 6999 7033 7046 7037 7065 7052 7065 7049 7046 7085 7091 7100 7098 7095 7108 7127 7089 7080 7104 7084 7099 7093 7091 7114 7112 7091 7126 7099 7116 7114 7051 7100 7089 7108 7108 7126 7103 7115 7129 7089 7129 7082 7121 7086 7101 7107 7107 7107 7127 7125 7132 7111 7088 7084 7120 7126 7123 7154 7094 7118 7100 7143 7122 7160 7135 7161 7120 7167 7164 7156 7139 7142 7145 7140 7166 7183 7176 7189 7130 7127 7143 7149 7113 7107 7087 7146 7123 7157 7148 7098 7136 7134 7124 7071 7105 7087 7104 7125 7147 7111 7086 7117 7035 7046 7045 7073 7067 7081 7137 7109 7088 7076 7087 7105 7092 7138 7137 7145 7125 7134 7081 7096 7070 7135 7121 7129 7137 7127 7133 7133 7109 7144 7173 7168 7187 7175 7159 7104 7163 7023 7066 7092 7087 7127 7103 7146 7165 7179 7079 7079 7032 7132 7088 7108 7136

Tree=0
num_leaves=64
num_cat=0
split_feature=13 9 16 6 25 26 0 7 3 16 11 10 12 24 8 27 3 16 0 27 11 30 13 20 29 25 21 26 14 30 19 27 6 6 16 13 12 3 21 8 19 12 11 23 24 30 13 22 30 30 0 9 0 11 14 17 18 30 0 22 20 0 24
split_gain=62628.4 81310.5 3902.08 2566.54 2398.45 4760.49 618.455 814.823 528.49 500.239 5286.26 926.86 259.625 249.025 95.8397 70.8093 24.0113 107.008 307.628 1014.81 89.8223 71.9482 35.5363 221.479 21.0293 18.3013 14.7648 11.5503 16.6391 9.30053 95.9245 154.28 25.5858 8.6969 42.9326 67.5837 19.2142 93.3611 8.62726 19.4679 7.24949 63.5007 161.776 23.6499 14.5786 99.8775 4.54217 17.6344 7.62086 37.5928 71.2972 21.3759 95.6896 139.433 2.86701 25.8994 2.52259 20.4646 2.43274 25.2216 23.3177 2.30722 24.9758
threshold=-3.6128426166552843 -2.2159581580060492 2.1818794868491853 -0.62404376626639291 -0.26107227319911547 1.0496132247684102 0.94243708579705954 -0.30247329037317744 1.7214462163128601 -1.6084245419966599 -2.1791336905185799 1.8928699091621903 -0.051719334730424039 1.0559062223710551 -1.3861133555081449 0.62659677018585558 2.6284362358267805 1.4600953440682753 0.80517247273274506 0.042038661008314708 -0.39097462977413544 5.7470973547570638 -2.1811447414791245 -0.012366529778493798 1.0000000180025095e-35 1.4087850042099002 1.7845771284173251 -2.1193677198071996 0.8549285029009166 0.56814667781789929 0.62168403044462861 0.21885090291952353 1.2155306959408703 2.4945406030414756 1.7203533232872001 -1.8826824364483448 -1.5255036717544648 1.0797388822602703 1.7845771284173251 -0.23455791870415746 -0.98185489821730987 -1.5551060636743548 -0.77963941331538533 0.43619018949066052 -1.5191675363209247 2.1406540530407772 -1.3751914950785697 1.3641867043567502 4.6590900234886652 4.7005258182718812 -0.12486738365278499 -1.3985659439653746 -0.15013592345417098 0.079015156198546668 -2.7065324474517145 -0.49379366886185094 -1.5191977155774696 5.7470973547570638 2.0867837016346651 -0.19111969881350097 0.28390906974369751 -0.76005321114433644 0.54406421862678211
decision_type=2 2 2 2 2 2 2 2 2 2 2 2 2 2 2 2 2 2 2 2 2 2 2 2 2 2 2 2 2 2 2 2 2 2 2 2 2 2 2 2 2 2 2 2 2 2 2 2 2 2 2 2 2 2 2 2 2 2 2 2 2 2 2
left_child=1 2 4 -3 5 12 14 -8 -6 10 11 -2 -1 15 -5 -10 33 22 21 20 -20 -19 23 -18 -12 26 27 28 -24 30 32 -32 -29 40 36 -36 37 -35 61 -40 41 42 -11 -44 45 -43 47 48 58 50 -50 52 -51 -54 55 -31 57 -46 -42 -60 -61 -38 -63
right_child=9 3 -4 6 8 -7 7 -9 13 16 24 -13 -14 -15 -16 -17 17 18 19 -21 -22 -23 25 -25 -26 -27 -28 29 -30 54 31 -33 -34 34 35 -37 38 -39 39 -41 46 44 43 -45 56 -47 -48 -49 49 51 -52 -53 53 -55 -56 -57 -58 -59 59 60 -62 62 -64
leaf_value=22.556000050915628 2.280910954792156 8.0737087370103069 2.8075317260240533 -3.8896168188681011 15.314454490470812 0.27567282421519934 -5.6657482238893087 3.2463826985312698 22.555981570684008 -2.6304572683757885 -6.4084303761671553 13.866672849739601 17.038964120980591 18.418231991202955 -6.4084297373478263 20.487124504641848 -6.4084258147217623 -6.4084258705695571 -6.4084258328528554 3.7291232646417773 -3.511983124581155 -4.4774641070073518 -6.4084259185904804 -2.0637713822742363 -5.294409436501855 -5.4429451318941169 -5.6256034605732834 -6.4084266665841074 -4.9602044918442898 -4.9602045241642418 -6.4084258290958864 -2.063761887963846 -5.0918610380900873 -6.4084258261532066 -3.5119833296597265 -6.408425864913549 -6.4084258163554635 -3.511983205046767 -6.4084258109605976 -4.9602042373183153 -6.4014180924664705 -3.5119796924548314 -6.4084258341437526 -4.9602045053067432 -6.408425821983033 -6.4084258111227292 -6.4062561235852131 -5.4740895377038781 -6.4084258109605967 -6.4084258117989181 -3.5119783686514241 -6.4084258241690257 -6.408425916222102 -2.0637619505715321 -6.405027439731958 -6.4084258075434901 -6.4084258826694072 -5.2498487869185508 -5.0291674255094403 -6.4084258256898758 -5.2015747912137948 -6.4084260065150689 -5.0291674483635189
leaf_weight=0.051787665346637368 0.034525100141763687 0.034525125054642558 0.037977616768330336 0.039704232243821025 0.034526173723861575 0.044882640242576599 0.067323964787647128 0.041430132696405053 0.28655841457657516 0.039703876944258809 0.75437157857231696 0.03452510922215879 0.036251370096579194 0.048335149185732007 0.77336078463122138 0.048335138009861112 0.19506687065586448 0.70431220624595781 0.119111631764099 0.034525110153481364 0.034525108756497502 0.051787665346637368 0.046608910430235961 0.034525184426462796 0.04488264350220561 0.051787668140604093 0.063871444202958538 1.3033190604764957 0.034525109454989433 0.034525110386312008 0.05006141192279745 0.034525109687820077 0.037977621890604385 0.1432792101986714 0.034525111317634583 0.048335153143852838 2.9260031112935407 0.034525109920650721 0.070776476291939616 0.034525102237239369 14.270945317111915 0.034525065915658959 0.15363674727268506 0.034525109920650721 0.32626230502501119 0.21578193921595812 345.66887745796703 0.053513919934629395 0.055240176618099213 0.27792713674716651 0.034525049850344103 1.8004843962844457 0.039703877177090008 0.034525110386312008 14.712874575750886 0.29173713340425322 5.0544739770703009 0.04315638798289001 0.03625136543996621 1.179032418411224 0.041430132696404942 0.34697661828249549 0.036251365905627608
leaf_count=30 20 20 22 23 20 26 39 24 166 23 437 20 21 28 448 28 113 408 69 20 20 30 27 20 26 30 37 755 20 20 29 20 22 83 20 28 1695 20 41 20 8267 20 89 20 189 125 200242 31 32 161 20 1043 23 20 8523 169 2928 25 21 683 24 201 21
internal_value=-6.35834 3.68868 18.309 -5.31049 19.378 13.5281 -5.81177 -2.27065 21.2394 -6.39796 -5.19918 8.07379 20.2843 21.7732 -6.28543 22.2574 -6.40062 -6.34395 -5.82596 -4.01687 -5.75754 -6.27617 -6.3729 -5.75509 -6.34587 -6.38142 -6.38434 -6.38727 -5.79216 -6.39021 -6.26816 -4.63509 -6.37115 -6.40333 -6.3268 -5.20157 -6.35275 -5.84601 -6.37914 -5.9336 -6.40409 -6.34912 -5.53072 -6.1427 -6.38199 -6.00892 -6.40499 -6.38037 -6.3831 -6.29694 -5.29441 -6.33874 -5.98248 -4.38765 -6.40178 -6.25517 -6.39921 -6.27308 -6.39555 -6.32885 -6.36746 -6.39332 -6.27796
internal_weight=393.319 1.545 0.588654 0.956344 0.550677 0.132922 0.921819 0.108754 0.417755 391.774 0.868304 0.0690502 0.088039 0.383229 0.813065 0.334894 390.905 17.8357 0.944262 0.188162 0.153637 0.7561 16.8914 0.229592 0.799254 16.6618 16.61 16.5462 0.081134 16.465 1.42588 0.0845865 1.3413 373.07 3.6752 0.0828603 3.59234 0.177804 3.41453 0.105302 369.395 5.90207 0.227866 0.188162 5.6742 0.250307 363.492 17.8236 17.7701 2.24241 0.0897652 2.15264 0.352156 0.074229 15.0391 0.326262 5.42389 0.369419 15.5277 1.25671 1.22046 3.30923 0.383228
internal_count=227845 895 341 554 319 77 534 63 242 226950 503 40 51 222 471 194 226447 10332 547 109 89 438 9785 133 463 9652 9622 9585 47 9538 826 49 777 216115 2129 48 2081 103 1978 61 213986 3419 132 109 3287 145 210567 10325 10294 1299 52 1247 204 43 8712 189 3142 214 8995 728 707 1917 222
is_linear=0
shrinkage=1


Tree=1
num_leaves=64
num_cat=0
split_feature=13 12 23 11 25 4 7 11 22 6 21 0 24 9 6 5 16 10 27 3 9 11 30 30 3 9 4 27 21 19 17 11 8 6 13 7 3 18 21 30 18 13 30 25 0 28 24 24 16 25 11 5 22 18 9 6 3 3 21 13 25 12 1
split_gain=282.275 504.731 1430.36 4496.9 146.181 1151.82 6212.34 25238.8 147.533 595.716 95.1196 81.0567 109.244 98.7307 70.5367 95.365 65.3156 138.108 311.757 36.2925 41.6475 29.0236 28.9621 28.4726 21.8573 11.9367 18.9641 11.3914 9.00169 24.8412 68.8731 47.3908 7.77863 6.72153 6.17625 21.8956 57.2208 10.4162 55.2879 54.7255 10.6784 34.5071 8.85022 6.71536 10.0576 85.7055 22.8241 8.03638 15.3902 7.78593 15.8511 6.39951 6.25889 12.9443 3.87779 3.61436 10.0082 47.6802 81.4916 146.731 7.84584 47.2443 84.047
threshold=-3.0453933014254244 1.3801205301058452 -0.42188271521519344 -2.7994179746032746 -0.23590526589217548 -1.8858176700726996 -1.5701837938509648 0.37210800009143308 0.35986794024453206 -0.37714655821306192 -0.80874891754045886 1.6388612827334301 -1.2459578195959298 -2.0151814879000898 0.89789299168598213 -0.13135993514456548 -1.6084245419966599 1.8928699091621903 0.10876244038551651 0.72289144382844717 -2.2159581580060492 -2.0108897407255646 6.5297763118083818 1.9451953526505164 4.7792095347160162 -0.98379602353674345 1.5869264167770953 0.27156734378432207 1.7845771284173251 -0.47009726138393443 0.6593890440519331 -0.53348239669199937 -0.54163813236484482 -0.89511001014325742 -1.3751914950785697 -4.8693175808201437 1.3493621578373551 -1.7082961340423199 -0.93253883389589387 4.8598899177328851 -1.5191977155774696 -2.6262787275278345 6.4377596496724028 -0.117829311927713 1.9866177482552851 21.500000000000004 0.89320747452858307 1.2688916193636552 1.2645961075704253 -0.12225534526604999 0.77056758737044817 -0.68232141028093241 1.3641867043567502 0.96464243411990014 -1.8795892153171998 1.2789474960763954 2.7299348841803255 2.9589051829499304 0.3296553462073481 0.16402154850265452 -0.53363991434407487 -1.3333796274007548 -0.70519985850074096
decision_type=2 2 2 2 2 2 2 2 2 2 2 2 2 2 2 2 2 2 2 2 2 2 2 2 2 2 2 2 2 2 2 2 2 2 2 2 2 2 2 2 2 2 2 2 2 2 2 2 2 2 2 2 2 2 2 2 2 2 2 2 2 2 2
left_child=1 4 -3 -4 8 6 -6 -8 19 -10 -11 12 -7 14 15 -14 17 21 -19 20 -1 -2 -23 -13 25 26 32 54 34 30 31 -30 -15 -22 35 36 -18 38 39 -37 41 -39 51 44 47 46 -46 49 -49 52 -51 -40 -42 -54 -21 -36 60 58 -58 -60 61 62 -57
right_child=16 2 3 -5 5 11 7 -9 9 10 -12 23 13 24 -16 -17 28 18 -20 27 33 22 -24 -25 -26 -27 -28 -29 29 -31 -32 -33 -34 -35 55 37 -38 40 42 -41 43 -43 -44 -45 45 -47 -48 48 -50 50 -52 -53 53 -55 -56 56 57 -59 59 -61 -62 -63 -64
leaf_value=-0.84970842755123666 -0.38077581759207563 -0.61542623663378759 -36.172464709041158 -0.050081694215275446 -0.051040866651900746 4.9404013763235772 -204.66716323790433 -0.050082525521921599 -6.3013914294364923 -2.0371357520108209 -0.024355074323279158 -0.57418390236060091 -4.1080413237465851 -0.974679799025852 -0.60527054995715657 -0.82572032848292709 -0.050105455182416471 -0.050130545695535683 -6.1145194156879352 0.077358058912627037 -0.53927954500786002 -0.050100128580536363 1.4702579200235604 -1.1716608114881308 0.3180969745875421 -0.052878660897882936 -0.036488322398962603 -0.10873544651936246 1.3739227554379283 -0.050091506351449447 2.3012403492107527 -0.050182194023297433 -0.43974799397835035 -0.050082556741269504 -0.047422899925091487 -0.050082483543219938 1.9848980539251078 0.76748048948506908 -0.43613023178690452 -2.0835236722719994 -0.019226946082683334 -0.042934698638573382 0.34854122396099313 -0.045923944002888413 -0.050109956115445414 2.4446803051263228 1.1869902316205136 -0.050082736998331191 1.208421433025753 -0.050082578227652656 1.208417238725328 -0.053693624892372484 -0.050152127432061627 0.97535699987540336 -0.050714962483479377 1.7066375413934001 -0.050187936231926605 -0.047800666825564109 3.5615632479440089 -0.050106519889666606 -0.047189938305331941 -0.028466544817863454 -0.050082564795282662
leaf_weight=0.33364883129213918 1.2617997172748119 0.15408195245245065 0.012455054675228894 0.027951858402491203 0.041272259433753788 0.010019005713319262 0.0019547181268716463 0.00658029830083251 0.047956480778016175 0.071986798429861665 0.31794774515282354 0.42908536142203946 0.036057800439403404 0.10019815724808723 0.5408068026881665 0.057287667954781268 0.11641136708203959 0.059295629040548081 0.032979457749775065 1.3374195686301762 0.084119983017444611 0.6592062284923933 0.03288681793685555 0.37250763026531786 0.27120787803372803 0.85492998878371196 0.26513537345454097 5.8291109668883356 0.070220474503003061 1.1547817807877425 0.042527547921054065 0.34758311428595323 0.2112134599261507 0.42483743093205195 336.97661753888042 0.06247266859281797 0.049118383205495775 0.18260887265205383 0.12371488078497328 0.070344598148949444 7.7769228414399532 0.46794499328826589 0.12383295514155168 11.717443468747645 0.48194522620178837 0.040083545027300715 0.040410326328128576 0.062599284807220879 0.039698203792795539 0.067669796524576387 0.039698334177955985 0.94454323651735006 0.083520545624196418 0.048720399849116802 1.0590368373788277 0.11380339320749044 0.15102167986333259 0.99316074326634407 0.055374031770043075 0.057141490397043526 16.870851536048576 2.3129871101118686 0.16948436410166356
leaf_count=17 15 24 36 18 19 6 106 4 31 5 62 31 90 19 17 12 63 33 21 44 1 369 18 23 24 196 95 84 30 673 16 144 28 258 202166 38 8 19 30 4 3555 119 4 6140 264 22 7 38 8 41 8 160 34 12 554 37 70 512 22 32 9805 1401 103
internal_value=-0.0533163 -0.283384 -2.81125 -11.1845 -0.244685 -0.537089 -8.0812 -46.9122 -0.146307 -1.04269 -0.39594 -0.417744 -0.269476 -0.291812 -0.824352 -2.09363 -0.0455862 -0.327326 -2.21757 -0.103022 -0.41555 -0.238057 0.0221441 -0.851837 -0.093472 -0.171448 -0.347268 -0.0710078 -0.0440765 0.073714 0.384291 0.189168 -0.611865 -0.130937 -0.0445769 -0.0191912 0.55375 -0.0234299 -0.15941 -1.12706 -0.0148709 0.184547 -0.0515991 -0.0212307 0.0120988 0.216571 0.0455942 -0.00206623 0.4383 -0.00768566 0.415236 -0.0979836 -0.0134269 0.327667 0.0207603 -0.0461765 -0.0259094 0.110847 0.708725 1.72736 -0.0347378 0.0461778 0.655633
internal_weight=396.8 12.8988 0.194489 0.0404069 12.7043 3.19826 0.0498073 0.00853502 9.50606 0.437891 0.389935 3.14845 2.34686 2.33684 0.634152 0.0933455 383.901 2.04617 0.0922751 9.06817 0.842606 1.95389 0.692093 0.801593 1.70268 1.43148 0.576547 8.22557 381.855 1.61511 0.460331 0.417804 0.311412 0.508957 380.24 22.5397 0.16553 22.3742 1.32491 0.132817 21.0493 0.650554 1.19209 20.3987 8.68127 0.562439 0.522356 8.11883 0.102297 8.01653 0.107368 1.06826 7.90916 0.132241 2.39646 357.7 20.7238 1.2567 0.263537 0.112516 19.4671 2.59627 0.283288
internal_count=227845 1804 78 54 1726 670 129 110 1056 98 67 541 487 481 119 102 226041 456 54 958 276 402 387 54 362 338 142 682 225585 863 190 174 47 259 224722 10574 71 10503 236 42 10267 138 194 10129 3989 293 271 3696 46 3650 49 190 3601 46 598 214148 11982 636 124 54 11346 1541 140
is_linear=0
shrinkage=0.05


Tree=2
num_leaves=64
num_cat=0
split_feature=10 25 15 18 8 18 13 20 4 0 9 20 4 6 11 16 23 27 23 23 17 30 14 23 11 26 0 14 19 30 0 11 15 23 16 3 6 12 3 13 6 30 1 14 18 3 0 5 14 0 3 10 13 2 21 13 25 23 23 9 9 21 30
split_gain=1369.64 13076.7 388871 3.26016e+06 6.40006e+06 465.054 62.0285 81.471 46.9411 35.5985 33.4213 32.1058 35.6287 30.1837 25.0949 17.5434 18.9391 15.9327 13.6494 53.2638 528.666 15.4506 11.8158 11.3089 11.0507 10.9899 9.64476 8.19885 7.76896 14.0705 32.0034 7.91111 12.1951 30.6094 69.8745 11.0323 8.84183 7.71792 7.64411 7.33153 18.513 9.42636 11.3955 11.6293 10.9375 10.3646 10.407 9.08752 7.32936 7.23504 6.78911 6.43202 5.77167 5.49893 3.70956 3.33241 3.26506 5.98483 13.8532 30.834 23.6416 5.49217 17.7417
threshold=2.7133912037960752 -0.22730682935535149 -1.4788252979124148 -1.0000000180025095e-35 0.03498463998320691 -0.66676872488709937 -3.0453933014254244 0.37960287885311056 -2.4781533991247193 1.2553747081785052 -2.2159581580060492 0.1076369779574675 -1.0000000180025095e-35 -0.62404376626639291 -2.6663561528241595 -1.6084245419966599 0.11104704032216302 0.93769398558823303 0.022258860695461801 0.12934832848041253 -0.86476199724111236 4.6116988267170083 -1.4942911323460646 0.67652977940162162 -2.1791336905185799 0.29187513107317303 1.9509040221363152 -0.49060471878153744 -0.98185489821730987 0.68561574172142248 -2.0779499052055947 -0.22997037467308498 -0.62815355507737536 -0.39333560956673291 -1.0000000180025095e-35 1.8855616765324801 -1.8164410957396198 -1.5877512708385699 1.2721992739613304 -1.3751914950785697 -4.9612802220930385 5.6094901098678438 0.93705667690959615 0.81878724236596068 -1.7082961340423199 3.7345045245073805 1.8288194129578803 -0.48936932689799795 -1.3205285789096448 1.4940132761715852 4.7792095347160162 -0.93520084905876288 -3.6128426166552843 -1.1166545725687997 -1.58636945684335 -1.7761102791655898 -0.117829311927713 0.35806241560168256 0.46263717390501757 -0.84195439824379437 -1.0020852199208099 -1.0010318736801247 4.4955785031327
decision_type=2 2 2 2 2 2 2 2 2 2 2 2 2 2 2 2 2 2 2 2 2 2 2 2 2 2 2 2 2 2 2 2 2 2 2 2 2 2 2 2 2 2 2 2 2 2 2 2 2 2 2 2 2 2 2 2 2 2 2 2 2 2 2
left_child=6 17 3 5 -5 -3 7 9 -9 10 38 27 -13 -12 -15 16 24 18 21 -20 -21 -2 -18 54 -8 -10 51 -4 29 30 -17 32 33 34 -31 -35 37 -34 -1 40 -30 44 43 49 47 56 -47 -42 -48 50 -43 -11 -53 -54 -16 -39 57 61 59 60 -59 62 -46
right_child=1 2 11 4 -6 -7 15 8 25 26 13 12 -14 14 23 28 22 -19 19 20 -22 -23 -24 -25 -26 -27 -28 -29 39 31 -32 -33 36 35 -36 -37 -38 55 -40 -41 41 42 -44 -45 45 46 48 -49 -50 -51 -52 52 53 -55 -56 -57 -58 58 -60 -61 -62 -63 -64
leaf_value=-0.47050160684021569 -0.1115687575286038 -0.047783043347782224 -0.40699151577637632 4884.6524394229518 26.304281416839885 13.601074919556716 -0.31615373449368273 0.51881345056626793 0.065379731809997177 -0.7006042270340842 -0.34393381491211761 -0.050078692786996649 3.1886543625717332 1.2277109011407819 -0.32151313004208398 -0.050400582357644566 0.73096198033550985 0.17260739798603009 -0.10623888600390363 -10.075443195250829 -0.050078496347856299 0.17929703876365477 0.0044645413263480664 0.50877551503026397 -0.050124721695566823 -0.28533609737139093 -0.67894729744105153 -0.04263510329038029 0.93957960986502087 1.9467754799872186 0.80139600804230704 -0.050243810860100657 0.69962764732184179 -0.051488065342893907 -0.050136829576347845 0.3452237166178021 -0.051518685808525255 0.27785809934060662 -0.24514084470123254 -0.04682191872545529 -0.32551973219089902 -0.053539901110393487 0.4309718582300559 0.37399054571001322 -0.050221003467727947 -0.05156902304968395 0.43574963920937559 -0.052931641468407023 0.094942825941609243 0.38788849309042511 0.31892421636816948 -0.40632348754504477 -0.12838776447259645 -0.44121536833523128 -0.050377890071971382 -0.050110730062788357 -0.049364761407414186 0.25253744100892755 -0.01753306439592309 -0.050385658736235073 1.1717196470437792 -0.041894229423069682 1.1370566877589945
leaf_weight=0.86478654526301468 4.8774016632928516 0.014445762808547202 0.22411825195686014 0.0010543330118313488 0.0018984662904203799 0.010988094371436108 1.4720572355145127 0.57054041048101067 0.69766471945493469 0.13306802086299319 0.99774819133295078 0.018839176929253298 0.01546014718667521 0.039102419330112048 0.13132984482217569 0.29631349525880069 0.063982443884015083 0.54201978445053089 0.52168768143234368 0.01495323892422637 0.10903557902136077 0.50371448216244985 0.44677747264313428 0.089402493842408393 0.53124203394008795 0.32856367714323287 0.27821951947407786 0.49631204909871179 0.050443422049286535 0.075095341191627085 0.17563231999520112 5.6509628297062582 0.066423428594134748 0.60017104959115408 0.10513996030203998 0.24752708745654672 2.212812357232905 0.14764997246675193 0.6661137199227517 335.96835578153701 0.55144740419927984 1.6142692124703897 0.20635992824099947 0.23367067042272527 0.12468419992364932 0.46355291001964249 0.30660625535529107 0.68624933063984517 0.32495643210131675 0.11278091080021102 0.13237717316951592 1.2002321630716322 0.46531394775956858 0.20122892380459234 3.1991196118276388 0.16290813207160715 9.817587035242461 0.16322391375433654 1.5238948443438856 0.3572787550510842 0.12242081156000495 5.4477449738187831 0.042085944209247828
leaf_count=29 206 23 24 162 5 18 17 12 42 5 29 13 28 14 1 125 18 32 20 31 75 20 111 39 292 33 26 230 7 19 14 3021 5 186 54 17 705 2 23 210893 61 317 19 28 63 181 16 146 38 10 3 34 122 7 830 97 5699 41 762 167 14 2554 10
internal_value=-0.0349104 0.641041 6.74833 188.425 1761.04 5.84888 -0.0479755 -0.171732 0.15523 -0.234895 -0.170892 -0.0848263 1.40975 -0.101657 -0.0317717 -0.0446812 -0.176313 -0.0870536 -0.110406 -0.327632 -1.25915 -0.0843414 0.0954722 -0.0461726 -0.245607 -0.0469076 -0.40312 -0.155983 -0.0437819 0.00027683 0.266591 -0.0132834 0.0444494 0.190161 0.78188 0.0643514 -0.0133861 0.210445 -0.372444 -0.0449799 -0.0172051 -0.0193761 0.0764801 0.0415306 -0.0304347 -0.0209043 0.128343 -0.174381 0.260395 -0.000249061 -0.0253111 -0.364747 -0.340806 -0.22283 -0.0610696 0.105817 -0.0301914 -0.00600077 0.0645844 0.259224 0.646478 -0.0332418 0.249399
internal_weight=387.719 7.35193 0.783116 0.0283867 0.0029528 0.0254339 380.367 9.86243 1.59677 8.26567 5.9876 0.75473 0.0342993 4.4567 3.45895 370.505 2.51406 6.56881 6.02679 0.645676 0.123989 5.38112 0.51076 3.41985 2.0033 1.02623 2.27806 0.72043 367.991 9.74064 0.471946 9.26869 3.61773 1.02793 0.180235 0.847698 2.58979 0.376982 1.5309 358.25 22.2816 22.2312 2.29946 2.0931 19.9317 18.694 1.09512 1.2377 0.631563 1.85943 1.74665 1.99984 1.86678 0.666543 3.33045 0.310558 17.5989 7.78133 2.16682 0.642923 0.285645 5.61452 0.16677
internal_count=227845 887 503 208 167 41 226958 1246 87 1159 965 295 41 913 884 225712 438 384 352 126 106 226 129 870 309 75 194 254 225274 4245 139 4106 1085 276 73 203 809 104 52 221029 10136 10129 377 358 9752 9545 235 207 54 330 320 168 163 129 831 99 9310 3611 984 222 55 2627 73
is_linear=0
shrinkage=0.05


Tree=3
num_leaves=64
num_cat=0
split_feature=13 10 15 30 17 1 9 21 21 3 2 3 6 15 0 27 11 16 23 4 23 8 11 2 3 13 7 19 30 0 21 12 15 3 10 20 9 25 18 18 18 13 25 9 10 10 28 13 30 0 16 12 3 18 1 9 21 6 14 0 25 12 28
split_gain=42.1852 82.7898 331.284 70.981 248.42 38.968 396.064 54.5083 74.868 35.4451 143.581 23.825 3767.19 58.3354 19.9498 15.5932 14.2274 11.611 14.1839 11.5505 13.8944 8.64982 8.94333 7.94593 7.76236 7.31587 11.774 7.26809 10.7586 12.4121 7.24838 7.22782 5.98074 9.24532 12.5195 8.90312 8.12155 5.60201 5.06913 9.45893 6.98994 11.2024 5.56513 8.30594 11.4091 25.5808 38.9744 8.92665 10.8875 8.41183 7.75948 6.88131 4.9334 3.9903 3.41651 3.25843 3.1962 3.06148 7.46739 25.0459 6.26752 15.5386 16.23
threshold=-3.0453933014254244 2.7133912037960752 -1.7746862368577898 5.7470973547570638 -0.64498013289296996 2.5712889776054704 -2.6720200886180092 0.053452650379199752 0.23920078975385953 3.9069140187532905 -1.8127195816897499 3.9069140187532905 -3.4610937641094597 -2.2980380449840347 1.2553747081785052 0.28126704438567707 -1.6801509645278048 -1.6084245419966599 0.11104704032216302 2.0815805839881807 0.65671692876959509 -2.5261389748988647 -2.1791336905185799 -2.6622241166788645 2.6284362358267805 -1.3751914950785697 -4.8693175808201437 -0.98185489821730987 0.68561574172142248 -2.0779499052055947 1.4179663315248201 -0.060249332533550297 -0.62815355507737536 0.052588673361285906 -1.0573868411755198 -0.38268459007243943 2.9078230653268853 0.12951644627463701 -1.7082961340423199 -1.8738621144017349 -1.5191977155774696 -2.6262787275278345 -0.117829311927713 -0.78687575473933191 0.62261174003617115 0.48681431129446456 15.500000000000002 -1.4231881197008698 5.6094901098678438 1.0016581586933053 1.4600953440682753 1.1090668528207901 4.7792095347160162 -0.72288376448649483 0.68923833218994968 -2.2159581580060492 -0.38907794372752297 1.2789474960763954 2.0098894352327057 -0.73476215969672742 -0.53363991434407487 -1.3333796274007548 17.500000000000004
decision_type=2 2 2 2 2 2 2 2 2 2 2 2 2 2 2 2 2 2 2 2 2 2 2 2 2 2 2 2 2 2 2 2 2 2 2 2 2 2 2 2 2 2 2 2 2 2 2 2 2 2 2 2 2 2 2 2 2 2 2 2 2 2 2
left_child=3 17 -3 5 -5 6 -1 11 -9 10 -10 12 -7 -14 16 -13 -8 18 21 20 -18 -2 -23 55 -20 26 30 28 29 -27 -19 -6 33 -30 35 -35 -36 53 39 52 41 -40 43 44 45 47 -47 48 51 -49 -50 -42 -28 -16 -21 -15 -17 -29 60 -60 61 62 -59
right_child=1 2 -4 4 31 7 14 8 9 -11 -12 15 13 23 37 56 19 25 24 54 -22 22 -24 -25 -26 27 38 57 32 -31 -32 -33 -34 34 36 -37 -38 -39 40 -41 42 -43 -44 -45 -46 46 -48 49 50 -51 -52 -53 -54 -55 -56 -57 -58 58 59 -61 -62 -63 -64
leaf_value=-4.4091745127012896 0.057686132333708576 -2.3505981630029029 -0.050837953481417203 2.8810252127734945 0.22955359656041086 -94.695225254459046 -0.35894835118871821 2.5512657120920128 4.8221425808125638 0.06716509575279625 -0.050077333367724033 0.072684970855556461 2.5141395076036419 -0.37719770219704718 -0.34314203531278342 -0.12444108956127381 -0.057366864282506161 0.078509137598404138 -0.00030790566039905177 -0.026899694116151559 0.64909583774534951 -0.29345550646766266 -0.05011452233507209 -0.010710557947703056 0.50555436650393915 -0.050371912123472001 -0.053004750343850521 -0.047901474586387126 -0.050540739421946194 0.41869345386650814 0.45479870323457805 -0.17497476143614527 -0.042306074045805206 0.74483947984716581 -0.050833796374594599 0.20311873097474425 0.26349708521063125 -0.10522281546873108 0.31923452054666851 -0.24162083506169918 -0.051612661362602445 -0.041923553449623896 -0.04558290577055079 -0.039693319949966763 -0.052579605379707052 -0.050730960529880978 1.8359949074681101 -0.050080010387502996 -0.053070017307941135 0.59423179899128642 0.32419392782727646 0.17537235283061525 0.25201236922302989 -0.18410400631521054 -0.2342789084000011 -0.22576180226232614 -0.038731952141711129 0.066691928231367367 -0.050175194600807466 1.6172009815536912 -0.041449871030408272 -0.026297612524987565 0.58614075521697229
leaf_weight=0.056038163602354696 0.28923325845971781 0.19472589838551357 0.7996693576569659 0.087336765082769885 0.17710775645546706 0.0010554641485206453 0.60349358410289777 0.038429432424081755 0.020524401606390796 0.39985968174473641 0.0574373864142948 1.7138293031410752 0.019498856673043297 0.57483076097968155 2.2745129035902218 3.8841976997129404 2.7994024540449574 0.36909378739074128 0.48734021677728367 0.23063957679469549 0.071373350965062587 1.5549655500110482 0.49866731772476525 0.32418710013265162 0.08981028851121664 0.25482658541295677 0.79646430909633636 301.10187529017082 1.1562166555086144 0.31582359119783987 0.19590628473088145 0.29325327787138245 5.896164402132853 0.12524585810024291 0.62153621716424801 0.19229457946494222 0.30699856393039227 0.35769093653652806 0.39676657319068909 0.72634590638336038 1.5423429182264961 0.46794322575443459 10.938426190055891 4.7284500843379735 1.6189240019302813 0.056591946398839243 0.053011811221949756 0.075403254479170179 0.18418132595252235 0.15435356926172972 0.52422964421566576 0.42615894798655052 0.15903922915458679 0.47714359150459795 1.4299615812487898 0.92975329454677269 1.5108100968726192 0.41982697392813895 0.09045516699552536 0.029989033937453224 16.717691793688573 2.1021473689470502 0.23429418355226517
leaf_count=84 4 18 311 45 16 15 36 28 23 68 38 55 15 5 52 60 696 66 111 42 15 14 291 109 18 116 152 199429 563 11 6 28 2814 9 250 35 24 21 19 73 656 120 6155 2522 541 20 21 47 55 13 23 69 1 121 105 110 17 100 45 20 9904 1358 37
internal_value=-0.0493958 -0.0455961 -0.501185 -0.123367 0.432068 -0.140795 -0.21989 -0.071501 0.428078 0.257318 1.23259 -0.100291 -0.260162 -0.206234 -0.191415 -0.0587017 -0.13089 -0.0443232 -0.143617 -0.100517 -0.0398028 -0.198312 -0.234367 -0.23524 0.0784092 -0.0435018 -0.0164955 -0.0454204 -0.000770943 0.20923 0.208983 -0.0226554 -0.0152118 0.051288 0.145774 0.416787 0.0530924 -0.291367 -0.0220711 -0.10562 -0.0154326 0.123792 -0.0213624 0.00693143 0.0544942 0.111964 0.861818 0.0836886 0.0580182 0.382777 0.226108 -0.00247291 -0.00223603 -0.315564 -0.205476 -0.283618 -0.100439 -0.0466552 -0.0275048 0.36498 -0.0299322 0.0399261 0.252749
internal_weight=375.226 356.893 0.994395 18.3324 0.557698 17.7747 8.30026 9.47441 0.516251 0.477821 0.0779618 8.95816 1.84933 1.84827 8.24422 7.10884 5.13487 355.899 2.92002 4.53138 2.87078 2.34287 2.05363 1.82877 0.577151 352.979 23.4136 329.565 8.86911 0.57065 0.565 0.470361 8.29846 2.40229 1.24608 0.31754 0.928535 3.10935 22.8486 1.68185 21.1668 0.86471 20.3021 9.36365 4.6352 3.01627 0.109604 2.90667 2.67691 0.229757 0.708411 1.9685 0.955504 2.75166 1.6606 1.50458 5.39501 320.696 19.5944 0.120444 19.474 2.75627 0.654121
internal_count=227845 226041 329 1804 89 1715 1172 543 157 129 61 386 254 239 1088 132 894 225712 438 858 711 309 305 224 129 225274 10559 214715 3822 127 72 44 3695 881 318 44 274 194 10487 226 10261 139 10122 3967 1445 904 41 863 803 60 78 725 153 173 147 115 77 210893 11464 65 11399 1495 137
is_linear=0
shrinkage=0.05


Tree=4
num_leaves=64
num_cat=0
split_feature=16 15 10 18 7 10 19 2 10 0 28 26 22 25 22 30 26 18 20 0 27 13 30 1 23 15 20 16 23 14 10 13 2 0 4 1 10 14 3 15 27 17 0 8 22 14 6 13 13 10 13 4 15 12 28 10 12 16 3 9 25 26 0
split_gain=23.5959 32.9503 205.133 23.9852 13.2813 12.5243 12.2915 10.6038 8.77801 101.899 287.762 727.018 697.797 295.713 107.917 194.053 78.5198 42.7884 213.66 411.17 25.1019 20.3999 171.075 175.316 35.3456 27.0272 12.9601 9.97279 9.87672 8.41603 7.82903 7.79043 9.72762 14.5265 7.73166 12.1045 6.72807 6.41078 6.05853 7.40505 6.50092 5.86062 5.46624 4.9576 7.031 4.8439 4.05322 4.82733 5.18275 7.80538 12.5276 19.1063 12.7733 29.5348 12.7137 8.70911 25.4319 4.58949 3.97933 8.30205 12.0383 9.3095 9.21969
threshold=1.9807027685368201 -1.8483947298738799 1.96502295027228 -0.73889847732615588 -4.8693175808201437 1.8345074539638551 -0.13211848396824646 -0.44025917732620395 2.7133912037960752 -1.9095856509379898 7.5000000000000009 -0.95030519208154896 -0.56092772287596093 -0.188827848183001 -0.26528716168686495 0.82636363026624893 -0.43283783060464393 0.58538145359730864 -0.56820113062620881 -2.4490520359851646 0.28126704438567707 -3.6128426166552843 4.8408350170757588 1.6838781764030453 -0.20274611770302797 -1.0000000180025095e-35 0.93966434798452203 -1.6084245419966599 0.11104704032216302 -0.38677413598292792 0.19845311896422654 -2.6262787275278345 0.82034087684417967 -1.0000000180025095e-35 -4.6916654761528944 4.2257268974413362 0.020985727213352002 -0.90362296543820986 4.7792095347160162 -0.67029249274971081 0.49487344783385057 -2.5195789182320794 -1.2516921328735047 -0.56269450179414937 0.034661668857593905 -1.4942911323460646 1.2789474960763954 -3.0453933014254244 -0.81811979204110385 1.3279680183582852 -0.83634457439668541 0.41975332901447554 1.3494875110061753 -1.4643409702620847 18.500000000000004 2.2121662168510805 -0.21276359693704347 1.4600953440682753 0.38097449056649108 -0.78687575473933191 -0.21420227057628546 -0.18681014918431046 1.0016581586933053
decision_type=2 2 2 2 2 2 2 2 2 2 2 2 2 2 2 2 2 2 2 2 2 2 2 2 2 2 2 2 2 2 2 2 2 2 2 2 2 2 2 2 2 2 2 2 2 2 2 2 2 2 2 2 2 2 2 2 2 2 2 2 2 2 2
left_child=8 2 -2 5 -5 31 -7 -6 21 17 11 -11 -13 -12 -14 -16 -17 18 -10 -20 26 22 24 -24 25 -1 -19 28 41 -8 36 43 -33 -34 -22 -36 -9 -26 46 40 -40 -23 -43 -3 -45 -30 47 57 49 58 52 -52 55 -54 -55 -51 -57 -29 -49 60 61 -60 -63
right_child=1 3 -4 4 7 6 29 30 9 10 13 12 14 -15 15 16 -18 20 19 -21 34 27 23 -25 37 -27 -28 38 45 -31 -32 32 33 -35 35 -37 -38 -39 39 -41 -42 42 -44 44 -46 -47 -48 48 -50 50 51 -53 53 54 -56 56 -58 -59 59 -61 -62 62 -64
leaf_value=-1.4261437103847037 -0.050071851102857251 -0.27142423499199991 -4.1861419240161837 0.18212297748158668 -0.079863398555476139 0.099298971361757624 -0.24091639363127104 -0.05045525532438272 -0.0022401524329099007 -36.798860455618119 -0.050629498321048863 -35.193636104825735 -2.7806668753081922 -5.7212052702849601 4.7619407791962827 -4.1605952073547385 -0.07105996659286444 0.066653167058270221 8.2832996034208755 -0.051598483128251188 -0.075421457473290598 0.059682776828099152 -0.047386601428063592 3.0204990879566695 0.43402967686165134 -0.26325605411847847 0.52654383848604602 -0.055850719706820318 0.26075548467140991 -0.054390226335407625 -0.053588427430866642 -0.043015403648452466 -0.050071616331195591 -1.3575089018314532 -0.43399352416156267 -0.09944795122222351 0.34722267624916503 0.017403274366771065 -0.05011806958416648 -0.0016154445175466236 0.44853909242098 -0.20816583945989819 -0.0086234231426545269 0.018307547232593792 -0.21594000702885618 -0.034887869120492312 -0.024917315585910801 -0.048021741960494094 -0.048052145480584285 -0.050131657165021493 -0.050072366137197621 1.7009676079627132 1.7731476857008968 -0.039359248866105534 0.36469016542711707 1.6788029488254954 -0.050071914712374016 -0.22860231929703678 0.7796754689072567 -0.035183765610494452 -0.025240862728698132 -0.050092730057007186 0.23777148221089373
leaf_weight=0.072325607799403002 0.18773379700724113 2.6330010902893264 0.035674380487762392 0.67897546954918464 5.0874955282779393 0.77559559681685675 1.0010593546321622 0.14927788340719494 0.38875666912645102 0.0013605888981853545 0.040841681867875054 0.0014227313835134528 0.036643608343843836 0.052602206871438253 0.020781324651802047 0.011965360026806593 0.61604002736804997 0.49996841070746167 0.024005195586688899 0.03857193507778145 4.343905806541442 0.2718358733691274 0.089131882698444728 0.097515006393408279 0.10322845789338864 0.16161273503234208 0.22086817176023033 0.85042933747172245 0.15997484792023886 1.5275003442657173 0.44115350680658594 1.1026711369631792 0.051408076542429626 0.036208832170814165 0.42290992561637686 0.74966787865587747 0.36991080979350954 0.87480596197744565 0.097500221338123083 0.97043849760666379 0.19827306270599365 2.6732869224617848 0.39376135460452077 0.40870331795304071 1.4815933784702791 1.0343933004762673 24.628495399840176 22.881009661476128 268.00999506607036 2.1697478471323861 0.034281131229362383 0.028554472723044455 0.028871499700471759 0.42714570451062162 0.35774996038526297 0.028920524171553552 0.080421512015163787 0.70169521495699883 0.060200616368092486 10.67452666745521 1.8556866821600113 0.41416818695142887 0.84696432226337492
leaf_count=38 131 102 11 60 1807 130 15 73 96 2 20 5 9 46 27 4 169 46 39 13 49 3 30 13 15 17 42 60 18 192 165 585 36 8 45 10 19 88 60 462 7 173 150 107 100 135 13383 15085 184728 1408 24 20 3 126 41 20 56 49 21 5979 1076 273 121
internal_value=-0.048132 -0.107567 -0.71053 -0.0990113 -0.0275582 -0.152312 -0.074826 -0.0510986 -0.0454107 -0.099027 -0.639216 -0.285714 -0.213385 -3.24276 -0.140777 0.00832421 -0.148978 -0.0358988 0.434227 3.14575 -0.0699171 -0.0442371 0.146328 1.55545 -0.0706811 -0.622781 0.207566 -0.0450213 -0.118686 -0.128236 0.101286 -0.197122 -0.0833073 -0.590387 -0.106176 -0.220107 0.232882 0.0613769 -0.0440255 0.0651384 0.284159 -0.162826 -0.182548 -0.227072 -0.165293 0.00471089 -0.0444392 -0.0459929 -0.0455495 -0.0287344 0.0467266 0.745655 0.0325269 0.202575 0.144804 -0.0281902 0.407208 -0.133949 -0.0352173 -0.0140659 0.0568882 0.172231 0.143234
internal_weight=364.715 15.968 0.223408 15.7446 6.72681 9.01774 3.30416 6.04784 348.747 7.47031 0.781658 0.688214 0.686853 0.0934439 0.68543 0.648787 0.628005 6.68865 0.451334 0.0625771 6.23732 341.277 1.39862 0.186647 1.21197 0.233938 0.720837 339.878 4.53325 2.52856 0.960342 5.71359 1.19029 0.0876169 5.51648 1.17258 0.519189 0.978034 335.345 1.26621 0.295773 3.33888 3.06705 4.5233 1.8903 1.19437 334.079 309.45 307.898 39.8882 3.15569 0.0628356 3.09286 0.813767 0.784896 2.27909 0.109342 1.55212 36.7326 13.8515 3.17702 1.32133 1.26113
internal_count=227845 3541 142 3399 2124 1275 337 2064 224304 622 282 216 214 66 209 200 173 340 148 52 192 223682 201 43 158 55 88 223481 479 207 257 938 629 44 104 55 92 103 223002 529 67 326 323 309 207 153 222473 209090 208981 24253 1698 44 1654 170 167 1484 76 109 22555 7470 1491 415 394
is_linear=0
shrinkage=0.05


Tree=5
num_leaves=64
num_cat=0
split_feature=16 18 10 14 21 6 3 19 12 13 30 0 24 23 22 18 8 16 23 13 20 2 23 23 12 3 27 24 17 3 26 3 30 0 6 25 21 19 5 13 13 10 12 3 12 12 21 13 14 12 12 1 18 27 2 25 9 25 24 25 0 2 24
split_gain=14.1239 19.5029 14.8377 112.622 39.2949 110.47 20.96 20.0376 28.8649 15.3159 78.8414 37.8942 12.7474 12.0656 8.79748 8.40808 46.3312 7.48225 8.09961 7.24126 6.85623 9.15867 6.84155 6.27845 5.76313 5.55229 5.18047 5.03925 4.6922 4.49923 4.34437 4.34133 7.58908 4.16734 4.11691 4.05436 4.04659 4.01269 3.99143 3.92582 5.21375 6.70481 12.2415 7.16474 4.5914 21.4565 11.5292 9.72776 3.95 19.6557 25.5988 6.07828 4.38105 23.6225 4.25144 5.83273 6.72629 3.85727 32.9945 3.51366 20.5127 4.57423 3.45981
threshold=1.9807027685368201 0.37939513725591806 2.7133912037960752 -1.3205285789096448 0.30518798315245454 -1.3352826201119699 -0.33518380907975848 -0.21501792865936997 1.5243079546889051 -3.6128426166552843 4.8408350170757588 -1.2516921328735047 -1.2459578195959298 -1.0165536821933847 -0.16853534140552498 -0.19020337508351295 -1.0000000180025095e-35 -1.6084245419966599 0.11104704032216302 -3.6128426166552843 -0.29915060211376349 -4.3461583588061545 -0.090472539491430734 -0.090472539491430734 -0.69072060494396481 4.7792095347160162 0.14338521569566251 0.7190615594783526 -2.5195789182320794 2.6284362358267805 -1.4092856462872099 2.8322724824043308 1.2134268591696917 -1.2516921328735047 1.2789474960763954 0.13378306399484452 0.23920078975385953 -0.13643085149754899 1.0206030567746602 -3.0453933014254244 -0.81811979204110385 1.3279680183582852 -1.5877512708385699 4.135161612364751 -0.30824314504852995 -0.36930595824346246 -0.029798090034903496 -0.83634457439668541 1.2570282229838152 -0.88073499600461191 -0.96135454747092641 -2.5784302218132749 -2.1530167164478344 0.11145573673746702 -2.5788377626524448 -0.21420227057628546 -0.86825508933903583 1.2041609804448552 0.39455354957607008 -0.88217451140458947 -0.17212373235670347 -3.7473587278854397 -0.33383275677385199
decision_type=2 2 2 2 2 2 2 2 2 2 2 2 2 2 2 2 2 2 2 2 2 2 2 2 2 2 2 2 2 2 2 2 2 2 2 2 2 2 2 2 2 2 2 2 2 2 2 2 2 2 2 2 2 2 2 2 2 2 2 2 2 2 2
left_child=2 12 9 -4 6 -6 30 8 -8 10 11 24 -2 -7 -3 16 -9 18 28 20 21 -14 -16 -15 -1 34 -27 -17 -11 -20 -5 -21 -33 -30 39 -22 -32 -23 -28 -19 41 48 -43 44 45 47 -47 -44 52 50 51 -50 53 -41 55 56 -54 -56 -59 60 61 -36 -24
right_child=1 14 3 4 5 13 7 15 -10 17 -12 -13 19 23 22 27 -18 25 29 31 35 37 62 -25 -26 26 38 -29 33 -31 36 32 -34 -35 59 -37 -38 -39 -40 40 -42 42 43 -45 -46 46 -48 -49 49 -51 -52 -53 54 -55 57 -57 -58 58 -60 -61 -62 -63 -64
leaf_value=0.38730560047745743 0.10980830709638988 -0.094319962866530827 0.79277667931778373 -0.3762253623258881 -1.292039681641086 0.09491243995473464 0.74802594911503584 0.79539173315824441 -0.056801401621851592 0.059121793146612894 0.81549699758523264 -0.69345245030110281 -0.17947081208647009 -0.30107903114054907 -0.050476103792299332 -0.075046542331668076 -0.074476466959504536 -0.1241859595956927 -0.034466090952483708 -0.063199876199999686 -0.20087410548858969 0.20751990814297183 -0.050446738713265042 -0.10095001953012675 0.012883730011489836 -0.050176301621938792 0.21638242459106882 -0.19747628799360983 -0.18181749500757816 0.24205344518991692 -0.062818306345683958 -0.44820293450096682 -0.089632551059408719 -0.0082195226756363784 0.25256333407987258 -0.097131277947682143 -0.32907813175691891 -0.029133620931473356 -0.050138356159951714 -0.052679026410326971 -0.047943059965400797 0.71200938591642704 -0.04468818875776083 0.24788343544482538 -0.050523439582510765 1.4772116019654449 0.40691485572612529 0.49187077325180112 0.44063179416807341 -0.050488609224437535 1.1296614310415003 -0.050069131274812412 0.25499596421017834 1.3714016168375129 -0.045293807992450683 -0.05024262275777746 -0.050414543505207847 -0.05007240098825716 1.8034615076479317 -0.027677212711932131 1.1702952309054699 -0.050198741920674687 0.23032596561826302
leaf_weight=0.11557003512375597 0.61966039577964949 0.69369676394853774 0.34240579450168418 0.57604110240936279 0.25451765590659592 0.31581270718015786 0.18692070044755382 0.17759837113208443 0.27575620233324116 0.26096950704231847 0.31756500336078564 0.20224080152626611 1.2547695040702822 1.2755945641013862 0.40064557932782929 5.1997540323194524 1.1086098529830677 1.5875232815742482 1.0538929074980385 5.1756815095432094 4.8056636364776759 0.21397699727026509 0.12574963958468288 0.56569340710084604 0.92808784788591947 0.60664367442950495 0.54272888984996825 1.0025386366269309 2.9011275375632981 0.17096871370449651 0.31847634402219849 0.20891380950342853 0.50249693042133003 0.39247684959559537 0.16196517180651426 1.1713165207188438 0.25854102207813412 1.0996606989363042 0.18953602609690279 0.16918113653082301 255.50464592100278 0.066210470395163035 1.0061489114305002 0.32647330034524191 1.7658483206760125 0.032736334716901183 0.10873294179327886 0.092215113923884817 0.10059721022844315 1.268912212923168 0.08457836229354132 0.16934412228874862 0.47631937416736037 0.035174884716980159 31.805684517249091 0.86086777271702775 0.29006594885140657 0.21836474759038438 0.026975329499691725 23.302259713440435 0.040962913888509145 0.54300653480459005 0.86069137905724225
leaf_count=34 43 165 37 6 82 18 37 30 18 3 43 38 35 38 207 102 92 109 132 2534 161 6 66 72 86 360 68 28 173 21 58 22 98 150 24 28 4 99 101 63 184728 36 577 13 1005 19 27 21 1 815 17 123 39 27 20635 508 153 156 18 13055 19 285 77
internal_value=-0.048126 -0.0924199 -0.0458913 -0.100836 -0.127406 -0.306862 -0.07987 -0.0509796 0.268348 -0.0439032 0.112217 -0.0670409 -0.112254 -0.19062 0.0510593 -0.0707092 0.0456341 -0.0446516 -0.106752 -0.121789 -0.151185 -0.0828635 0.123765 -0.239594 0.0543455 -0.043728 0.0578791 -0.0948361 -0.14496 0.00413108 -0.27909 -0.0791186 -0.194931 -0.161131 -0.0441531 -0.180543 -0.18212 0.00941461 0.147397 -0.0457695 -0.0453467 -0.0282949 0.0387985 0.0254217 0.0012582 0.0750089 0.654584 0.000359577 -0.0347166 0.0414718 0.370621 0.132797 -0.038367 0.192442 -0.0397675 0.0390743 0.139402 -0.0437704 0.153725 -0.0242577 0.0825634 0.01936 0.194534
internal_weight=356.718 17.1329 339.585 11.8583 11.5159 2.41162 9.10424 7.95118 0.462677 327.727 1.56346 1.2459 15.0521 2.1571 2.08078 7.4885 1.28621 326.163 4.77944 14.4325 8.54539 2.56841 1.38709 1.84129 1.04366 321.384 1.33891 6.20229 3.55457 1.22486 1.15306 5.88709 0.711411 3.2936 320.045 5.97698 0.577017 1.31364 0.732265 295.997 294.409 38.9044 3.39837 3.33215 3.00568 1.23983 0.141469 1.09836 35.5061 1.62343 0.35452 0.269941 33.8826 0.204356 33.6783 1.62725 0.766385 32.051 0.24534 24.0482 0.745935 0.704972 0.986441
internal_count=227845 3541 224304 622 585 210 375 307 55 223682 201 158 3026 128 515 252 122 223481 479 2983 329 140 350 110 120 223002 529 130 326 153 68 2654 120 323 222473 189 62 105 169 209090 208981 24253 1698 1662 1649 644 46 598 22555 956 141 124 21599 90 21509 700 192 20809 174 13383 328 309 143
is_linear=0
shrinkage=0.05


Tree=6
num_leaves=64
num_cat=0
split_feature=8 10 20 16 18 13 18 9 0 12 12 27 21 4 1 22 10 0 22 20 25 11 3 25 6 16 23 25 1 18 18 22 25 28 15 16 1 3 23 21 30 9 27 13 17 16 13 13 10 11 9 16 2 26 2 25 9 14 3 10 14 3 4
split_gain=11.4701 17.5813 11.1833 9.47002 17.0056 10.2308 296.784 1288.81 4249.42 6777.06 10199 80.1165 179.992 62.4451 95.1612 157.77 10.3795 17.8842 7.54694 5.69764 6.26938 5.88068 5.38833 5.2423 5.20529 6.56902 5.14724 5.01629 5.49595 10.1094 25.6844 21.8571 10.1464 8.55601 19.5222 5.97498 5.87161 4.95042 4.796 4.70681 4.69457 4.69292 4.22668 4.21014 4.09363 4.19828 3.85908 5.48093 6.462 9.15413 14.0736 44.8654 6.61874 4.77112 3.89795 4.93528 4.31588 3.79867 3.71171 4.406 11.1114 3.60602 3.27218
threshold=2.3652584813231305 2.7133912037960752 -0.51663753267518542 1.9807027685368201 0.37939513725591806 -3.6128426166552843 0.28847672204817754 -2.2159581580060492 0.34197190999193455 0.53483824454338114 -1.1607170880902098 0.23202721293403702 -0.65420177885576791 -4.6916654761528944 4.2257268974413362 0.099111128205174107 2.7133912037960752 -2.4490520359851646 -0.16853534140552498 1.3379930416372952 -0.21842768077960598 -3.5088629577726498 4.7792095347160162 0.12322637901909102 1.2789474960763954 -1.6084245419966599 -0.090472539491430734 -0.027134308735717347 0.14203732618441653 0.6801968741906721 0.73601132440922212 0.09627334492988146 -0.033438873914529793 22.500000000000004 0.20469152897883602 -1.6084245419966599 0.13343813856288603 3.5848034635316903 0.053651992893809654 0.52432551270266614 1.0000000180025095e-35 -2.2159581580060492 0.14338521569566251 -2.6262787275278345 1.8416862049937401 1.9807027685368201 -3.0453933014254244 -0.81811979204110385 1.3279680183582852 -0.097194450071086194 -0.54403568338347186 0.98753955774393509 -1.1166545725687997 1.5185543821021554 -2.5788377626524448 -0.21420227057628546 -0.86825508933903583 -0.50222798626294241 4.135161612364751 2.2121662168510805 0.51868577192288357 1.7929693619591103 -0.49864937419367145
decision_type=2 2 2 2 2 2 2 2 2 2 2 2 2 2 2 2 2 2 2 2 2 2 2 2 2 2 2 2 2 2 2 2 2 2 2 2 2 2 2 2 2 2 2 2 2 2 2 2 2 2 2 2 2 2 2 2 2 2 2 2 2 2 2
left_child=3 44 -3 5 19 6 7 8 9 10 -1 12 -8 57 15 -15 22 -18 -6 20 21 -5 24 43 25 38 -20 28 29 33 31 -31 39 35 -35 -26 -37 61 62 -32 -30 -42 -24 -22 45 -2 -27 48 53 50 51 -50 -52 54 55 56 -48 -13 59 -51 -61 -25 -7
right_child=1 2 -4 4 18 16 11 -9 -10 -11 -12 13 -14 14 -16 -17 17 -19 26 -21 23 -23 42 37 27 46 -28 -29 40 30 32 -33 -34 34 -36 36 -38 -39 -40 -41 41 -43 -44 -45 -46 -47 47 -49 49 58 52 -53 -54 -55 -56 -57 -58 -59 -60 60 -62 -63 -64
leaf_value=11.208324697411131 -0.054622053580250018 -0.07553235666983045 -0.26964727820756718 0.20935192422872989 -0.094249217237283925 -0.16672393154518061 0.065900154550415355 -0.070914697844793068 0.55824823499510012 5.9919248427041136 123.9485421926509 -0.088931838702038191 2.264930347400349 -1.870686005558001 -0.091536181872409569 -0.093699318709297597 -0.31841625600850376 -0.065871412019510175 -0.050455936705985284 0.064689893041800894 -0.19004697118293498 -0.07833622335576361 -0.050172985497693195 -0.087950908816723239 0.30987240718689035 -0.12875704198075161 0.16287597593710457 -0.048007861478605363 0.22313779797546293 1.4505400480395692 -0.050489117317090541 -0.050068383603172284 0.68897070535984417 -0.050492917124992591 1.4330217420982956 -0.037631294368363793 0.28639888463747493 0.011417777506389951 0.029605423639220547 0.14219443738876378 0.21100767638411821 -0.043538975780004742 0.12992391117706423 -0.06697958987280192 0.14579747822464614 -0.1556008476513947 0.20410407048502185 -0.047787560847046127 1.7399641782776158 -0.050462602012686521 0.26474474663370734 -0.050158950771791194 -0.036675740536693147 0.2256386768145825 -0.038880403288714949 -0.050246112741622967 -0.05044583841803011 0.0033126571823545638 0.20089283248460951 0.74772586323905232 -0.050328735639688739 -0.24526234161221316 -0.043135202647207146
leaf_weight=0.0044810381663644358 9.1598992577055416 1.196595910121687 1.9529652566416178 0.18433668091893007 0.65968263859394971 2.3114855209432799 0.52907517424125661 0.43132573420403897 0.081547985080949612 0.016729179341079495 0.0036320054175116093 2.7050238658985108 0.11291222600588569 0.25028950460723876 0.74322634935379028 0.24935150899570158 0.92422696109861169 2.9027531528845421 0.37876487814355653 0.47792537836358029 4.1967205405235291 4.8844648035010323 0.55345209734514245 1.3253048477345148 0.13721125014126245 1.3830361524597368 1.1154078948311494 9.9248993241075123 0.17844055895693589 0.066568033769726642 0.55301026394590713 0.038185890763998032 0.067444987129419931 0.064825659152120241 0.033706870046444237 3.8115971646038842 0.14512938121333707 0.91228411160409439 0.49677060320368571 0.74245261214673519 0.18611834198236454 6.676736451452598 0.7919546882621944 0.83286085107829233 0.23336987162474621 1.1596308273728944 0.56266768800560385 239.17223976615637 0.055853138794191182 2.0758557370863855 0.30914728168863803 0.093754527159035206 0.44325638259761069 0.17639207467436691 31.60125868508905 0.74287837895098963 0.23651424283161759 1.8999809215465573 0.19100430607795704 0.062609283719211706 0.14377394411712885 0.50238148396601889 0.69709085952422256
leaf_count=22 5087 137 22 16 164 19 13 28 20 12 37 12 109 37 12 19 17 199 205 80 162 1500 343 697 17 85 141 6089 18 14 299 28 7 31 15 2104 12 69 66 138 22 4119 161 366 21 88 39 181351 18 1178 24 54 232 26 21172 454 127 38 2 25 38 22 166
internal_value=-0.0473995 -0.0922273 -0.195898 -0.045544 -0.083739 -0.0436717 0.0159813 1.14481 6.07359 24.1785 61.6793 -0.0775477 0.452664 -0.135755 -0.450257 -0.983861 -0.0450303 -0.126862 0.0466083 -0.104822 -0.111133 -0.0678739 -0.0440026 -0.139354 -0.0444454 -0.0463047 0.108797 -0.021375 -0.000564118 0.03612 0.149058 0.903524 0.0910694 -0.00341637 0.457001 -0.0144976 -0.0257461 -0.0837092 -0.114323 0.0599412 -0.0300526 -0.0366358 0.0558385 -0.169668 -0.0612862 -0.0659693 -0.0454447 -0.045027 -0.0270342 0.0388904 0.17524 0.618149 0.0871718 -0.0337123 -0.0350926 0.0425307 0.128771 -0.0508726 -0.0108372 -0.0285572 0.191772 -0.131192 -0.138088
internal_weight=344.754 13.7025 3.14956 331.052 15.4701 315.582 7.02758 0.537716 0.10639 0.0248422 0.00811304 6.48986 0.641987 5.84787 1.24287 0.499641 308.554 3.82698 2.15386 13.3163 12.8384 5.0688 304.727 7.76955 303.382 280.756 1.49417 22.6263 12.7014 5.66013 1.46766 0.104754 1.36291 4.19247 0.0985325 4.09394 3.95673 2.73997 3.50535 1.29546 7.0413 6.86285 1.34541 5.02958 10.5529 10.3195 277.25 275.867 36.695 3.37525 0.902011 0.149608 0.752404 33.3197 33.1433 1.54206 0.799182 4.605 2.47324 2.28224 0.206383 1.82769 3.00858
internal_count=227845 5355 159 222490 3422 219068 359 119 91 71 59 240 122 118 68 56 218709 216 510 2912 2832 1516 218493 1316 217989 205076 346 12913 6824 2665 486 42 444 2179 46 2133 2116 788 251 437 4159 4141 504 528 5196 5175 204825 204740 23389 1571 328 72 256 21818 21792 620 166 50 1243 1241 63 719 185
is_linear=0
shrinkage=0.05


Tree=7
num_leaves=64
num_cat=0
split_feature=10 20 14 12 21 21 5 13 20 4 12 2 3 19 14 3 3 7 12 8 26 13 15 27 9 7 23 30 11 13 18 2 5 23 30 25 4 13 12 12 22 22 19 30 13 15 4 13 0 24 25 14 12 16 6 0 25 10 18 6 10 9 6
split_gain=11.807 54.6993 45.343 33.7176 33.0541 24.1932 128.142 12.5122 39.8385 64.8248 11.2883 8.31909 8.08544 7.83473 7.74831 6.45127 5.73742 10.8546 10.241 8.63366 7.2769 5.75294 5.30303 5.13561 16.1262 4.85141 4.78449 14.989 4.36005 6.67967 21.7165 11.5903 35.1099 4.83392 4.50727 10.9162 27.0069 7.56877 9.82242 15.204 18.9235 13.2935 24.4869 6.92632 6.71263 4.50289 4.22195 4.24489 4.03231 4.01375 3.8336 3.79244 3.70056 3.05058 4.1047 7.44619 14.0768 3.6175 3.04655 2.99272 2.76236 3.6437 2.69251
threshold=2.7133912037960752 1.6961943666808452 -1.3205285789096448 -0.14123525242311347 -1.7619111028430299 0.30518798315245454 -0.44768033431212695 -3.0453933014254244 0.37960287885311056 -2.4781533991247193 -1.6231701814863049 -2.4358397560473946 -0.41141509429165196 -0.23002217264793698 0.48897362453565357 4.7792095347160162 0.73924927756614001 -0.34123233119682644 -1.4378570808927698 0.60601625582230512 0.49319589925140306 -0.71598979613543146 -0.60103388663114488 0.28126704438567707 -2.6720200886180092 -0.27442864145723894 -0.80982057675208641 0.68561574172142248 -2.1791336905185799 0.36038100808929557 -2.4452986082580996 0.49485702231162604 -0.23713033580498097 0.060418015384517458 2.3508988397858421 1.4087850042099002 0.41975332901447554 -0.81811979204110385 -0.30824314504852995 -0.36930595824346246 -0.050650388366508196 -0.17167270747478797 -0.16665287792588548 2.3218972837624299 -0.83634457439668541 1.8232794415630902 0.39761679324864502 -0.73241782140729395 -2.9942719440655896 -1.8490783987278898 0.078408404260633571 0.060672174491969856 -0.23035780062142447 -1.6084245419966599 3.0068363596861754 -0.76005321114433644 -0.47496868473060244 -1.5340110484532847 -1.0922952655774598 0.71064575380252559 2.0682197589250157 -2.2159581580060492 1.2789474960763954
decision_type=2 2 2 2 2 2 2 2 2 2 2 2 2 2 2 2 2 2 2 2 2 2 2 2 2 2 2 2 2 2 2 2 2 2 2 2 2 2 2 2 2 2 2 2 2 2 2 2 2 2 2 2 2 2 2 2 2 2 2 2 2 2 2
left_child=7 2 -2 -3 -4 10 -7 8 15 -10 -6 -8 -12 -14 -11 25 53 18 19 20 -18 46 -21 24 -15 60 27 -23 29 31 -31 33 -33 -19 35 37 -37 38 39 41 -41 42 -30 45 58 -40 50 -48 -13 -39 52 -17 -20 -9 -55 57 -57 -56 -44 -43 61 -1 -51
right_child=1 3 4 -5 5 6 11 16 9 14 12 48 13 23 -16 51 17 28 21 22 -22 26 -24 -25 -26 -27 -28 -29 34 30 -32 32 -34 -35 -36 36 -38 49 43 40 -42 59 44 -45 -46 -47 47 -49 -50 62 -52 -53 -54 54 55 56 -58 -59 -60 -61 -62 -63 -64
leaf_value=-0.1692631446926495 0.81615375706212778 0.92858434855511263 -1.829452898133658 0.081037265012145615 -0.4555232707340503 -1.2929647438910576 0.097488513120375681 -0.12579032051207314 0.71088817644453239 0.055865022132437249 -0.18371156024348853 -0.23994057883911829 0.095335290117427515 0.21982569593350357 -0.21806725868708388 0.17006537221864032 -0.051300406542078507 -0.14437938280690416 -0.052403153525469627 0.40397546500344794 0.17251470026643245 0.47220061601394953 0.11143602761827223 -0.099038778728170129 -0.069359498439713008 -0.1454225315091637 -0.042227443434425277 -0.050096864550203249 1.7918843290298481 1.0562061682525545 -0.050388320860729335 -1.4360560438378265 -0.16928446201413602 0.046884424268635531 -0.045468439129272037 -0.050085517850600017 1.91035258037982 0.18315795328746554 -0.069971530539510648 -0.050185920156476806 1.0915573655638249 -0.039809316546794843 0.28081603603346922 0.3326141454121303 0.67583862846225018 0.17303699091446928 -0.048853276829192306 0.20187211829465387 -0.11940575827876812 -0.042572713424512604 -0.029423978936083534 -0.057153991885691313 0.13918847637660922 -0.047373774483555287 0.16906449587244465 1.0636955296387158 0.11296454519454047 -0.05024590481277727 -0.050082850250976953 0.16802066803943094 0.0023250743490396187 -0.065654751460058156 0.10747461357252193
leaf_weight=1.2645244075683875 0.13144490114300467 0.20044537114733929 0.028115850587625668 0.28305288713602328 0.19294855951208489 0.26134600186424739 0.32700384069176003 1.2269353866577137 0.38857789535099518 0.77960839943512839 1.3545012660761084 1.1736115358071408 0.81290999452711687 0.58274972345679321 0.38593244149581096 0.28190419501105446 0.86601812532171896 1.4353449663904023 0.29570200922899004 0.32477437646593899 0.62545468891039491 0.19019587594084519 0.29620225226972241 5.0630987494531112 2.7907057475856742 8.6964057575085913 8.8096292654517985 0.49452662735711783 0.027144850348122418 0.045195922255516385 2.3293178989551961 0.067747600667644292 0.28397156362188969 0.42911121548968356 45.357104033464566 0.056449509458615377 0.025504641933366656 0.2060919945361136 1.9155627515865541 0.062059357878752053 0.087404666584916746 0.88647003681398906 0.14645002689212561 0.12821908388286818 0.068565544323064276 0.21169574907980848 1.608328186906874 0.1886114990338682 1.6973556558508294 13.200989756925985 0.64312509179580946 0.52683531069716394 1.7065323109272876 215.42444956686137 0.21850395353976626 0.044868477270938456 0.29437165043782343 1.3482790858251972 0.13248803338501602 0.21528275229502469 0.80116070806980122 2.5798008564912513 0.3059077661600903
leaf_count=14 33 15 9 57 20 61 28 265 12 42 66 43 35 31 33 11 344 89 85 33 34 30 27 71 346 570 5237 360 19 33 1722 8 94 35 33800 39 19 23 1100 27 18 544 2 9 5 19 832 13 72 10441 192 36 230 168814 43 14 69 822 99 23 96 432 100
internal_value=-0.0472084 -0.0907107 -0.108256 0.432407 -0.116762 -0.113385 -0.228456 -0.0451698 -0.088683 0.151616 -0.0765156 -0.141462 -0.0696193 -0.0529115 -0.0348391 -0.115074 -0.0429087 -0.0317748 0.0051918 0.107781 0.0425573 -0.0103581 0.264436 -0.0671959 -0.019404 -0.123386 -0.032332 0.0949821 -0.040548 -0.0875928 -0.0293257 -0.150023 -0.413288 -0.100359 -0.0371218 -0.0157043 0.560015 -0.018386 0.0432553 0.136939 0.617491 0.0882904 0.345577 -0.024277 0.2326 -0.0457884 0.0366058 -0.0225365 -0.168679 -0.035833 0.07678 0.0220484 0.110893 -0.0471713 -0.0467274 0.0263248 0.23871 -0.0196608 0.123648 0.000800711 -0.0821337 -0.0997349 -0.0391744
internal_weight=332.835 14.8993 14.4158 0.483498 14.2843 14.2562 3.45932 317.935 15.7047 1.55412 10.7969 3.19797 10.604 9.24946 1.16554 14.1506 302.231 83.6732 16.0491 2.11245 1.49147 13.9367 0.620977 8.43655 3.37346 13.3419 9.49435 0.684723 67.6241 4.59069 2.37451 2.21618 0.351719 1.86446 63.0334 17.6763 0.0819542 17.5943 3.88134 1.62587 0.149464 1.4764 0.374648 2.25548 0.347504 2.12726 4.4423 1.79694 2.87097 13.713 2.64536 0.80874 2.00223 218.557 217.33 1.90602 0.33924 1.56678 0.278938 1.10175 4.64549 3.84433 13.5069
internal_count=227845 887 815 72 782 773 204 226958 1246 87 569 143 549 483 75 1159 225712 55685 7417 438 378 6979 60 448 377 1112 5627 390 48268 1981 1755 226 102 124 46287 12487 58 12429 1865 737 45 692 125 1128 106 1119 1352 845 115 10564 507 47 315 170027 169762 948 83 865 101 567 542 446 10541
is_linear=0
shrinkage=0.05


Tree=8
num_leaves=64
num_cat=0
split_feature=30 1 15 12 13 20 12 25 5 4 10 25 17 19 4 9 25 1 7 17 17 28 7 0 4 17 4 3 21 4 30 3 13 18 1 2 3 0 14 0 26 20 18 28 10 6 25 13 16 21 12 3 12 26 26 24 3 3 14 15 17 24 30
split_gain=10.1058 67.8955 29.5867 188.9 12.9071 29.1817 22.587 17.7126 59.7024 41.1006 16.3011 12.6382 132.009 16.5521 11.7023 9.44412 7.36769 23.2734 12.8829 6.63003 10.2246 6.45148 5.87653 5.16705 4.60939 4.51802 4.47707 4.42367 4.2678 4.91641 4.21154 3.99222 3.89867 3.81427 9.50577 27.6908 5.58885 5.40516 4.31337 7.59571 17.2659 3.62414 3.5585 3.56047 10.2066 3.45482 3.05302 14.4091 3.26916 3.50239 3.03999 3.01448 2.79044 2.78785 5.44925 4.67745 3.06384 4.76216 4.87018 7.05717 5.28497 2.7742 8.5499
threshold=5.6094901098678438 3.1068168775405454 -2.8508117238719146 -0.8057649623961759 -3.0453933014254244 1.6961943666808452 -0.14123525242311347 0.26238963991096959 -1.8739556196020049 1.5012945483941302 2.7133912037960752 -0.21842768077960598 -2.0860825167088692 -0.24980495634457447 -2.1441216165061747 -2.6720200886180092 -0.1363327105194965 1.6838781764030453 -0.30247329037317744 -0.34388307723388845 -0.33607851172333641 2.5000000000000004 -0.31488462734931244 -2.4490520359851646 -2.1441216165061747 1.1006102201810752 -0.73123207536037882 -0.28902841255134043 1.7845771284173251 1.8569905345370552 4.5358736955496157 3.9069140187532905 -0.81811979204110385 -1.7082961340423199 1.3893183850833553 0.33826135600061158 3.7345045245073805 1.8288194129578803 1.4927622118160853 1.2418672876310104 0.044370771928612253 0.53175667015934758 2.1348358334397353 22.500000000000004 1.2730702717212201 -0.19449633159105048 1.2041609804448552 -0.89753758638189096 0.70494563827579804 -1.0010318736801247 -0.18651696170687496 1.3493621578373551 1.2844553407223354 0.022301848976332153 0.020133130681667406 -0.19239122985406898 0.38097449056649108 0.41103773032525354 0.27196317612387305 0.40515957862168356 0.2507688448391196 -1.8490783987278898 0.68561574172142248
decision_type=2 2 2 2 2 2 2 2 2 2 2 2 2 2 2 2 2 2 2 2 2 2 2 2 2 2 2 2 2 2 2 2 2 2 2 2 2 2 2 2 2 2 2 2 2 2 2 2 2 2 2 2 2 2 2 2 2 2 2 2 2 2 2
left_child=4 2 3 -2 5 7 -7 11 9 -9 28 21 -13 -14 -12 -10 17 18 19 -4 -21 -1 24 -16 -22 27 -15 -26 32 -30 -23 -17 33 34 -6 -36 38 -38 46 41 -41 -40 43 -20 -45 -32 48 -48 -35 51 -31 -50 -28 54 56 -56 -51 -58 -59 60 -60 62 -34
right_child=1 -3 16 -5 10 6 -8 8 15 -11 14 12 13 26 23 31 -18 -19 42 20 22 30 -24 -25 25 -27 52 -29 29 50 45 -33 61 36 35 -37 37 -39 39 40 -42 -43 -44 44 -46 -47 47 -49 49 53 -52 -53 -54 -55 55 -57 57 58 59 -61 -62 -63 -64
leaf_value=0.10890636337404991 5.4576626234344081 1.7078725771787546 -0.050478393821116456 -0.049707734915107396 -0.13116359415435666 0.50240392534353784 -0.019600712654197563 1.3161042914074987 -0.3639446343659537 0.055165555561788621 -0.53583918568150846 -1.1368207514903093 0.18298059096749528 0.056606990806929894 -0.16996614031746027 -0.10756724606075115 -0.051040855183820413 1.2090236873955647 -0.055655735425805153 0.6924846787282477 -0.050197831070009385 -0.094437097703386041 0.29109070733027104 -0.075627062179465784 -0.050122872322677009 -0.052128975572969527 -0.13355483230691939 0.12811799796470538 -0.050153725605810523 0.17601137262765476 0.065551857525490684 0.08032057895527589 0.24725769819203713 -0.049527154479062453 -0.05016724041664064 1.6680175095102545 -0.050513507872741115 0.13449077046908928 -0.050602579786856332 -0.05014425431226447 1.356466034912996 0.11356379814060147 0.14977580288570544 -0.050206589557571304 0.63567426257023574 -0.10157597869344699 -0.015040537555617071 0.849026330385518 -0.05014488487184119 -0.050251234521299176 -0.050491193390754766 0.17746557831458967 -0.26219457102195226 -0.049382570444988491 0.28193608831431977 -0.050085308236184248 0.16836165108535892 -0.048867828483936941 -0.050112185483237939 -0.046921003919457291 0.21897850421798976 -0.047901233935966479 -0.050435161149890398
leaf_weight=0.44510998910882804 0.018180831918343646 0.056874161586164429 1.237070203060284 0.10841475491101558 1.7933764551999036 0.36158592442225068 0.4854377414827471 0.14526323634647967 0.22700534760951985 0.11641648727952289 0.16998649388551701 0.33022269154002959 0.43807284248759959 0.29558851014288468 2.4961816179566085 0.54772150019975452 13.724675823090967 0.03971058514434922 7.7288955779216248 0.067057941574603208 0.82341256912331973 11.442269419604598 0.28412212652619917 3.467899036128073 0.40089184750104356 0.54123860178515304 6.2533956086606528 2.6435926349950023 0.82734515331685432 0.62741850630845875 0.79452494462052659 0.58434424270931806 0.32534990680869558 20.349011536085982 0.12083577847806726 0.029096067592035979 0.64707022707443584 1.0127051981398834 0.74559488333761581 0.056525111431255826 0.035528922686353326 0.61223654681816697 0.23108520731329996 0.21370583167299617 0.072689744411036372 0.50624513346542599 0.36474258080124855 0.055603591492398574 0.22654388635419387 3.5668213134631443 0.19392489187885076 0.40647196071222425 0.45203603271511372 6.3259166388306776 0.2930804785573855 0.16624611336737949 0.43646324519067992 2.5850554726785049 0.24453704291954614 0.85100838332436979 0.71887097624130547 218.9993877889662 0.93244682403746992
leaf_count=64 18 32 717 93 383 19 58 36 27 13 6 44 23 24 41 70 8461 30 5479 6 485 935 41 266 282 164 285 504 579 73 18 25 20 15237 82 17 353 59 492 37 11 36 26 135 14 51 139 29 150 2553 68 34 10 4519 20 124 80 1780 168 491 96 181156 557
internal_value=-0.0465362 -0.0179437 -0.0214324 0.741225 -0.0492863 -0.0848868 0.203238 -0.0956958 0.0635535 0.755136 -0.046194 -0.108011 -0.158599 -0.115176 -0.126771 -0.0696059 -0.0248796 0.00025827 -0.00311168 0.0526474 0.0794469 -0.0782095 0.0706877 -0.115111 0.056485 0.0809833 -0.133832 0.104648 -0.0443186 0.0358751 -0.0847454 -0.0105842 -0.0448234 -0.0307936 -0.0991891 0.283267 -0.0274456 0.0623661 -0.0313643 0.0532168 0.492747 0.0234189 -0.0436639 -0.0492409 0.123876 0.000507577 -0.0347158 0.0992586 -0.0362728 -0.019225 0.122533 0.0960083 -0.142227 -0.0240277 -0.00592899 0.161766 -0.0150958 0.0108336 -0.00479449 0.0579982 0.150677 -0.047476 0.026568
internal_weight=321.3 28.1916 28.1347 0.126596 293.109 23.4252 0.847024 22.5782 1.62075 0.26168 269.683 20.9575 7.76932 7.43909 6.13407 1.35907 28.0081 14.2835 14.2438 5.99739 4.76032 13.1881 4.69326 5.96408 4.40914 3.58572 7.00102 3.04448 263.549 1.64869 12.743 1.13207 261.901 41.6433 1.94331 0.149932 39.7 1.65978 38.0403 1.44989 0.092054 1.35783 8.24638 8.01529 0.286396 1.30077 36.5904 0.420346 36.17 15.821 0.821343 0.633016 6.70543 15.188 8.86208 0.459327 8.40276 4.83594 4.39947 1.81442 0.963408 220.257 1.2578
internal_count=227845 16487 16455 111 211358 1702 77 1625 171 49 209656 1454 386 342 313 122 16344 7883 7853 2199 1482 1068 1476 307 1435 950 319 786 209343 720 1004 95 208623 26890 482 99 26408 412 25996 576 48 528 5654 5628 149 69 25420 168 25252 10015 141 184 295 9831 5312 144 5168 2615 2535 755 264 181733 577
is_linear=0
shrinkage=0.05


Tree=9
num_leaves=64
num_cat=0
split_feature=30 10 15 13 20 12 25 5 10 24 15 21 17 19 25 10 19 25 7 14 1 8 17 19 20 10 12 13 25 11 4 9 6 4 15 18 18 13 23 12 14 3 14 15 17 14 2 15 18 28 14 15 18 10 15 28 28 12 4 28 30 11 2
split_gain=8.25264 35.9688 227.187 10.2078 26.9942 25.0008 15.66 38.0045 13.4153 12.144 89.1563 10.233 39.2996 10.2281 9.09121 7.36555 7.92712 6.55941 7.76149 17.5267 104.044 6.50912 6.4727 6.32534 5.73485 5.40796 4.49527 4.23023 4.69854 7.7803 4.41576 7.00929 3.94842 3.81879 3.69651 4.37079 3.9353 3.85016 3.70098 3.68906 7.67342 7.03951 8.76657 5.84085 5.45848 5.97534 5.59309 4.99349 4.51018 3.38133 6.19334 5.17511 3.12122 2.79682 5.04863 2.75475 2.75193 5.47707 2.66882 2.55308 2.60229 2.32375 2.10752
threshold=5.6094901098678438 2.3965856763346403 -0.89041957065445743 -3.0453933014254244 1.6961943666808452 -0.14123525242311347 0.26238963991096959 -1.8739556196020049 2.7133912037960752 0.98627870922746108 -1.9380935372651198 0.51507921954197311 -1.8621297518147297 -0.98185489821730987 0.72056070810691353 2.2121662168510805 -0.12777739837425897 0.078408404260633571 -0.30247329037317744 1.7730957758610904 -0.092081483411645682 -1.0515593119890247 -0.34388307723388845 -0.66570418588633584 0.49346601585836958 1.0459056867594703 0.73639939784098662 -0.81811979204110385 1.2041609804448552 1.0224763047063252 4.4468198862514514 1.7542151347057453 0.23944349424296704 -1.5662555230221347 -0.89041957065445743 -1.5191977155774696 0.6801968741906721 -0.81811979204110385 0.65671692876959509 -0.22160195477178049 0.14882083546603353 0.73924927756614001 0.15697602363167654 0.62935373357269919 1.1006102201810752 -0.82910232961822239 -1.0579856710654698 0.61954456738345165 -1.7082961340423199 19.500000000000004 0.31763485622387405 1.3494875110061753 1.7793639365798752 1.3279680183582852 1.5606143961454202 16.500000000000004 22.500000000000004 -1.4948375032781047 -0.78284887831198835 9.5000000000000018 4.6116988267170083 -3.1728836358247294 -3.0411871734212297
decision_type=2 2 2 2 2 2 2 2 2 2 2 2 2 2 2 2 2 2 2 2 2 2 2 2 2 2 2 2 2 2 2 2 2 2 2 2 2 2 2 2 2 2 2 2 2 2 2 2 2 2 2 2 2 2 2 2 2 2 2 2 2 2 2
left_child=3 17 -3 4 6 -6 9 -8 27 11 -11 13 -13 -1 32 33 -17 18 21 52 -21 -2 -23 -10 -14 26 34 28 39 62 -29 -32 -9 -15 35 -24 -37 -36 -39 40 53 49 -43 47 48 46 -46 55 -41 -42 51 -51 56 -5 -55 -44 -20 -58 -7 -18 -61 -50 -30
right_child=1 2 -4 8 5 58 7 14 23 10 -12 12 24 15 -16 16 59 -19 19 20 -22 22 25 -25 -26 -27 -28 30 29 -31 31 -33 -34 -35 37 36 -38 38 -40 44 41 42 43 -45 45 -47 -48 -49 61 50 -52 -53 -54 54 -56 -57 57 -59 -60 60 -62 -63 -64
leaf_value=0.29918548123776617 -0.065219877595814366 3.2911321290023245 -0.051641066331723634 -0.052784829587890103 0.55465629828190233 0.095538426159165898 0.51249494105531335 0.21732645425396035 -0.22066529953635095 -1.4068010503215289 -0.10269807905713302 -0.8290596947527975 -0.057603944034513847 0.083124214113863129 -0.30393380582251661 0.096070288707473792 -0.086991122412545183 -0.06139638448307401 -0.055813453039396312 -0.050196944193143571 3.0061436123139069 -0.052255711784935224 0.53915910230239017 -0.093529888495033478 -0.27169666544465648 -0.052241869643581677 -0.04458824523074445 -0.047553690440545394 0.12769059869783381 0.55063663586085032 -0.050961402284594608 0.15827209830389236 -0.039784924182769715 -0.11894907298852982 0.13218645594699618 -0.05012380245115218 0.21450349037461316 -0.050232268468244724 0.11940141953966542 -0.15221850840991225 -0.050221029901566676 0.62243898688906274 0.12777181252951095 -0.042314103067267482 0.13940143018854992 -0.048433651644515643 -0.05006260880095556 0.46708160492991979 -0.13682580480095705 0.12311537126697081 -0.050091697326953934 0.58406432807094777 0.089015484830423361 -0.050255665351482105 0.16488221288551624 -0.014857913167025373 0.3588967166046273 -0.050115099278733234 -0.13867068973409172 -0.058545923171825179 0.05582459360513925 -0.044754629226987815 -0.050289093608109459
leaf_weight=0.17515193258538886 1.5741884130984543 0.059831074735840539 0.33781861577300093 7.8493344470625726 0.31219250553333422 0.24966438114643097 0.35884900431847189 0.18013452953891718 1.2154005554039029 0.14767318265512575 1.1649382620817039 0.22207775481095815 1.1124986345172105 0.23969697922772759 0.30980965618867617 0.83981479229433631 4.8420957977779313 9.5738232600799886 10.539209427795114 0.18700847832951695 0.032717004767619851 1.2984243759419767 0.084381961729377508 5.0159775826614341 0.43513882333397891 0.75018593785084142 0.52862834115512658 209.79110035688865 0.32920936308801174 0.083193116122856736 0.98131334595382103 0.67600435204803944 0.87292090195114724 9.5065239723557298 1.7551824533147731 0.17471360613053821 0.71723653236404061 0.78362656075323911 0.54527726338710636 1.0955519626149932 2.4695576176745813 0.073921233764849936 1.6246214477578189 0.82015283487271506 1.2080258662463164 1.9438031919999037 0.57490597822470624 0.0959543011849745 0.71055488107959419 0.27349984284955997 0.48272493481636047 0.078330384916625917 0.41258171934168864 0.72871167096309342 0.43576886993832886 0.42764530552085478 0.12099008914083242 0.25301177834626365 0.23718793100631475 1.6151438287917121 0.71865505762691961 19.283881746590623 0.33618399663828213
leaf_count=16 789 35 64 6010 19 47 49 40 15 20 102 36 85 2 17 57 102 6130 6939 136 10 717 13 298 19 187 310 181753 2 32 575 76 65 763 165 122 37 469 108 227 1872 4 297 459 81 1391 485 15 23 85 379 4 71 410 23 216 11 174 11 237 15 14779 145
internal_value=-0.0460823 -0.0210255 0.451318 -0.0487224 -0.0802444 0.205397 -0.0902809 0.0546929 -0.045853 -0.102156 -0.249414 -0.0923473 -0.207054 -0.0810301 -0.0658486 -0.0847795 -0.0492757 -0.0274292 -0.0109697 -0.0373994 0.404891 0.0261893 0.0478679 -0.118327 -0.117799 0.0722165 0.0925621 -0.0440636 -0.0293494 0.0947649 -0.0469115 0.034383 0.00419627 -0.113979 0.110418 0.195208 0.162669 0.0835758 0.019372 -0.031662 -0.0124039 0.029713 0.0845917 0.0711977 -0.0435817 0.012202 0.0783088 0.114534 -0.053439 -0.0208172 0.0661928 0.22574 -0.04598 -0.0420573 0.0302527 0.0980511 -0.0510836 0.0822008 -0.0185651 -0.0662859 -0.0233274 -0.0480266 0.037768
internal_weight=311.874 29.7288 0.39765 282.145 23.5402 0.799045 22.7411 1.72171 258.605 21.0194 1.31261 19.7068 1.76972 17.9371 1.36287 17.7619 8.01571 29.3312 19.7574 11.5455 0.219725 8.21185 6.63766 6.23138 1.54764 5.33923 4.58905 252.374 40.9255 0.748586 211.448 1.65732 1.05306 9.74622 4.06042 0.976332 0.89195 3.08409 1.3289 40.1769 15.3602 6.34641 3.0423 2.96837 24.8167 3.72674 1.78293 2.14822 21.09 3.30411 0.834555 0.35183 11.3258 9.01381 1.16448 2.05227 10.9132 0.374002 0.486852 7.17589 2.3338 19.9944 0.665393
internal_count=227845 16487 99 211358 1702 77 1625 171 209656 1454 122 1332 140 1192 122 1176 411 16388 10258 7341 146 2917 2128 313 104 1411 1224 209343 26939 179 182404 651 105 765 914 172 159 742 577 26760 9774 3331 991 987 16986 1957 566 528 15029 2340 468 89 7195 6443 433 513 7124 185 58 354 252 14802 147
is_linear=0
shrinkage=0.05


Tree=10
num_leaves=64
num_cat=0
split_feature=30 7 11 13 20 12 25 5 24 17 10 25 19 21 5 25 1 13 4 16 12 29 17 8 27 2 28 13 4 9 25 13 4 18 2 24 26 9 12 14 3 2 17 14 2 4 18 30 28 20 28 28 10 15 11 12 11 20 5 3 28 23 23
split_gain=7.40308 23.9078 7113.02 8.44482 25.6087 31.8603 14.2663 38.3273 14.2152 76.1483 11.4688 10.7204 9.12359 9.14135 31.2498 6.44226 6.74301 14.5975 7.82914 5.67624 5.32139 4.94157 4.84093 4.80214 4.77893 4.35575 4.73379 4.31283 4.20396 5.8247 4.11983 7.51466 4.00601 5.07736 10.6745 4.40989 3.90993 3.82311 3.48337 7.06806 5.95126 5.40747 5.18268 5.3326 4.62613 4.02428 3.88694 3.38221 3.04086 4.56801 3.01535 3.0962 2.66803 4.20652 2.6175 3.32892 2.36346 2.33479 2.31777 2.30397 2.25814 2.15077 2.08587
threshold=5.6094901098678438 1.4148140385803003 -2.6663561528241595 -3.0453933014254244 1.6961943666808452 -0.14123525242311347 0.26238963991096959 -1.8739556196020049 0.98627870922746108 -0.53955227347839141 2.7133912037960752 0.84749996781789505 -0.66570418588633584 0.80736255066392404 -0.89210400999697892 0.078408404260633571 -1.6829082751904147 -3.6128426166552843 -0.28984831874341849 2.1818794868491853 -1.3333796274007548 1.0000000180025095e-35 -0.037488935937605695 0.8762788904526192 0.28126704438567707 0.31383751321301051 16.500000000000004 -0.81811979204110385 4.4468198862514514 1.7542151347057453 1.2041609804448552 -0.83634457439668541 -2.4781533991247193 0.54407650538610064 -2.3065168926116093 -1.2459578195959298 -0.021497396974977497 1.8537032454742453 -0.22160195477178049 0.14882083546603353 0.73924927756614001 -0.54076027264008342 1.1006102201810752 -0.82910232961822239 -1.0579856710654698 0.18065143815883702 -1.7082961340423199 0.56814667781789929 19.500000000000004 0.12907322236815352 16.500000000000004 11.500000000000002 1.3279680183582852 1.5606143961454202 -3.5088629577726498 -0.12398463652869698 -1.1511337589543398 0.67630331959908763 0.47887944002259303 4.7792095347160162 13.500000000000002 0.40922906882314952 -0.024518993378148748
decision_type=2 2 2 2 2 2 2 2 2 2 2 2 2 2 2 2 2 2 2 2 2 2 2 2 2 2 2 2 2 2 2 2 2 2 2 2 2 2 2 2 2 2 2 2 2 2 2 2 2 2 2 2 2 2 2 2 2 2 2 2 2 2 2
left_child=3 15 -3 4 6 -6 8 -8 12 -10 27 47 21 32 -15 16 20 -18 19 37 23 -1 -20 -2 -12 36 -27 30 -29 -30 38 -32 62 35 -35 -34 59 -19 39 52 48 -42 46 44 -44 -43 -40 -9 -41 -50 51 -47 -5 -54 55 -37 -7 -25 -38 -24 -53 -51 -14
right_child=1 2 -4 10 5 56 7 11 9 -11 24 -13 13 14 -16 -17 17 18 22 -21 -22 -23 25 57 -26 26 -28 28 29 -31 31 -33 33 34 -36 54 58 -39 42 40 41 45 43 -45 -46 50 -48 -49 49 61 -52 60 53 -55 -56 -57 -58 -59 -60 -61 -62 -63 -64
leaf_value=-0.010799451101746694 -0.050619658851214104 118.94850911257703 -0.051611604684100136 -0.052780533092261162 0.68300609015583702 0.091391965372857514 0.54396395760320304 0.12832439095030876 -1.2590121055229819 -0.10439104547362965 -0.099736718364068791 -0.37853523261979521 -0.011093546662571566 -1.1327970599570083 -0.056665585079421502 -0.061255757833308305 0.39437027615600428 -0.049589622448818871 -0.052974427300419638 0.13892970487445985 -0.056513262987353464 0.34408392253099734 -0.051190009976611411 -0.050150193404535519 -0.26256567886202636 -0.050662660482999236 0.29670726287849236 -0.04741144271772401 -0.050917796135958454 0.13678703294129888 0.029914194496699211 0.52157317159231242 0.069289793269811384 -0.50585696050477025 -0.11477988206219279 0.161576078250977 0.13184104389246079 0.15859650094573086 -0.14429844056036614 -0.050211069838062165 -0.021609346887839838 -0.050144114877648721 0.12338710200567785 -0.04822516402748956 -0.050059537489475281 0.080810974673758362 -0.047564789674619572 -0.057061146650475604 -0.050086741854785892 -0.050066242111744354 -0.032870628291143511 0.26521167185093658 -0.050243281872495507 0.14261854602377466 -0.10300634048932407 -0.10535006686732556 -0.12767581335394737 0.17522044693354061 -0.051227986313092944 0.11631714579854172 0.10331216800575381 0.23385841592902157 -0.077308483158542607
leaf_weight=0.21651449020253166 0.65953805751633321 0.0012605194933712474 0.33109491830691595 7.467114932369439 0.24224146696120419 0.24798129498958588 0.32197204930707801 0.35378846286864574 0.16599362160195585 1.0218830827798218 5.7326604865957043 0.22377969716035284 2.0961135292018298 0.09264026560754246 0.24821290724727063 9.2709480327081959 0.24973241984844108 5.5473743470603472 0.7555229776771738 0.4725268855690955 8.2505233089905232 0.1793440580368062 0.84628949977923207 0.14095476153306663 0.4890599704813211 0.1278193836333229 0.42148088430985808 200.14331899843074 0.93423346616327652 0.74119717441499233 0.70400355826131999 0.087362273829056813 0.40346706670063071 0.23490578605132661 0.67840256558168377 0.21590262702108282 1.4709964182249309 0.22965214087162156 1.0978560427320214 2.3495700992643829 0.98987594549544189 0.30399663851130787 1.2941365375299936 1.8567978864302848 0.54690001864219118 0.64118912804406125 19.196936924023252 0.80776497959551408 0.46074035670608271 0.083116642199456692 0.21057652169838537 0.76818083168473072 0.69333825027570106 0.47740435367450118 12.343725429309599 0.2544806913618291 0.24452643600910884 0.62217616301495582 0.19592239207122464 0.27102209208533168 0.29928967205341905 0.33770704502239823 2.7494497285915918
leaf_count=50 283 12 136 6010 19 48 49 14 28 94 300 10 20 26 37 6120 19 3310 479 8 5202 2 450 99 13 79 29 181753 575 76 163 16 8 16 49 27 121 30 227 1872 477 212 81 1391 485 87 14802 98 374 68 133 41 410 23 1054 19 10 22 86 2 41 26 24
internal_value=-0.0456139 -0.0219865 0.399718 -0.0482153 -0.0769658 0.213537 -0.0864068 0.0525626 -0.0977586 -0.265738 -0.0455081 -0.0616464 -0.0876365 -0.0925058 -0.349147 -0.0267324 -0.0109357 0.016634 0.00750963 -0.0276855 -0.0411137 0.149981 0.0613006 0.0481936 -0.112536 0.0872003 0.215876 -0.0437826 -0.0467512 0.0321213 -0.0287545 0.0841905 -0.0878961 -0.101349 -0.215366 -0.0934703 0.0618138 -0.0413137 -0.0310419 -0.0122128 0.0274156 0.0755997 -0.0428781 0.0115629 0.0718629 0.118881 -0.0527976 -0.000596018 -0.0204996 0.0586881 0.145654 0.167655 -0.0417774 0.0284017 -0.098595 0.0171672 -0.0173736 0.133593 0.110324 -0.0105584 0.219819 0.177781 -0.048665
internal_weight=301.114 29.8648 0.332355 271.25 23.3431 0.734749 22.6083 1.70731 20.901 1.18788 247.907 1.38533 19.7132 19.3173 0.340853 29.5325 20.2615 10.5883 10.3386 6.24955 9.67319 0.395859 4.08905 1.42267 6.22172 3.33353 0.5493 241.685 201.819 1.67543 39.8661 0.791366 18.9764 14.1309 0.913308 13.2176 2.78423 5.77703 39.0747 15.0821 6.44424 3.21311 23.9926 3.69783 1.84104 2.22323 20.2948 1.16155 3.23113 0.881564 1.91924 1.70866 8.63786 1.17074 12.8141 0.470383 0.492508 0.763131 1.66692 1.11731 1.06747 0.420824 4.84556
internal_count=227845 16487 148 211358 1702 77 1625 171 1454 122 209656 122 1332 1280 63 16339 10219 4613 4594 3348 5606 52 1246 404 313 767 108 209343 182404 651 26939 179 1217 1173 65 1108 659 3340 26760 9774 3331 991 16986 1957 566 514 15029 112 2340 468 302 169 6443 433 1100 46 58 121 207 452 82 94 44
is_linear=0
shrinkage=0.05


Tree=11
num_leaves=64
num_cat=0
split_feature=10 20 12 24 15 21 16 8 13 4 3 7 12 2 1 1 10 2 15 14 23 30 8 4 30 4 6 7 18 23 9 13 12 25 11 16 18 24 14 15 6 9 3 23 1 18 7 14 23 24 24 30 30 5 17 18 21 30 3 1 10 18 16
split_gain=8.61257 45.949 45.4769 14.6735 58.5869 14.1912 63.4452 119.052 5.933 23.2384 6.22316 9.64977 8.36763 6.17494 5.33707 13.3989 5.34818 19.1019 24.2009 5.14369 5.03052 4.66844 4.54454 4.23594 6.2558 13.4255 33.3543 4.88553 23.5854 8.11659 30.2635 5.13935 6.08899 40.1404 4.42469 10.6262 12.9084 4.01943 5.27869 4.87624 3.80787 3.80281 3.47207 5.07388 3.46439 3.43688 3.35956 3.29726 56.0827 3.20456 3.08818 2.83817 2.65211 2.57124 2.54974 2.52464 2.47925 4.19588 2.29815 2.20143 2.80026 2.10194 2.09398
threshold=2.7133912037960752 1.6961943666808452 -0.14123525242311347 0.93322985018102467 -1.6442334625441648 0.36416245144194154 -1.6084245419966599 -0.94092892769558045 -3.0453933014254244 -2.2777144891368244 0.73924927756614001 -0.34123233119682644 -0.077965189667944287 -1.1407138716126348 1.2036199696403302 1.1720006378208951 0.49971674509425856 1.9745751657027502 -1.0724365491942347 -0.91908558239140536 0.78286071541768865 5.3375140406619144 0.46109242811409157 -0.0099861879251240977 2.3508988397858421 -1.0000000180025095e-35 -0.11131931078409397 0.16551539506923454 -2.4452986082580996 0.81984875442413851 1.4341970888886151 0.14468032078745652 1.5598776979947253 -0.39829458652009897 -2.0108897407255646 1.4600953440682753 -1.3812640374969898 0.43962045989385407 1.4927622118160853 0.067453629604845119 0.22449477354265404 1.3107801422189704 -0.41141509429165196 0.45585317469097059 1.4181399225018552 -0.99400394073166842 -0.3550843761277494 -2.7065324474517145 -0.94816601191840044 -1.2459578195959298 -1.8490783987278898 5.7863604244731679 4.6116988267170083 -1.2815949072102748 1.3106036619396153 -0.0066663308561663486 1.7845771284173251 0.5276783899985763 0.46165784619780109 1.3636461668278752 0.29377270233820457 -1.7082961340423199 2.9853720311871155
decision_type=2 2 2 2 2 2 2 2 2 2 2 2 2 2 2 2 2 2 2 2 2 2 2 2 2 2 2 2 2 2 2 2 2 2 2 2 2 2 2 2 2 2 2 2 2 2 2 2 2 2 2 2 2 2 2 2 2 2 2 2 2 2 2
left_child=8 3 -3 5 -5 19 7 -7 9 -1 56 12 13 22 15 16 21 41 -19 -2 49 -15 -12 34 25 26 -25 28 -27 31 -31 32 37 -34 35 53 -37 39 61 -30 -41 -18 -21 52 59 -38 62 48 -26 -11 -29 -23 -44 -13 -49 -24 -10 -58 -59 60 -42 -39 -14
right_child=1 2 -4 4 -6 6 -8 -9 10 20 11 23 46 14 -16 -17 17 18 -20 42 -22 51 55 24 47 27 -28 50 29 30 -32 -33 33 -35 -36 36 45 38 -40 40 44 -43 43 -45 -46 -47 -48 54 -50 -51 -52 -53 -54 -55 -56 -57 57 58 -60 -61 -62 -63 -64
leaf_value=0.16990681362948898 0.09228789034184276 1.2164793671899796 0.075894751496380933 -0.99050333339716079 0.051893734448742269 -2.1444873980731951 -0.10362303454381108 -0.16528829907401282 -0.047245901579087819 0.005310739962980651 -0.053731592575383527 -0.12479986475548599 -0.050179775665328212 -0.050752617167671127 -0.015481880743165692 0.54695627592866669 -0.051273627354787556 2.2715393925773055 0.42959011786040935 -0.12854812275456942 0.1298551143754699 0.16290537804798985 -0.050961214200262075 2.3892794580721808 2.9279575020923088 1.2668656779098895 -0.050051715493779583 0.1230574796245294 -0.050081435832923377 -0.050051910095968981 1.9906983318275064 -0.050061250061671017 2.417522417774534 -0.050053286548905368 -0.045192381343565506 -1.1916196230157214 -0.3671664599658449 -0.23018174728990806 0.22150180146333415 -0.04194010477079263 -0.050111534033803723 0.14500127021092296 -0.068280448319813211 0.13064161989332884 -0.053699207853536435 -0.0501042487295046 0.070747662098999839 -0.05243452154029337 -0.050672375390569513 -0.097704797760246806 -0.056354141217888259 -0.050558597474327498 0.054352831092496945 -0.024548426724946906 0.024091919533387973 0.12267083299929493 0.26952435849379835 -0.050180044455849573 0.11833010502124248 0.26962325935747983 0.14818774071924781 -0.04377146429023919 0.088793484163920924
leaf_weight=0.9253447428345688 0.53875075758695246 0.12959556297248087 0.26836395626340281 0.21788060665130615 0.35348254232667464 0.11356800383822507 3.0828211800499039 0.22956443243725744 182.59386189268429 0.79817176121284106 2.1343981378013273 1.2019547949312259 6.1993786804378033 0.91992676432710208 1.1443589244736356 0.16624151659198094 0.31388205057010043 0.021536558750085533 0.10368924075737584 1.8299524401663774 0.25973121391143728 0.64820651861373335 0.29115729173645377 0.020497423887718469 0.016789258224889636 0.037965863943098976 0.04430178058100942 0.25633794069290194 0.73523027013396935 0.070338967256247886 0.024492710712365806 2.3150160331279039 0.020262820646166801 0.088300918170716503 28.630688846111298 0.040603951551020145 0.23634319193661213 0.17272487876471121 0.17903890623711038 0.41761783417314324 0.20450082715251516 1.1544172682333735 7.2768263338011536 0.36209190917345058 0.24493250844534475 0.13388977665454138 0.7060711979866009 15.276009802415503 0.26897576753981667 13.932342836516932 3.7291561168967746 0.20494797499850392 0.46930705531142169 1.3670086805941564 1.1719668044825073 0.74513098376337417 0.1516762810642821 0.86159945192048304 0.26443033874966204 0.30313111899886269 1.3754322658351155 1.2148546798271125 0.28344352170824993
leaf_count=38 19 15 57 21 35 69 78 31 169359 19 983 7 4272 609 592 25 214 16 35 67 21 54 152 20 10 24 43 9 643 68 7 2173 20 85 26204 4 6 5 22 278 159 67 434 26 111 112 226 12878 124 1168 2840 104 35 940 429 35 8 635 25 14 67 966 33
internal_value=-0.0456427 -0.0827019 0.447326 -0.0972747 -0.345608 -0.087069 -0.175408 -0.820352 -0.0436358 -0.0732658 -0.0418129 -0.0296573 0.00614757 0.0418459 0.0783628 0.108761 0.087123 0.153599 0.746372 -0.0581821 -0.0882768 0.0273793 -0.0120215 -0.0386608 -0.0245684 0.00390214 0.721563 -0.000180964 0.0238455 0.0174386 0.477024 0.0114445 0.0401745 0.410506 -0.0512273 -0.109213 -0.34532 0.0318806 -0.0340074 0.0633424 0.0961017 0.103043 -0.0663391 -0.0522991 0.123192 -0.252505 -0.0328232 -0.0440563 0.124328 -0.0921229 -0.0448148 0.111626 -0.0608506 -0.0714536 -0.0469818 0.0738869 -0.0467602 0.0226464 -0.0106081 0.146201 0.122521 -0.0669757 -0.0441036
internal_weight=289.495 14.8722 0.39796 14.4742 0.571363 13.9029 3.42595 0.343132 274.622 15.9156 258.707 74.8352 15.0368 7.84789 4.67721 3.53285 3.36661 1.59353 0.125226 10.4769 14.9902 1.77308 3.17069 59.7984 28.1879 11.4541 0.0647992 11.3893 7.40384 7.36587 0.0948317 7.27104 4.95603 0.108564 31.6105 2.9798 0.410837 4.84746 1.56662 3.28084 2.54561 1.4683 9.93818 8.10823 2.128 0.370233 7.18889 16.7337 0.285765 14.7305 3.98549 0.853154 7.74613 2.56896 16.448 1.03629 183.872 1.27771 1.12603 1.88306 1.57993 1.38758 6.48282
internal_count=227845 887 72 815 56 759 178 100 226958 1246 225712 55685 7417 2886 1716 1124 1099 332 51 581 1208 767 1170 48268 20995 7554 63 7491 4642 4618 75 4543 2370 105 27273 1069 122 2265 993 1272 629 281 562 495 351 118 4531 13441 134 1187 2849 158 469 947 13307 187 170027 668 660 240 226 971 4305
is_linear=0
shrinkage=0.05


Tree=12
num_leaves=64
num_cat=0
split_feature=10 14 24 20 19 21 2 27 22 26 3 7 4 13 13 12 26 26 13 2 4 30 26 27 11 0 28 11 24 12 16 16 25 9 1 18 4 13 18 10 6 10 13 11 16 15 5 23 13 22 30 5 24 25 28 5 30 14 21 20 9 8 3
split_gain=7.02753 34.5085 25.7666 107.128 171.918 16.491 48.142 161.737 7.95888 16.997 5.21257 10.074 9.07519 57.4705 8.47338 7.41219 5.74822 8.77371 5.47462 5.1971 4.05975 5.64043 4.79389 5.9877 8.84996 20.6895 5.45043 12.7133 4.18383 5.2338 14.4582 4.37384 3.78934 3.62582 14.5565 10.1923 30.3151 3.60495 3.55405 6.87816 3.726 5.80414 3.44137 3.39913 5.62514 3.75034 46.6906 3.18154 2.96216 3.3615 2.90062 2.76014 2.53373 2.52087 2.39828 6.91337 2.59131 2.38605 2.37931 3.20532 2.34237 3.66218 2.7766
threshold=2.7133912037960752 -1.3205285789096448 0.98627870922746108 1.6961943666808452 -0.033107833641649591 0.36416245144194154 -0.96686284175305992 0.29284386537908008 0.35986794024453206 1.0000000180025095e-35 0.73924927756614001 -0.34123233119682644 -2.2777144891368244 -3.6128426166552843 -3.0453933014254244 -1.1811134162654147 0.026503810002181102 0.060868456478057859 -3.6128426166552843 -0.44025917732620395 -0.0099861879251240977 2.3508988397858421 0.093703611336650366 0.0051160488035961009 -2.9598185610008545 -0.38398080795440942 8.5000000000000018 1.2345852454864001 -0.44415646607121945 1.5598776979947253 -0.8677665963608564 0.70494563827579804 -0.24405642418089046 -1.5311499966243598 3.5453115618020106 -0.24326419452353745 1.5432869037543002 -1.5327967519382397 -1.7082961340423199 -1.484045995076045 -1.5746707095340249 1.2897605853499654 -1.4745065420813896 -2.0108897407255646 1.4600953440682753 -2.1478889893463795 -0.29393195984538145 0.23077457884778504 -1.5993388335856149 -0.10043450340396148 0.5276783899985763 -2.0153067360904697 0.4769232658281341 -0.88217451140458947 2.5000000000000004 2.9130125376874907 6.0663400548492676 0.28079809348395607 1.7845771284173251 1.3379930416372952 1.8537032454742453 0.078830876080515311 0.7908429897169551
decision_type=2 2 2 2 2 2 2 2 2 2 2 2 2 2 2 2 2 2 2 2 2 2 2 2 2 2 2 2 2 2 2 2 2 2 2 2 2 2 2 2 2 2 2 2 2 2 2 2 2 2 2 2 2 2 2 2 2 2 2 2 2 2 2
left_child=10 -2 5 4 -4 8 7 -7 33 -10 18 15 13 -13 19 16 53 -18 -1 51 43 22 23 48 25 -25 -26 28 47 31 -31 -30 -33 34 35 36 -3 -15 39 -17 41 42 -40 44 -16 46 -45 -28 49 -22 -43 -14 -46 -12 55 56 -23 -19 -20 -60 62 -62 -42
right_child=1 2 3 -5 -6 6 -8 -9 9 -11 11 12 14 37 20 38 17 57 58 -21 21 54 -24 24 26 -27 27 -29 29 30 -32 32 -34 -35 -36 -37 -38 -39 40 -41 60 50 -44 45 52 -47 -48 -49 -50 -51 -52 -53 -54 -55 -56 -57 -58 -59 59 -61 61 -63 -64
leaf_value=-0.10947044118866114 0.49454551462620944 1.1818279426391916 -0.05064751721834182 0.084522618461873381 -3.9625545905025987 -0.11419887519684176 -0.10308542424649732 -2.3623790927405106 0.48209176682956978 -0.12061269573689214 0.13295071880230144 0.68795058624771555 -0.21306872285716053 0.082594484787575903 -0.068073484548930613 0.47125112007955522 0.43524270576718804 -0.023553691219396752 -0.047196221121770694 0.076840866960136756 0.14653854130519692 -0.050368142929308184 -0.060272048105018156 1.6171587015342308 -0.07686420266288338 0.020254031310133543 -0.050131094165529237 0.79264079703072965 -0.050258320567543327 1.0696659411545635 -0.050417034720941778 -0.050556367770663725 0.10755238652934568 -0.088905429015653278 -0.058734358136190393 -0.022015917480569608 0.11062199871023744 -0.07052824355542002 0.10442695295257937 0.03118491783697739 0.034366455553763803 0.45392983151368749 -0.051495432590474843 2.4777416904136143 -0.050089348542088075 -0.048115084812591177 -0.050049553073210032 0.19137485543171728 -0.050101493807044789 -0.052718920960988402 0.13470176980144266 -0.092584761180152395 -0.31354499162314325 -0.046296787090208999 -0.04938748702186499 0.39957297864870078 0.13509556743580173 0.11727048845358889 -0.010514977383851364 0.21852033908298713 0.080692072452945462 -0.067957883131782013 -0.05560662454787553
leaf_weight=3.5433845520019522 0.25800158076734625 0.087390889015684758 0.063780885177978419 0.24319930525962263 0.050183677453756625 0.32626642734157973 3.182843113988576 0.10598738373664673 0.2150499568811024 0.25650569140200952 0.24095808435231436 0.31092903017997775 0.50635103328386222 0.49147284047921913 1.8740244719529067 0.095514390326570608 0.20138607779517759 0.38270882022334252 175.73262315379526 0.43764239941910155 0.45989082963205874 0.95398804871365672 2.4791167601943007 0.029986753594130278 0.79104946617735539 0.062678633723407873 0.16534215665887986 0.059319956810213514 1.3694625910720799 0.04463820782257244 0.081253872020169982 0.51324580761138339 1.4483744128956457 4.552793080235479 4.8078193068504333 0.30251152170493639 0.2704254733366982 1.7639839274970641 0.52593237225664768 1.2616923458990648 0.96492109820246152 0.098049965188871324 1.081736387684942 0.019780114351306111 0.11800132947973896 25.585936370315622 0.23893533692262536 0.77829055540496483 3.1926671783731342 0.39214484428521146 0.25945658443725172 7.7640027355336381 0.40272277826443315 1.0547647034400172 15.001496549695728 0.11057972954586137 0.23466820642352104 1.4052571069914845 1.1003892945591349 0.17738406208809454 0.9911572485580098 0.71195081289624795 7.7016199768986553
leaf_count=184 37 28 20 16 25 56 91 30 9 32 5 12 38 20 932 26 21 147 169603 26 21 815 2056 19 370 21 128 36 1183 14 30 361 251 384 62 45 52 740 13 211 390 2 546 20 110 25203 242 87 2869 108 66 460 7 410 12580 42 4 130 661 8 214 271 5245
internal_value=-0.0450004 -0.0786241 -0.0888474 -0.508254 -1.77323 -0.0782293 -0.170326 -0.665446 -0.046498 0.154247 -0.0431339 -0.032897 -0.0415354 0.0506884 -0.0451701 0.00154107 0.0689896 0.122368 -0.0479338 -0.0910757 -0.0380834 -0.0246527 0.00156963 0.0178997 0.0526398 0.537016 0.0440918 0.0655456 0.0557444 0.0302729 0.346737 0.0183128 0.0661842 -0.0559445 -0.0285011 0.191626 0.372247 -0.0371622 -0.0146416 0.0621549 -0.0230915 0.0400341 -0.000487021 -0.0514803 -0.108468 -0.0461998 0.143213 0.149058 -0.0279969 0.0548314 0.222253 -0.0999614 -0.253843 -0.0129632 -0.0437434 0.0214254 -0.0137533 0.0871275 -0.0467019 0.0212803 -0.0350546 0.0185519 -0.0455891
internal_weight=279.936 14.7228 14.4648 0.357164 0.113965 14.1076 3.6151 0.432254 10.4925 0.471556 265.213 84.6591 67.682 2.56639 65.1156 16.9771 3.28507 1.98935 180.554 8.708 56.4076 28.1682 11.8675 9.38835 5.34364 0.0926654 5.25098 4.45993 4.40061 3.45697 0.125892 3.33108 1.96162 10.0209 5.46815 0.660328 0.357816 2.25546 13.692 1.35721 12.3348 1.96518 1.60767 28.2394 2.39475 25.8447 0.258715 0.943633 4.0447 0.852036 0.357507 8.27035 0.520724 1.29572 16.3007 1.29924 1.18866 1.78797 177.01 1.27777 10.3696 1.70311 8.66654
internal_count=227845 887 850 61 45 789 177 86 612 41 226958 56502 48805 772 48033 7697 713 298 170456 524 47509 20995 7554 5498 2500 40 2460 2090 2054 1839 44 1795 612 571 187 125 80 760 6984 237 6747 627 559 26514 1049 25465 262 215 2998 129 68 498 117 415 13441 861 819 277 170272 669 6120 485 5635
is_linear=0
shrinkage=0.05


Tree=13
num_leaves=64
num_cat=0
split_feature=3 13 15 25 15 12 9 20 10 23 14 15 24 6 28 2 7 9 7 21 15 10 0 13 11 11 8 0 4 21 6 9 16 13 25 26 17 13 11 13 11 19 13 6 4 19 21 10 4 4 30 12 21 30 21 20 28 24 18 11 11 30 25
split_gain=6.05379 17.45 74.6556 16.0996 74.8163 255.504 717.151 14.4671 140.87 217.308 14.1774 1403.98 17.0803 37.23 10.5572 23.3218 8.47426 7.32182 9.5857 10.6921 2707.12 6.62209 5.17312 4.71883 4.71967 20.67 4.39451 4.26434 522.321 4.20949 4.16587 3.65698 3.65647 5.93845 5.51301 4.71145 4.37344 3.94971 3.62452 4.76243 4.44105 3.29422 3.25188 3.07774 2.96752 2.94248 2.8232 2.75613 5.95232 4.7703 2.64712 2.54397 2.45024 2.4122 2.39401 2.52339 2.37646 2.34767 2.17627 15.0474 2.23341 2.66562 6.00714
threshold=2.1677355555543758 -3.6128426166552843 -2.8508117238719146 0.46087572570013957 -1.5807091136681299 -0.62610274567190582 0.40679250793231009 2.3644982358505304 1.3478426541121702 -0.20274611770302797 1.5789891839427703 -1.8483947298738799 1.4457616239833702 -1.7165843052705398 2.5000000000000004 -0.47324619408800644 0.69678661778192263 0.20225886044630501 -0.34123233119682644 0.58158740789086105 -1.9380935372651198 2.7133912037960752 -0.12486738365278499 -2.6262787275278345 1.2345852454864001 1.2581727205501851 -1.4882589135141597 -1.6935305529379499 -3.3950354337840394 1.0072988502719251 -3.4610937641094597 -0.31167585569333145 0.53382553413617007 -0.81811979204110385 -0.117829311927713 0.046949137997133107 -0.3108148318241874 -2.3754171685980245 -0.3174858757009475 -1.7761102791655898 0.4765815627195546 -0.98185489821730987 -0.83634457439668541 1.1589023063477502 4.4468198862514514 -2.7799206417324949 1.7845771284173251 -1.4595830518614299 1.3863279162277402 1.4258042983599502 0.5737964554448659 -1.2004143802751599 0.20723194856146751 0.5276783899985763 1.7845771284173251 1.3379930416372952 10.500000000000002 0.37781591786978258 -2.4452986082580996 -2.9598185610008545 -2.9598185610008545 5.6453232149270898 -0.49144438483099795
decision_type=2 2 2 2 2 2 2 2 2 2 2 2 2 2 2 2 2 2 2 2 2 2 2 2 2 2 2 2 2 2 2 2 2 2 2 2 2 2 2 2 2 2 2 2 2 2 2 2 2 2 2 2 2 2 2 2 2 2 2 2 2 2 2
left_child=1 2 -1 7 5 -5 -7 10 -9 -10 12 -12 14 -14 15 16 -2 18 43 27 -21 32 46 -19 47 -26 -4 56 -29 52 -30 -17 54 34 35 36 -34 -38 51 40 -40 -28 -41 -16 -35 -37 -6 48 -25 -50 -13 -39 -24 -51 58 -56 -20 -58 59 -3 -60 -62 -63
right_child=3 21 26 4 22 6 -8 8 9 -11 11 50 13 -15 17 31 -18 23 19 20 -22 -23 29 24 25 -27 41 28 30 -31 -32 -33 33 44 -36 45 37 38 39 42 -42 -43 -44 -45 -46 -47 -48 -49 49 53 -52 -53 -54 -55 55 -57 57 -59 60 -61 61 62 -64
leaf_value=-1.0029619036948099 0.10394299878276342 0.81890355555830985 -0.29793285227768046 0.05559766013042329 -0.044646602789362576 17.601259205654273 -0.050095317613453143 -0.050307281394628561 -0.050288176714269585 9.2887855434876947 35.347243062689039 0.21779314213188844 -2.7550091627166329 -0.050159126513568714 0.056257089255745213 -0.23218685251886673 0.357803953786409 0.081994293366383267 -0.071599188796643509 -68.07299965947621 -0.096515573050874895 -0.095128050083855595 0.1084070283647266 -0.05015160392305832 1.2475723658040907 -0.050068036981025826 0.054354752362441673 -26.272780176027865 -0.33347099651053291 0.27248567700664833 -0.094997217449504456 -0.052815702196315151 -0.050122077223753031 -0.047523316364345647 -0.040543945973838313 0.13164553315648306 -0.051559843595323541 -0.050068935209866244 0.0021974580933094129 -0.050285565108589281 0.17267222070836635 -0.094154553301019905 0.14898598199621771 -0.073705952633737373 0.1135883389796575 -0.050431367238704776 0.075693463405585096 -0.050477471874254123 0.4420195975321124 0.14232982628319166 0.0034912585941228517 0.12458526585176151 -0.054844777858806405 -0.050536799170378066 -0.0084675596534911704 0.1864879835837262 -0.060319693581514872 0.059258627958279943 -0.087933610525539108 -0.050105061089940187 -0.048460396685040708 0.032598151382194115 -0.045208259724894881
leaf_weight=0.23220607638359059 1.2290041145170039 0.057384646672289819 0.25388791418273982 0.090622106905357214 1.8121014222844878 0.0085005764376545612 0.017811611585784703 0.23422115174351077 0.01489100354956463 0.010707974429280398 0.002825075003784149 0.17886210180586104 0.018484664033167064 0.040805111755615964 1.6152874015388108 0.36017372088053901 0.44877899775747909 0.95251830067908017 3.56903808939387 0.0014700461406391687 0.39827482776652168 6.3215094804763785 0.82271663693316222 1.4149986270931578 0.038510035336163706 0.15108911925926805 0.39377712468558357 0.0019067404791684997 0.18738933233543953 0.30283607286401082 8.0608380127770118 1.3463471637011275 1.3185759256593872 27.779317249462114 8.5582261243835074 0.23898653686046634 0.84706936171278169 0.22909548587631468 0.70441101811593287 1.5942541989497827 0.83477747259894386 7.2192366270576542 0.23489598068409479 0.63448535162024189 0.28878249228000541 3.1023400519043198 0.66667892481200386 8.9323394206655671 0.1006083353422581 0.45839138998417184 0.74141732172574848 2.3185465292772265 0.31894900259794667 0.25083403842290863 1.0414509385373083 0.19744680414441962 0.79953834271871294 0.84348438965391537 3.3383788992650798 0.37758988823043083 152.88233143197786 3.3694982621818772 9.4047533173715845
leaf_count=33 152 5 8 9 1246 46 14 149 10 32 9 8 30 32 165 32 31 69 116 34 133 433 58 1362 13 141 42 3 6 47 722 713 1173 26817 7359 8 451 194 191 1290 71 435 30 165 88 2651 44 7808 12 13 399 421 87 165 521 6 195 73 852 312 159090 2063 8958
